window.RICOCHET_POLICIES = window.RICOCHET_POLICIES || {};
window.RICOCHET_POLICIES["fixed_bc"] = {"layers":[{"w":[[-0.20156221091747284,0.011339765042066574,0.5318248271942139,-0.23472261428833008,1.4318526983261108,0.075916588306427,0.12228776514530182,-0.05087163671851158,0.0963933914899826,-0.1084129810333252,-0.1545211225748062,0.2664937973022461,-0.46584317088127136,-0.09729838371276855,0.032921552658081055,0.26018640398979187,-0.36489570140838623,-0.11794742196798325,-0.5822036266326904,-0.2512613534927368,0.17664261162281036,0.5884826183319092,-0.022784793749451637,0.13078422844409943,-0.03195207566022873,0.03216344118118286,0.09788418561220169,-0.10023804008960724,-0.1361444890499115,-0.03116881661117077,-0.45537275075912476,-0.20143404603004456,0.1062765121459961,0.14023497700691223,-0.12178677320480347,0.023011058568954468,-0.11386136710643768,0.07434669137001038,-0.0892208069562912,0.11860094219446182,-0.05652082711458206,0.06458213925361633,-0.13143353164196014,0.32893994450569153,0.12527206540107727,-0.01331694982945919,-0.3820802569389343,-0.07897599041461945,-0.11258705705404282,0.30004411935806274,-0.12041139602661133,0.17523694038391113,0.10700397193431854,-0.012903734110295773,0.19907943904399872,0.12061513215303421,0.20283916592597961,-0.05210478603839874,0.29611146450042725,0.00029481854289770126,0.00863685179501772,-0.0033840397372841835,-0.14220115542411804,-0.4649999737739563,-0.1561032086610794,0.14775961637496948,-0.06705352663993835,0.27633538842201233,0.01033361442387104,-0.08370336890220642,0.10141747444868088,0.07183623313903809,0.2030981481075287,-0.16036203503608704,-0.21166259050369263,0.24529077112674713,-0.0099512729793787,0.0065534417517483234,0.07410695403814316,0.061398524791002274,0.013352272100746632,0.08854041248559952,-0.027226200327277184,-0.006615588907152414,-0.005059812217950821,-0.054296355694532394,-0.03392433002591133,0.03448040783405304,-0.09236025810241699,-0.06947113573551178,-0.05432377755641937,-0.20413033664226532,0.07800745218992233,-0.17719586193561554,0.14112354815006256,0.10349803417921066,0.09017230570316315,-0.21620267629623413,0.6044425368309021,0.4232948422431946,0.14243173599243164,0.21345971524715424,0.23333017528057098,-0.29446208477020264,-0.08218032121658325],[-0.03984710946679115,0.14598561823368073,0.26263272762298584,-0.18434414267539978,-1.2215139865875244,-0.4027971625328064,-0.34203341603279114,-0.36872297525405884,-0.20015369355678558,-0.3695928454399109,-0.2472255527973175,0.2204986959695816,0.15206778049468994,0.019793834537267685,-0.0029287096112966537,0.23775269091129303,-0.6097301840782166,0.20084814727306366,0.019374174997210503,-0.2978235185146332,0.19415704905986786,0.14805449545383453,-0.5434216856956482,0.29851624369621277,-0.1988675594329834,-0.10794169455766678,0.10912295430898666,0.01938273198902607,-0.18770307302474976,-0.08861419558525085,0.011036534793674946,0.3306196928024292,0.0150694465264678,-0.2487354278564453,-0.09525126218795776,0.05597668141126633,0.3094150424003601,0.11644718050956726,0.15730775892734528,-0.1066853478550911,0.04478171467781067,0.04022276774048805,-0.016139697283506393,0.1953999251127243,0.1243942379951477,-0.13238127529621124,-0.009035109542310238,0.07423999160528183,0.12099665403366089,0.17435067892074585,0.22697123885154724,0.10609086602926254,-0.11663706600666046,0.4510016441345215,0.08814561367034912,-0.1421876847743988,-0.04101768508553505,-0.07931222766637802,-0.0016563303070142865,0.8839482069015503,0.011249788105487823,-0.016932329162955284,0.007056367117911577,0.14947809278964996,0.2065131813287735,0.02758239023387432,0.4247603416442871,0.21250735223293304,0.2662900388240814,0.08282211422920227,0.18540190160274506,-0.33975791931152344,0.25759217143058777,-0.032001521438360214,0.01503283903002739,0.33842021226882935,-0.05910749360918999,-0.3110542297363281,0.15364588797092438,0.03914152458310127,-0.07233428210020065,-0.2234209179878235,-0.09283742308616638,-0.06205118075013161,-0.15188179910182953,-0.06739294528961182,-0.0596415251493454,-0.03839319944381714,-0.24244244396686554,0.09124420583248138,0.08550843596458435,-0.48447132110595703,0.3038313686847687,0.5095482468605042,-0.03944585844874382,-0.13242889940738678,0.19509531557559967,-0.06852389127016068,-0.05224710330367088,-0.1590988039970398,-0.03545066714286804,-0.016268273815512657,-0.2200535237789154,0.08609063178300858,0.04227347671985626],[-0.19465699791908264,0.021195968613028526,-0.3155548870563507,-0.20046263933181763,1.6444252729415894,0.161075159907341,-0.14162929356098175,-0.27687036991119385,0.14498452842235565,-0.3332954943180084,-0.034501802176237106,-0.17530499398708344,-0.35487931966781616,0.060149308294057846,0.01406124047935009,0.16533799469470978,-0.19426316022872925,0.06186780333518982,0.49236276745796204,-0.1399136781692505,-0.14562126994132996,0.19624988734722137,-0.0024888645857572556,-0.07592692226171494,-0.11483139544725418,0.23593240976333618,-0.18042120337486267,0.10956443846225739,0.16561131179332733,0.17808033525943756,-0.07997093349695206,-0.21969887614250183,0.29828721284866333,0.07909541577100754,0.09085112065076828,0.4760679304599762,0.12613844871520996,-0.26818743348121643,0.1756427139043808,-0.04020876809954643,-0.06517001241445541,0.23280933499336243,-0.07488521933555603,-0.1409033089876175,0.13905350863933563,0.13801242411136627,-0.2682030200958252,0.07975956797599792,0.03287661075592041,-0.11198893934488297,0.1482757180929184,-0.20645852386951447,-0.1244167909026146,-0.0007940711220726371,0.16288551688194275,-0.29862430691719055,-0.17287392914295197,-0.1418970376253128,0.035803232342004776,0.383746474981308,-0.062435440719127655,-0.01923193596303463,-0.04344576224684715,-0.5032091736793518,-0.11312957853078842,0.04853162169456482,0.0587947852909565,0.12291863560676575,-0.041921406984329224,0.038490984588861465,-0.29336437582969666,0.15145030617713928,-0.11257342249155045,-0.017286550253629684,-0.42148154973983765,-0.24567483365535736,-0.06963493674993515,-0.00887814536690712,-0.07007406651973724,0.03951556980609894,-0.08059459924697876,-0.3303549587726593,0.02122851088643074,0.07528030127286911,0.03313998132944107,0.005750712938606739,0.03377505764365196,0.04643728584051132,-0.03659537434577942,0.13149259984493256,-0.7983797192573547,0.38701656460762024,0.09377454221248627,0.07859831303358078,-0.22347477078437805,-0.003181259147822857,0.12561166286468506,-0.03301345929503441,-0.012651409953832626,-0.3378159701824188,-0.04846901446580887,-0.010582641698420048,0.1988939642906189,-0.1378733515739441,-0.020505107939243317],[-0.08956002444028854,-0.2814624309539795,-0.056487154215574265,0.12169528007507324,0.02156130224466324,-0.17471155524253845,-0.18771854043006897,-0.27620553970336914,-0.19352419674396515,-0.23331676423549652,0.050711967051029205,0.16265475749969482,-0.4066501557826996,-0.19351604580879211,-0.11384160816669464,0.12897340953350067,1.0927741527557373,-0.09179608523845673,0.16116106510162354,0.2063188999891281,-0.6481073498725891,-0.14677372574806213,-0.4414542615413666,0.1288951188325882,0.1259884387254715,0.14887945353984833,-0.19030895829200745,0.011928670108318329,-0.1548294723033905,0.11901291459798813,0.12701083719730377,0.23514424264431,-0.1819964051246643,-0.31043848395347595,0.23681360483169556,-0.2487148642539978,-0.3643415570259094,-0.176178440451622,-0.09771575033664703,0.24394497275352478,-0.0665215402841568,0.08833379298448563,-0.27175143361091614,0.17738313972949982,-0.01039270032197237,0.155702143907547,0.3782372772693634,0.14274580776691437,0.15821805596351624,-0.41679736971855164,-0.3709062933921814,-0.11864662170410156,-0.04020311310887337,0.053066328167915344,0.16286449134349823,-0.02030884101986885,-0.21875430643558502,0.10689356923103333,-0.010850287973880768,0.9793368577957153,0.47093576192855835,0.38989341259002686,0.27168571949005127,0.5588485598564148,-0.24514639377593994,-0.08698039501905441,-0.3273279666900635,0.07828378677368164,0.042121563106775284,0.34879356622695923,-0.46807244420051575,-0.3073227107524872,0.06398780643939972,-0.4775646924972534,-0.16074895858764648,0.013925124891102314,0.022171474993228912,-0.017081735655665398,-0.34464582800865173,0.12538956105709076,0.31589770317077637,-0.03754900023341179,-0.05467740446329117,-0.09717172384262085,-0.03575276955962181,-0.0661083236336708,-0.01050919946283102,-0.04654484614729881,-0.009618423879146576,0.21876968443393707,0.09365430474281311,-0.22342781722545624,0.003557040588930249,-0.14657488465309143,-0.5545641183853149,-0.008840814232826233,0.1208566352725029,0.3679031431674957,-0.2442128211259842,0.6402108073234558,-0.27690958976745605,0.009695849381387234,0.09378212690353394,0.10055197775363922,0.5392033457756042],[0.09771132469177246,0.036271337419748306,-0.06207743659615517,-0.12126140296459198,-0.731306791305542,-0.10795695334672928,-0.2673933207988739,-0.15386219322681427,0.19964826107025146,0.34276124835014343,-0.045483388006687164,-0.03521236777305603,-0.42245233058929443,-0.33569347858428955,0.09661037474870682,-0.06574081629514694,0.5334194302558899,-0.020025575533509254,0.2768784761428833,0.04339730739593506,-0.345306932926178,-0.028871754184365273,0.5038481950759888,0.13737404346466064,0.453751802444458,-0.012209787033498287,-0.3709815740585327,-0.3210075795650482,-0.001482481718994677,-0.4013548791408539,0.1517356038093567,-0.02056313306093216,-0.12690281867980957,-0.028481081128120422,-0.12085223197937012,0.071967214345932,0.16564005613327026,-0.07998593896627426,0.2912994921207428,0.10245587676763535,0.20911331474781036,-0.06397923082113266,-0.05615894868969917,0.2094762772321701,0.12243568152189255,-0.5371400117874146,-0.06669790297746658,-0.24423979222774506,-0.3391948640346527,-0.5568277835845947,-0.5901100635528564,-0.522808849811554,0.020413614809513092,-0.13074235618114471,-0.059510666877031326,-0.14912639558315277,0.14119820296764374,0.3120342791080475,0.308170348405838,0.000661446014419198,-0.006574373692274094,0.30616384744644165,0.3610856533050537,-0.6239791512489319,-0.0011502032866701484,-0.4986286461353302,-0.6800557374954224,-0.14347778260707855,0.42520013451576233,-0.33812928199768066,-0.423772931098938,0.11748544871807098,0.3728322386741638,-0.2883211672306061,-0.32673540711402893,-0.01913362182676792,-0.42915183305740356,0.043378207832574844,0.045971546322107315,-0.13157685101032257,-0.11360867321491241,0.04826011881232262,0.08615536242723465,0.05805936083197594,0.05592084676027298,0.01435160357505083,0.019042115658521652,0.016651108860969543,-0.28462710976600647,0.044093310832977295,-0.4400874078273773,0.2030201554298401,0.3875597417354584,-0.9139317274093628,-0.18915417790412903,-0.18420612812042236,-0.14055895805358887,-0.09087858349084854,-0.11035027354955673,0.06650476157665253,-0.05204959213733673,0.23956909775733948,-0.11547752469778061,-0.010011644102633,0.06356045603752136],[-0.19924761354923248,-0.13721656799316406,-0.1465916484594345,0.1325339823961258,-2.242637872695923,0.13905781507492065,-0.16448697447776794,0.09371888637542725,-0.007450009696185589,0.05302305892109871,0.3129686415195465,-0.14029860496520996,0.007576412055641413,0.10965166240930557,0.18014207482337952,0.06871223449707031,0.18186885118484497,-0.004325813613831997,0.3979658782482147,0.23419980704784393,0.0032859258353710175,-0.18068155646324158,0.04136822372674942,0.21709775924682617,-0.08510870486497879,-0.15658843517303467,0.26808640360832214,-0.1195688396692276,0.26165807247161865,-0.020093150436878204,-0.3202335238456726,0.08050986379384995,-0.23973657190799713,0.17441916465759277,-0.10292378813028336,0.21774005889892578,-0.24414369463920593,-0.15095850825309753,0.2004324346780777,0.3567906320095062,-0.03505643084645271,0.002458210103213787,0.029835525900125504,0.15080544352531433,-0.07628391683101654,-0.266407310962677,-0.23426339030265808,0.17101603746414185,-0.015459373593330383,0.04814668744802475,-0.10061129927635193,0.3349708318710327,0.25044891238212585,0.35343363881111145,0.32758525013923645,-0.1180449053645134,-0.026179201900959015,-0.0760718435049057,-0.19432464241981506,0.20069918036460876,0.22527679800987244,-0.11717407405376434,-0.11051837354898453,0.49615296721458435,-0.023817934095859528,-0.06919548660516739,-0.01883907988667488,-0.10016721487045288,-0.16759754717350006,-0.19363613426685333,-0.22508932650089264,-0.048882223665714264,0.10003918409347534,0.14563679695129395,0.12567970156669617,-0.22419780492782593,0.08424574136734009,0.090906523168087,-0.3436996340751648,0.07565227150917053,0.1324775516986847,0.0501764677464962,-0.11882515251636505,-0.017334768548607826,-0.07393579185009003,-0.10967416316270828,-0.08557011187076569,-0.08214142173528671,0.04759829863905907,0.07004736363887787,-0.07155881822109222,-0.31114232540130615,-0.03214458003640175,0.15629877150058746,-0.2996801435947418,-0.1343238651752472,0.1337214708328247,0.06879798322916031,-0.39956316351890564,0.22653473913669586,0.0899491161108017,-0.1940794140100479,-0.2223757952451706,-0.10608232021331787,0.036326125264167786],[-0.21604931354522705,-0.15990284085273743,0.4218357801437378,0.022796619683504105,0.46612340211868286,-0.18093205988407135,0.11690039932727814,0.2290066033601761,0.08255360275506973,0.305154412984848,0.3019930422306061,-0.0058517418801784515,-0.17740604281425476,0.3605819642543793,0.35548096895217896,0.2142607569694519,0.1355205923318863,0.33448827266693115,0.1695544272661209,0.10682476311922073,-0.19949199259281158,-0.31170862913131714,-0.09898627549409866,0.312564879655838,-0.047466881573200226,0.3839554488658905,0.3849833905696869,0.14526571333408356,0.08702404052019119,-0.001414422644302249,-0.06629173457622528,0.04765591025352478,0.023196259513497353,-0.013825580477714539,-0.07090609520673752,-0.19434717297554016,0.2519705891609192,0.018569830805063248,0.36822909116744995,-0.3365612030029297,-0.2674117684364319,0.2574823200702667,-0.3656010031700134,0.29129600524902344,-0.05714336410164833,-0.05174592509865761,-0.302077054977417,0.1464095562696457,-0.0796661525964737,-0.2326749861240387,0.019238688051700592,-0.12092269212007523,0.026735788211226463,0.3227039575576782,-0.03707461059093475,0.10326146334409714,0.06745921820402145,-0.008948951959609985,-0.11704690009355545,0.18527503311634064,-0.05391721427440643,0.08570517599582672,0.39616742730140686,-0.5408241152763367,-0.2233063131570816,0.002970865461975336,0.42152607440948486,0.22825588285923004,0.1372765153646469,-0.6048611998558044,-0.25858446955680847,-0.051612626761198044,-0.206316739320755,0.2311914712190628,0.4775286018848419,-0.05719410255551338,0.20308642089366913,-0.5562025308609009,-0.11773347854614258,-0.05411291867494583,0.16581666469573975,0.05228939652442932,0.09873752295970917,0.04464994743466377,0.044213198125362396,0.003928844816982746,-0.044653575867414474,0.09324031323194504,0.3069576919078827,-0.08085338771343231,-0.22759917378425598,-0.2648279070854187,-0.2840823531150818,0.19385972619056702,-0.129607155919075,-0.01750878244638443,0.19008733332157135,-0.12904877960681915,0.08544495701789856,-0.2254113107919693,-0.24791286885738373,0.18263860046863556,0.17412324249744415,0.12846170365810394,0.06906669586896896],[0.29131773114204407,0.3303143084049225,0.5857817530632019,0.09735726565122604,-0.33786216378211975,0.222977876663208,-0.30410170555114746,0.15033075213432312,-0.08027203381061554,-0.21858295798301697,0.06502564996480942,-0.024532800540328026,0.26281803846359253,-0.1722865104675293,-0.16029006242752075,-0.04611698165535927,-0.4351397454738617,0.15630877017974854,-0.8257647752761841,0.11016213893890381,-0.03299075365066528,0.05175516754388809,0.4511260390281677,0.0982629731297493,-0.2252218872308731,-0.10067865997552872,-0.2442663162946701,0.10301824659109116,0.14951206743717194,-0.16888529062271118,0.2763899862766266,-0.12795154750347137,0.12297849357128143,-0.2251051366329193,0.37826621532440186,0.44886693358421326,0.3530683219432831,0.22969327867031097,0.37470412254333496,0.291175901889801,-0.052840959280729294,-0.005547748412936926,-0.36887699365615845,-0.2628667652606964,-0.1996917426586151,-0.2332966923713684,0.3778317868709564,0.1444234997034073,0.018013685941696167,-0.061949048191308975,0.16329938173294067,-0.2741205096244812,-0.3088914453983307,-0.30111825466156006,-0.1830584853887558,0.004926713183522224,-0.14527562260627747,0.2333655059337616,-0.24363167583942413,-0.46679285168647766,-0.17912888526916504,0.15795369446277618,0.180099755525589,-0.3266940414905548,-0.06537891924381256,-0.4293381869792938,-0.08317530155181885,0.10343063622713089,-0.08607883751392365,0.36638832092285156,0.08569693565368652,0.018544644117355347,0.03385663405060768,-0.4600124955177307,-0.2836487293243408,0.023601440712809563,0.3321635127067566,0.25285959243774414,0.09336905181407928,-0.06031746417284012,0.1028793528676033,-0.14371106028556824,-0.07890021800994873,-0.045498039573431015,-0.0305909626185894,-0.07887980341911316,-0.05370962992310524,-0.051448531448841095,-0.04430093988776207,0.06931821256875992,-0.16202497482299805,-0.05485295504331589,0.007323125842958689,-0.0792895257472992,0.3603764772415161,0.011231559328734875,-0.23758085072040558,-0.46368494629859924,0.22948066890239716,-0.5274013876914978,-0.18565674126148224,-0.1265663355588913,-0.005179551430046558,0.2460458129644394,-0.12903670966625214],[0.48736199736595154,-0.11921326816082001,-0.14396922290325165,0.04597390815615654,-0.6962141990661621,-0.0692371353507042,0.013786370866000652,0.017787262797355652,0.1356997936964035,0.09152340143918991,0.1321876347064972,0.06260347366333008,-0.3444661796092987,0.3340115547180176,0.3325105309486389,-0.12155727297067642,-0.06244901567697525,-0.5445303916931152,-0.12224464118480682,0.2584269642829895,-0.37684690952301025,0.026777436956763268,-0.4832417070865631,-0.18761318922042847,-0.0037583315279334784,-0.0006336307269521058,0.2322189062833786,0.020361559465527534,0.08304974436759949,-0.15760499238967896,0.11777396500110626,0.16144025325775146,0.10188979655504227,-0.22313690185546875,-0.33924561738967896,-0.06061844527721405,-0.2957296669483185,0.06021112576127052,-0.07327495515346527,-0.17996075749397278,-0.22954986989498138,-0.00729407137259841,0.33013999462127686,-0.3798651099205017,-0.10614155232906342,0.28865864872932434,0.025085147470235825,0.07093513756990433,-0.33881834149360657,0.1258627325296402,-0.1332555115222931,0.0810825452208519,0.13757683336734772,-0.17614473402500153,-0.10165335237979889,0.2328329086303711,0.1356479376554489,0.11632417142391205,0.16114689409732819,0.05496339872479439,0.10979891568422318,0.18066748976707458,0.030879734084010124,-0.009955588728189468,0.05841982364654541,0.4553290605545044,0.1063866838812828,-0.15335945785045624,0.6617250442504883,-0.2074670046567917,0.040241461247205734,-0.12245232611894608,0.5298880934715271,0.15679146349430084,0.08694830536842346,-0.14306209981441498,0.2888580858707428,-0.20577296614646912,-0.09049247205257416,-0.09612644463777542,-0.12277952581644058,0.0869993194937706,-0.031473904848098755,-0.06147922948002815,0.062040962278842926,0.010863617062568665,0.07577677816152573,-0.038730915635824203,-0.0370183102786541,-0.1963721513748169,-0.4146963953971863,0.9423648118972778,0.17945553362369537,-0.311421662569046,0.0923270583152771,0.029278529807925224,-0.3978460729122162,-0.21182331442832947,-0.1322275549173355,-0.23610837757587433,-0.10847999900579453,-0.19500085711479187,-0.08720903098583221,-0.02147453837096691,-0.06514506042003632],[-0.300265908241272,-0.1740322858095169,-0.03356102108955383,-0.09610648453235626,-1.4813532829284668,0.21250486373901367,-0.09840606153011322,-0.03606361895799637,-0.07997909188270569,-0.18143926560878754,0.0641067624092102,-0.02091246284544468,0.019855685532093048,0.094733826816082,-0.011863763444125652,-0.11003425717353821,-0.34756726026535034,0.37648805975914,-0.3297346830368042,0.28754305839538574,0.16321590542793274,0.18137116730213165,-0.7678493857383728,-0.04965806379914284,-0.08639954030513763,-0.0745820701122284,0.0583297535777092,-0.18361537158489227,0.09513537585735321,0.03053921088576317,-0.06793926656246185,-0.0005464685382321477,0.09623505920171738,0.04608176648616791,-0.04968012869358063,0.04665200412273407,0.21751461923122406,0.1211661845445633,-0.016915079206228256,-0.03514224663376808,-0.42513442039489746,-0.054393328726291656,-0.32841360569000244,0.2386123389005661,0.3468368351459503,0.23696763813495636,0.1713174730539322,-0.2684780955314636,0.004157571122050285,-0.06359896063804626,0.07592511177062988,-0.13458555936813354,-0.22114336490631104,-0.033925335854291916,-0.07014051079750061,-0.38444215059280396,0.10018652677536011,-0.32044920325279236,-0.04308928921818733,0.1293095201253891,-0.2370978444814682,0.0825367122888565,0.039915528148412704,-0.10259148478507996,-0.2912779450416565,0.5471807718276978,0.052178625017404556,0.4317679703235626,0.09122274070978165,-0.1910560131072998,-0.13805413246154785,-0.04339327663183212,0.21160635352134705,0.23337100446224213,0.5199316143989563,-0.23311369121074677,0.06590528786182404,-0.2438213974237442,-0.1127970740199089,-0.05269479379057884,0.003835635492578149,-0.04621097818017006,-0.08434783667325974,-0.08903689682483673,-0.10516639798879623,-0.10024119168519974,-0.11616028845310211,-0.07296135276556015,-0.09421608597040176,-0.02458377741277218,-0.29892659187316895,0.2429364025592804,-0.14023369550704956,-0.8311572670936584,0.20538325607776642,0.12983152270317078,0.1628560572862625,0.357818603515625,0.07596727460622787,-0.13535641133785248,-0.061912279576063156,0.033594027161598206,-0.06845089048147202,0.0777842104434967,0.10861216485500336],[-0.32700321078300476,-0.040029462426900864,0.24261078238487244,0.2717401087284088,0.8320184946060181,0.21994958817958832,0.353927344083786,0.22083470225334167,0.1587568074464798,0.03339081630110741,0.16678829491138458,0.2040412724018097,-0.23928840458393097,0.026759853586554527,0.04896589741110802,0.5948677062988281,-0.51810222864151,0.3162720501422882,-0.3856816291809082,0.068071149289608,-0.08499662578105927,0.3213808536529541,-0.1258389800786972,0.24307404458522797,0.34875988960266113,-0.22010865807533264,-0.1971968710422516,-0.17424558103084564,-0.2290593385696411,-0.31420040130615234,-0.1977657973766327,-0.0021652516443282366,-0.15020287036895752,0.24543936550617218,0.14868277311325073,0.14155936241149902,0.06517596542835236,0.35308679938316345,-0.31855425238609314,-0.04408756643533707,-0.25276562571525574,-0.12219344079494476,-0.16951288282871246,-0.4220067262649536,0.1357826292514801,0.004411753267049789,-0.08178792148828506,-0.03271861374378204,-0.24829904735088348,0.07405097037553787,0.11399629712104797,0.08398446440696716,0.38336214423179626,0.17345798015594482,-0.13545210659503937,0.25039806962013245,0.12915371358394623,-0.1783515214920044,-0.3884163796901703,0.49198588728904724,-0.6428391337394714,-0.11887945979833603,0.5341794490814209,-0.02711171656847,-0.24405425786972046,-0.18716320395469666,0.2914758622646332,-0.12918320298194885,0.035615526139736176,0.5647341012954712,0.18724055588245392,0.043082479387521744,0.10311105847358704,0.33306944370269775,-0.17602664232254028,-0.0888713002204895,0.4201121926307678,0.2659097909927368,-0.3216549754142761,0.06375260651111603,0.14287564158439636,-0.06910667568445206,0.05307382717728615,0.04432843625545502,0.01913154125213623,-0.014893540181219578,0.009685990400612354,0.02257089503109455,-0.03893064334988594,0.19269602000713348,-0.4783802330493927,0.9457904100418091,0.41410258412361145,-0.2801133394241333,0.21585498750209808,0.0021696360781788826,0.4292243421077728,-0.06647004932165146,0.29626256227493286,-0.3828103542327881,0.06746425479650497,0.00514482706785202,-0.33779165148735046,-0.06100964918732643,-0.0582815557718277],[0.1251075118780136,-0.3644854426383972,-0.14762607216835022,0.20123517513275146,0.17343665659427643,-0.1506732702255249,0.09461131691932678,-0.01212229486554861,0.21506541967391968,0.020061664283275604,-0.10297543555498123,0.12988226115703583,-0.22529307007789612,0.14110028743743896,0.07851335406303406,-0.09955704212188721,-0.6002932786941528,0.09330137073993683,-0.15444248914718628,0.7605606913566589,-0.3277297914028168,-0.14655840396881104,0.3152587115764618,-0.31624922156333923,-0.15193766355514526,0.1156538650393486,0.36965954303741455,0.03021237999200821,-0.09821096062660217,-0.4048161208629608,-0.30381301045417786,0.6055523753166199,-0.01435330044478178,0.1751338690519333,-0.2893201410770416,0.022008802741765976,-0.16012302041053772,0.28964293003082275,0.11482177674770355,0.1374153047800064,0.0755959078669548,0.02441500499844551,0.3908129036426544,0.09337185323238373,-0.09339180588722229,0.049812741577625275,-0.6589353680610657,0.14663876593112946,-0.15448787808418274,0.11132190376520157,0.16758979856967926,0.3109281063079834,0.0628911703824997,-0.1924820840358734,0.10391493886709213,0.13904839754104614,-0.004023310728371143,0.19073449075222015,-0.20780090987682343,-0.2640696167945862,0.4078613519668579,-0.296891450881958,-0.12064916640520096,-0.2744811475276947,0.1875738799571991,0.19768241047859192,0.7538834810256958,0.2582840919494629,0.3295208513736725,-0.03413114324212074,-0.1768943965435028,-0.09394106268882751,0.3457529842853546,-0.026947563514113426,0.19633087515830994,-0.3159225583076477,0.03470064327120781,0.13186679780483246,0.3996039032936096,0.25321444869041443,0.20314107835292816,0.5425523519515991,0.2253764420747757,0.23400075733661652,0.23775558173656464,0.1348320096731186,0.22699786722660065,0.28127527236938477,-0.165474534034729,-0.08353938907384872,-0.34848710894584656,0.6946389675140381,0.2115161120891571,0.05170567333698273,-0.562923789024353,-0.07998837530612946,-0.12829813361167908,0.24957728385925293,0.13456369936466217,-0.6609191298484802,0.18804864585399628,-0.005064961034804583,-0.10058263689279556,0.03744753077626228,-0.2817150056362152],[0.26691749691963196,-0.17145854234695435,-0.19421887397766113,0.015529962256550789,-0.47754213213920593,-0.2206021100282669,0.04923061281442642,0.030170416459441185,0.2865663170814514,0.20456770062446594,0.3534494936466217,0.019634056836366653,0.3121151030063629,0.19909346103668213,-0.0033241696655750275,0.25338175892829895,-0.31896424293518066,0.3218168020248413,0.17095008492469788,0.027331799268722534,0.011353935115039349,-0.023076802492141724,1.002826452255249,0.17932380735874176,-0.28217852115631104,-0.2273438721895218,0.11856549233198166,0.21292006969451904,0.10589953511953354,-0.028333595022559166,-0.048007480800151825,0.6035778522491455,0.23179171979427338,0.33405816555023193,-0.044182103127241135,-0.2113703191280365,-0.43046337366104126,0.01385570503771305,0.016726797446608543,0.06376311182975769,0.002587402705103159,-0.39499834179878235,-0.16446252167224884,-0.04824471473693848,0.11791505664587021,0.21793906390666962,-0.16821196675300598,-0.13578781485557556,-0.1387641578912735,0.1046009287238121,-0.21220768988132477,-0.04996423050761223,-0.011367559432983398,-0.087932288646698,-0.337002158164978,0.055481813848018646,-0.10252160578966141,0.09294119477272034,0.1326785534620285,-0.013587333261966705,0.08627428114414215,-0.22021736204624176,0.09628578275442123,0.22542475163936615,0.14008428156375885,-0.22735276818275452,-0.2838631868362427,-0.09457246959209442,-0.1618681252002716,-0.2564987540245056,0.06268366426229477,-0.024505382403731346,0.02477513998746872,-0.07548563927412033,-0.12441566586494446,0.21997760236263275,0.06076192855834961,-0.34556999802589417,-0.015339422039687634,-0.037251077592372894,-0.15229541063308716,0.08930572867393494,-0.06906601786613464,-0.0026980643160641193,-0.09657993167638779,-0.12026893347501755,-0.11554666608572006,-0.11178334802389145,-0.17607134580612183,-0.06920116394758224,0.5037222504615784,0.402711421251297,-0.15622282028198242,-0.10073250532150269,-0.19071444869041443,0.08424294739961624,-0.2491600215435028,-0.0609782449901104,-0.07919188588857651,-0.23115657269954681,-0.16816852986812592,0.0843215063214302,0.18629568815231323,0.03853793069720268,0.06393028050661087],[0.038619235157966614,-0.04417773708701134,0.042908281087875366,0.0457954928278923,0.6251452565193176,-0.041883308440446854,-0.02588055282831192,-0.037946149706840515,-0.4618959128856659,0.23096661269664764,-0.2161416858434677,0.026437044143676758,-0.3173592686653137,-0.2543505132198334,-0.5186417698860168,0.2532963454723358,0.29777050018310547,0.15083371102809906,-0.0278965774923563,-0.09036829322576523,0.1898532658815384,0.025239234790205956,-0.19145973026752472,0.06664755195379257,-0.011016946285963058,-0.5703836679458618,-0.0630999505519867,-0.42199578881263733,0.37006083130836487,-0.24979913234710693,-0.28510022163391113,0.021709773689508438,-0.09077763557434082,-0.13364814221858978,0.09306664764881134,0.25556454062461853,-0.1266075223684311,0.32311537861824036,0.30979904532432556,0.04640322923660278,0.1314409077167511,-0.05982951074838638,-0.06620640307664871,-0.4510729908943176,-0.1347508281469345,-0.39973804354667664,-0.10742297023534775,-0.12388432770967484,0.12443069368600845,0.016404004767537117,0.012940154410898685,0.29371753334999084,0.05406021699309349,-0.3054172396659851,0.13162247836589813,0.35554927587509155,-0.4902896285057068,-0.2363583892583847,0.07981174439191818,-0.22579318284988403,0.536474347114563,0.6608887910842896,-0.01430667657405138,-0.02343163825571537,-0.05622439458966255,-0.2190874069929123,-0.9543558359146118,0.08340965211391449,-0.27736473083496094,-0.2018146514892578,-0.5004432797431946,-0.07206718623638153,-0.14525537192821503,-0.6880748271942139,0.4265650510787964,0.273551344871521,-0.46744200587272644,-0.054113052785396576,0.2516867518424988,-0.044111669063568115,0.024076439440250397,0.14351697266101837,0.05551173537969589,0.04581335559487343,0.059713736176490784,0.06606163084506989,0.05519279092550278,0.06529466062784195,0.02504139393568039,0.09950800240039825,0.2090444415807724,1.0141769647598267,0.005905725993216038,0.15040849149227142,0.0855162963271141,-0.0712428092956543,-0.16475842893123627,0.013770426623523235,0.048179320991039276,-0.4915198087692261,0.1601151078939438,0.09986280649900436,0.2274453341960907,-0.3158988058567047,0.14339561760425568],[0.4974328577518463,-0.3435779809951782,-0.1968558430671692,0.012552248314023018,-0.22087189555168152,-0.09948014467954636,-0.08892545849084854,0.24456308782100677,0.2120560258626938,0.1717546135187149,0.0533837229013443,0.09054704755544662,0.04545647278428078,0.23231709003448486,0.1899207979440689,-0.012480678036808968,-0.11512850970029831,-0.02721717767417431,-0.04994967579841614,-0.02203015424311161,0.3426673114299774,0.01735549606382847,-0.2930082082748413,-0.0006760653923265636,-0.37656036019325256,-0.09275929629802704,-0.2661218047142029,-0.06898108124732971,-0.06996004283428192,-0.02326410450041294,0.03675404563546181,0.2285812497138977,-0.10568637400865555,-0.02460106462240219,-0.00953271146863699,0.18210287392139435,-0.03641168400645256,0.4567611515522003,0.10136648267507553,0.1631813943386078,-0.30291613936424255,-0.17701886594295502,0.18834415078163147,0.20787999033927917,-0.19227591156959534,0.029926635324954987,-0.19857032597064972,-0.08769497275352478,-0.1198214441537857,-0.08948224037885666,0.20747029781341553,0.12923263013362885,0.2094723880290985,0.007339722476899624,-0.08948758244514465,-0.3482823371887207,0.2089921087026596,-0.14175790548324585,-0.058021195232868195,0.3038809895515442,0.12330500036478043,-0.0815490111708641,-0.20335304737091064,0.3556945323944092,-0.1029168963432312,0.11217781901359558,0.3650456368923187,0.28126463294029236,0.06473851203918457,0.4695579707622528,-0.09681198000907898,0.16591876745224,-0.028373539447784424,0.4394550025463104,0.31363755464553833,-0.6040076017379761,0.13607633113861084,-0.4311319589614868,-0.23894861340522766,-0.09110158681869507,-0.02925945445895195,0.08406731486320496,-0.02840827777981758,-0.014006457291543484,-0.1106971725821495,-0.04912901669740677,-0.022788915783166885,-0.021617351099848747,0.007295347284525633,0.15550799667835236,0.44497865438461304,-0.2762652039527893,0.3852291703224182,-0.22775781154632568,0.026656102389097214,-0.12388287484645844,-0.23972497880458832,0.08155529946088791,-0.10296858102083206,-0.28222355246543884,-0.27153971791267395,0.17700593173503876,-0.08043716847896576,0.0015353919006884098,0.3298024833202362],[0.08324827998876572,0.3894292116165161,-0.24750928580760956,-0.09711361676454544,0.3963901698589325,-0.002919754944741726,0.06861221045255661,0.27654901146888733,0.13331663608551025,0.012595584616065025,0.07054399698972702,0.04521575942635536,-0.1440974622964859,-0.1367313712835312,-0.15786799788475037,-0.008913055062294006,-0.07955767214298248,-0.14019964635372162,-0.07937157899141312,0.07062049955129623,-0.08421117067337036,-0.0457812137901783,-0.45907843112945557,-0.2630334198474884,0.03273078426718712,-0.06276832520961761,-0.23000074923038483,0.24383670091629028,0.024553412571549416,0.14122483134269714,0.29787299036979675,0.2585378587245941,-0.10043445974588394,-0.011487525887787342,-0.10064628720283508,-0.15119752287864685,-0.2231593132019043,0.06380865722894669,0.135748952627182,0.15292643010616302,0.3884473741054535,0.28523826599121094,-0.4631884694099426,-0.34165865182876587,0.12789572775363922,0.012458931654691696,0.09628041833639145,-0.1387304663658142,-0.05126551166176796,-0.2916323244571686,0.028704622760415077,0.08954798430204391,0.08743336796760559,-0.04163786396384239,0.17601579427719116,0.03383459150791168,0.05738601088523865,0.01699935272336006,-0.024718252941966057,-0.04092692211270332,-0.3490157723426819,0.12669624388217926,0.5384321808815002,-0.3799726665019989,0.37883260846138,-0.38079214096069336,0.05830995365977287,-0.4260462522506714,-0.13928057253360748,0.2079986184835434,0.026500608772039413,0.08989254385232925,-0.06645618379116058,0.060699086636304855,-0.1513526886701584,-0.18711073696613312,0.4720352590084076,0.4247080683708191,-0.025294547900557518,0.02494855225086212,-0.007931728847324848,0.020046290010213852,-0.037634626030921936,-0.021342264488339424,-0.04784255474805832,-0.05795959010720253,-0.06163383647799492,-0.041425928473472595,0.1963764876127243,-0.08604966849088669,-0.48625078797340393,0.4989866614341736,0.07144095003604889,0.26307299733161926,0.30357933044433594,0.18327529728412628,-0.472886860370636,-0.2946338951587677,0.48800116777420044,0.35824745893478394,0.21618296205997467,0.05471314117312431,-0.05371927097439766,-0.15682518482208252,-0.24953138828277588],[-0.032670944929122925,0.06289243698120117,0.4158364534378052,-0.17578847706317902,0.6432031989097595,0.26270872354507446,-0.11704311519861221,0.17442259192466736,0.19517527520656586,-0.06081129610538483,0.019282255321741104,0.0051834299229085445,-0.376335471868515,0.10650606453418732,-0.003045291407033801,0.03242332860827446,0.3168623447418213,0.2896975874900818,0.09783879667520523,-0.4329372048377991,0.5541176199913025,0.05765316262841225,-0.005290808621793985,0.018005331978201866,0.24798959493637085,-0.053311947733163834,0.11263353377580643,-0.10728487372398376,-0.06793072819709778,0.2651824653148651,-0.08435250073671341,-0.0016349771758541465,0.05751269683241844,-0.02447894774377346,0.1728217899799347,0.10805009305477142,-0.012897885404527187,-0.06629186868667603,-0.10080543160438538,0.3498937785625458,0.3860260844230652,-0.4337628185749054,-0.0007960795192047954,0.037293195724487305,0.04973997548222542,0.0835898220539093,0.1495828479528427,-0.18523772060871124,-0.24365843832492828,-0.17265549302101135,-0.051838383078575134,-0.004866086877882481,0.24292802810668945,-0.08441901952028275,0.12464886903762817,0.43879514932632446,0.02162730135023594,-0.18466156721115112,-0.07934608310461044,0.3874748647212982,0.15439105033874512,-0.05265878885984421,0.3311030864715576,-0.15264372527599335,-0.016941426321864128,0.044028740376234055,0.14186803996562958,-0.33631598949432373,0.305172860622406,-0.01790853776037693,-0.39321327209472656,0.06644998490810394,0.04835207015275955,0.39254316687583923,-0.17142389714717865,-0.285605251789093,0.43610692024230957,0.2875061631202698,-0.04342849180102348,0.07515152543783188,-0.013729613274335861,-0.1124725341796875,-0.01299737673252821,-0.05496494099497795,-0.1454380750656128,-0.04526591673493385,-0.008774030953645706,-0.09648475050926208,-0.05801527947187424,-0.11760827898979187,-0.3460271656513214,0.04085797071456909,-0.06282251328229904,0.284532755613327,-0.32073381543159485,0.08773196488618851,0.4708808362483978,0.16159600019454956,-0.09142478555440903,0.2648976147174835,0.06957050412893295,-0.1524546593427658,0.21252839267253876,-0.024235446006059647,0.2056996077299118],[0.28651243448257446,0.14869840443134308,0.09274978190660477,0.052430275827646255,0.6222954392433167,-0.013912666589021683,0.17833243310451508,0.42571863532066345,0.20430849492549896,0.3455337584018707,0.08948065340518951,-0.23031894862651825,0.4418702721595764,0.12476904690265656,-0.17440453171730042,-0.14070329070091248,0.40539106726646423,-0.05573698505759239,-0.4539170563220978,0.1943208873271942,0.18150362372398376,-0.17395856976509094,0.056595124304294586,-0.11302171647548676,0.478087842464447,-0.13328687846660614,0.04852202534675598,0.342264860868454,-0.025533217936754227,-0.0022131106816232204,-0.03416229784488678,-0.1488097608089447,0.4293241500854492,0.530278742313385,0.08500009775161743,0.06749215722084045,0.2740257680416107,0.13375037908554077,0.08490170538425446,-0.21330112218856812,0.10414011031389236,-0.08346206694841385,-0.09144844859838486,-0.17144879698753357,-0.3674653470516205,-0.3610912561416626,0.0506712943315506,0.31590932607650757,0.19372835755348206,0.12382330000400543,-0.03441266342997551,0.09763561189174652,-0.2197372317314148,-0.36336424946784973,-0.11058076471090317,0.16654741764068604,0.0011304602958261967,-0.022425802424550056,-0.2985651195049286,-0.2207430750131607,0.3016856908798218,0.018443048000335693,-0.059469666332006454,0.09797822684049606,-0.28278666734695435,-0.009908443316817284,-0.17208008468151093,-0.4558703303337097,0.08837316930294037,0.16916444897651672,-0.1979631781578064,0.294302374124527,0.1464574635028839,-0.3730385899543762,-0.03949936106801033,0.1965683102607727,0.19855855405330658,-0.21647927165031433,-0.04127228632569313,0.12048929184675217,-0.055642060935497284,0.03282487392425537,-0.034439653158187866,-0.01116331946104765,-0.06141236796975136,0.010072410106658936,0.022338198497891426,0.0009247303823940456,0.09703332930803299,-0.23139074444770813,-0.06701275706291199,-0.3532746434211731,0.4156646430492401,-0.001823442755267024,0.12704113125801086,-0.18627139925956726,-0.3025517463684082,0.05793127790093422,-0.3928936719894409,-0.2792004644870758,0.07297094911336899,0.09724750369787216,-0.2640564739704132,0.005109455436468124,0.02368513122200966],[0.09406452625989914,0.1925690472126007,-0.11521011590957642,0.27816954255104065,0.000842732610180974,-0.062419597059488297,-0.2221241593360901,-0.22259747982025146,-0.2700149416923523,-0.32295113801956177,-0.04590602591633797,0.10855112224817276,-0.30235520005226135,-0.034739233553409576,0.020516108721494675,0.019593311473727226,-0.33276987075805664,0.04648933559656143,0.16079218685626984,-0.0702868178486824,-0.6275438666343689,0.05999234318733215,0.5063531994819641,-0.0685550794005394,0.2260155975818634,-0.23768633604049683,0.13599930703639984,0.47987744212150574,0.18434175848960876,-0.40108516812324524,-0.17678715288639069,0.042134322226047516,-0.29099711775779724,0.007295649033039808,-0.2423854023218155,-0.09351746737957001,-0.12697361409664154,0.023837009444832802,-0.27011197805404663,-0.20229464769363403,-0.13533097505569458,-0.4047888517379761,0.31979337334632874,0.10901085287332535,0.06964408606290817,0.21756668388843536,0.3656165897846222,0.481692910194397,-0.07099620997905731,-0.02543567679822445,-0.22039546072483063,0.16123151779174805,-0.2601216435432434,-0.25776347517967224,-0.1539953351020813,-0.13177436590194702,-0.12566961348056793,-0.21707330644130707,0.07678703963756561,0.2671758234500885,-0.2885630130767822,0.12238266319036484,-0.2316175252199173,-0.08502521365880966,0.32247859239578247,0.3058251440525055,0.2950288951396942,-0.19230815768241882,-0.049274422228336334,0.306245356798172,-0.061463456600904465,-0.001918422756716609,-0.05005427449941635,-0.04055874049663544,0.23003238439559937,0.0684710443019867,0.3975410461425781,0.015600805170834064,0.029113195836544037,0.046897441148757935,-0.07690136134624481,-0.11156171560287476,0.009714193642139435,0.022627225145697594,0.010705025866627693,0.04963667318224907,0.005722051952034235,0.024254150688648224,0.08902233093976974,-0.10345255583524704,-0.5224928259849548,-0.9375882148742676,0.6626905798912048,-0.26838284730911255,-0.20378898084163666,0.1410699337720871,-0.29252272844314575,-0.009979761205613613,-0.1269434690475464,0.2003852128982544,0.12093009054660797,-0.006736795883625746,0.09264887869358063,0.07304102182388306,-0.07643435895442963],[0.3628637492656708,0.017201004549860954,0.05168940871953964,0.016062887385487556,-0.5171475410461426,-0.21545884013175964,0.2735728323459625,-0.060684654861688614,0.3653244376182556,0.030222835019230843,0.3629867732524872,-0.02705276384949684,0.049133870750665665,0.08681881427764893,-0.3775692284107208,-0.08431874960660934,-1.0843470096588135,-0.18523761630058289,-0.03170575201511383,-0.25585082173347473,-0.17517046630382538,0.20429450273513794,0.5400782823562622,-0.005049268249422312,-0.19812874495983124,-0.0248697679489851,0.40726199746131897,0.2148844450712204,0.41876357793807983,0.3100926876068115,0.5762606263160706,0.11280936747789383,0.3838687539100647,-0.2777133285999298,-0.038333769887685776,0.09207195788621902,0.009519661776721478,0.036913786083459854,0.277466744184494,0.08529841899871826,0.12845583260059357,-0.049146272242069244,-0.06361224502325058,-0.2893387973308563,-0.12011314183473587,-0.05975568667054176,-0.004940174054354429,-0.17499645054340363,-0.16966335475444794,-0.13173680007457733,0.1674586981534958,0.23292139172554016,-0.061391886323690414,-0.0821356475353241,-0.12113308906555176,-0.23423737287521362,0.24796268343925476,-0.2939437925815582,-0.332042932510376,-0.38164952397346497,-0.1355791687965393,0.8164704442024231,-0.06314138323068619,-0.945064902305603,-0.08251561224460602,-0.11105029284954071,0.46968531608581543,-0.2689898908138275,0.37999477982521057,-0.0047487481497228146,-0.15585052967071533,0.4510548412799835,-0.1985630989074707,0.31112900376319885,-0.11912225186824799,0.03478260338306427,0.311848908662796,0.061242297291755676,0.19230559468269348,0.01036133710294962,0.1678624451160431,-0.018840661272406578,0.0989859476685524,0.0676955133676529,-0.014335581101477146,0.11600293964147568,0.19193102419376373,0.09350431710481644,-0.19158326089382172,-0.03508938103914261,0.5962930917739868,0.3550146520137787,0.4199267327785492,0.456188440322876,-0.18390746414661407,-0.1771727353334427,-0.4055947959423065,-0.14049634337425232,0.009708655066788197,-0.33156710863113403,-0.18661850690841675,0.21414263546466827,0.017997141927480698,0.1108376681804657,-0.334532767534256],[-0.25705018639564514,-0.10699008405208588,0.2981857657432556,0.23016245663166046,0.24197976291179657,-0.05599737912416458,-0.06090448051691055,0.0025986861437559128,0.06426005065441132,-0.04944948852062225,0.016651026904582977,-0.2131534218788147,-0.20616415143013,-0.012204054743051529,-0.058985497802495956,0.04944945126771927,-0.37041494250297546,0.10773561894893646,-0.015719741582870483,-0.15270304679870605,0.2701318562030792,-0.05128081142902374,0.2346992790699005,0.27217572927474976,-0.07739189267158508,-0.008458173833787441,-0.09114167839288712,-0.15441739559173584,-0.06177670881152153,-0.13815854489803314,0.18086682260036469,0.35373684763908386,0.3591728210449219,0.11982892453670502,0.09454958885908127,-0.02070489712059498,-0.2795432507991791,0.01001808512955904,0.0639607384800911,-0.01424358505755663,-0.030328547582030296,0.0816759467124939,-0.04297899082303047,0.208730548620224,-0.3131014108657837,0.035605400800704956,0.06961885839700699,-0.051287371665239334,-0.12783673405647278,0.04430658742785454,-0.2897825539112091,-0.3818024694919586,0.18418067693710327,0.19675378501415253,0.07845712453126907,0.4068421423435211,-0.1300196796655655,0.059622034430503845,-0.5885468125343323,0.5076144933700562,0.09158129245042801,0.07834944128990173,-0.10533817857503891,-0.1987486183643341,0.2899589538574219,-0.5505440831184387,0.32752543687820435,0.20010536909103394,-0.5555572509765625,-0.020236313343048096,-0.07863330096006393,0.018985243514180183,0.03942267969250679,0.45267191529273987,-0.15565384924411774,-0.10192760825157166,0.17839395999908447,-0.39798426628112793,0.13754357397556305,-0.05340337008237839,0.07625775039196014,-0.1321742832660675,-0.0646989643573761,-0.1882278472185135,-0.09726610779762268,-0.13127648830413818,-0.06121773645281792,-0.043581098318099976,0.05093200132250786,0.07552935928106308,0.2962338328361511,-1.2526566982269287,0.3028556704521179,0.27299764752388,0.05820459499955177,0.06406165659427643,-0.04235337674617767,0.3600548505783081,-0.23487497866153717,0.005354764871299267,0.20549865067005157,-0.05483708530664444,-0.052332304418087006,-0.23887622356414795,-0.10542727261781693],[0.34758979082107544,0.018109707161784172,-0.37080132961273193,-0.08149463683366776,1.2269619703292847,-0.0844002440571785,0.09548423439264297,-0.31531083583831787,-0.06623271107673645,-0.12314602732658386,-0.31445595622062683,-0.21194078028202057,-0.5413480997085571,-0.1491391807794571,-0.005818947218358517,-0.42502549290657043,0.26238197088241577,0.10850264877080917,0.1856580376625061,0.01831623911857605,-0.13711486756801605,-0.24254201352596283,0.09293371438980103,0.2156079113483429,-0.04515129327774048,0.1596984565258026,-0.015973256900906563,-0.04435228183865547,-0.002282059518620372,-0.1503954380750656,0.005081757437437773,0.38414815068244934,-0.25727126002311707,-0.07198300212621689,-0.20398394763469696,0.03252290189266205,-0.44501012563705444,-0.11007699370384216,-0.06050011143088341,-0.1877601146697998,-0.1922343522310257,0.2681176960468292,-0.39469102025032043,-0.27655869722366333,-0.012142420746386051,-0.22748208045959473,-0.22953402996063232,0.14341945946216583,0.06067192927002907,0.052281901240348816,0.002572796307504177,-0.09397973120212555,0.022065984085202217,-0.3729836940765381,0.060889486223459244,0.09843152016401291,0.21360333263874054,-0.05266472324728966,-0.2532443404197693,-0.12833642959594727,0.3345746099948883,0.23427440226078033,-0.2337881326675415,-0.16197596490383148,0.2790243625640869,-0.23799648880958557,0.050336312502622604,-0.07321681827306747,0.11019868403673172,0.020544737577438354,0.05660344287753105,-0.06143704056739807,0.15689735114574432,-0.1062529906630516,0.02944270707666874,0.35134583711624146,-0.2940096855163574,-0.023353302851319313,0.08950261771678925,-0.08273425698280334,-0.07816211134195328,0.4040219783782959,0.08724717795848846,0.11900611221790314,0.03934076428413391,0.10954677313566208,0.15764209628105164,0.06557081639766693,-0.2058275192975998,-0.12010402977466583,0.39408859610557556,0.2938317358493805,-0.0006344071589410305,0.08765524625778198,-0.005107569042593241,0.14158044755458832,-0.18270587921142578,-0.02514483779668808,0.22553707659244537,0.056577593088150024,-0.10922595113515854,-0.07981402426958084,0.1096203550696373,0.106898732483387,-0.4126744270324707],[-0.09719903767108917,0.09973976761102676,-0.03323431685566902,0.0030003914143890142,-0.6448094844818115,-0.02503969892859459,-0.0105839679017663,-0.0769251137971878,0.12739309668540955,-0.07352353632450104,-0.04862339049577713,0.3284163177013397,-0.173903226852417,-0.01665961556136608,-0.010189264081418514,-0.027036918327212334,0.6239983439445496,0.1551883965730667,0.2472231537103653,-0.6285384297370911,0.03054318204522133,0.14989425241947174,-0.6606361269950867,-0.13145644962787628,-0.018402086570858955,0.006874811369925737,0.14383281767368317,0.03342815116047859,0.05935957655310631,0.032093074172735214,0.4916611611843109,-0.20506279170513153,-0.032318953424692154,-0.1590879112482071,-0.025242192670702934,-0.13232025504112244,0.2765616774559021,0.05558188632130623,0.29206928610801697,-0.15894559025764465,-0.185826376080513,0.053899720311164856,-0.006240018177777529,-0.1538224220275879,-0.6436620950698853,-0.26696380972862244,0.07607853412628174,0.2092277705669403,0.20817922055721283,-0.1577710509300232,-0.018209902569651604,0.106110580265522,-0.2590842545032501,-0.2505042850971222,0.17718692123889923,0.04728647321462631,-0.023143526166677475,0.09030123054981232,-0.18173488974571228,0.31531640887260437,0.15743234753608704,-0.06336840242147446,-0.1599803864955902,-0.15096597373485565,-0.0990411788225174,-0.07198946177959442,0.02844204008579254,0.05932137742638588,-0.23957575857639313,-0.1207728311419487,0.28115710616111755,0.04844488948583603,0.14614729583263397,-0.08630100637674332,-0.4751012921333313,-0.285758376121521,-0.3169974386692047,-0.059103913605213165,-0.24237431585788727,0.19007454812526703,-0.051732148975133896,0.11146664619445801,-0.14420972764492035,-0.118244968354702,-0.15559393167495728,-0.11216819286346436,-0.14635464549064636,-0.12799634039402008,-0.0175939854234457,-0.05940663442015648,0.3177739083766937,-0.21854263544082642,0.2185087352991104,-0.1455402970314026,-0.19464516639709473,0.22670753300189972,0.5433623790740967,-0.29648974537849426,-0.3651005029678345,-0.12220203131437302,0.09205431491136551,0.16509538888931274,0.023975541815161705,0.06907834112644196,0.20771630108356476],[-0.008989376947283745,0.028662225231528282,0.3606734573841095,-0.08830787986516953,0.35016873478889465,-0.04806526005268097,0.1268610954284668,-0.2289758175611496,-0.08548791706562042,-0.11602089554071426,0.028986308723688126,-0.03465542942285538,0.29717499017715454,-0.03710552304983139,-0.030573248863220215,0.1502198427915573,-0.002028679708018899,0.44548365473747253,-0.1712295114994049,0.3805006742477417,0.2594894766807556,-0.02863522619009018,-0.22339220345020294,0.02852250263094902,0.2007814347743988,-0.0652819275856018,-0.7295709848403931,-0.2824452817440033,-0.14373698830604553,-0.09745853394269943,-0.030765483155846596,-0.44792553782463074,0.24285109341144562,0.39450305700302124,0.46186232566833496,0.11682511866092682,-0.12308369576931,-0.07241321355104446,-0.40022262930870056,-0.36311736702919006,-0.10097819566726685,0.34533804655075073,0.041030656546354294,0.43687742948532104,0.20054587721824646,-0.02470533549785614,-0.10143175721168518,-0.42548105120658875,-0.188921719789505,-0.010583425872027874,-0.11073867231607437,0.061472147703170776,0.09125988930463791,0.46624425053596497,0.3398435115814209,-0.006324883084744215,0.3063827157020569,0.02822882868349552,-0.5682610273361206,-0.5233414173126221,-0.02598091959953308,-0.023751908913254738,0.15261240303516388,0.00650022691115737,0.25387728214263916,-0.16451308131217957,-0.3450336456298828,0.5825545191764832,-0.06631679087877274,0.08853954076766968,0.14893518388271332,0.02474174089729786,-0.030776944011449814,-0.5216406583786011,-0.036747321486473083,0.07706142216920853,0.3222522437572479,-0.15737952291965485,-0.11075598001480103,-0.1462092101573944,-0.04759353771805763,-0.23611079156398773,-0.0066175200045108795,-0.00469723017886281,0.020412838086485863,-0.0034977716859430075,-0.03596951439976692,-0.04218418151140213,-0.05720638111233711,0.03831161558628082,0.003126902971416712,0.3349502384662628,-0.035691872239112854,0.4433579444885254,0.19068187475204468,0.041958749294281006,0.18295413255691528,-0.05135824903845787,0.41831308603286743,0.22665241360664368,0.12157022953033447,-0.023665327578783035,0.14345726370811462,-0.37518733739852905,0.04921089485287666],[0.04868331551551819,-0.1881248503923416,0.22500106692314148,-0.3155458867549896,-0.023257514461874962,-0.16214069724082947,0.2015109360218048,0.22690926492214203,0.08118820190429688,-0.20219874382019043,0.27635657787323,0.11994171142578125,0.13430218398571014,0.04677714407444,0.10507593303918839,0.0956144630908966,-0.1975451409816742,0.19473090767860413,-0.29035088419914246,-0.003437151201069355,-0.7441707849502563,0.40063875913619995,-0.4923594892024994,0.15893279016017914,-0.1756182163953781,-0.09412986040115356,0.008118939585983753,0.11927812546491623,0.10320400446653366,0.8300144076347351,0.009533852338790894,-0.43698638677597046,0.19895106554031372,0.2753402292728424,0.2615741491317749,0.23823963105678558,0.1702183485031128,0.036562949419021606,-0.02383001148700714,-0.14170785248279572,-0.17019033432006836,-0.349771112203598,-0.217376247048378,0.3526831269264221,0.46463310718536377,0.19732023775577545,0.12298529595136642,0.06133521720767021,-0.03955052047967911,-0.09770672768354416,0.205173522233963,0.02494540996849537,0.049506835639476776,-0.34970009326934814,-0.19477441906929016,-0.014016111381351948,-0.22207853198051453,-0.03577432408928871,0.2891780734062195,-0.9910572171211243,-0.31612804532051086,0.16998355090618134,0.13183437287807465,0.19777141511440277,0.32868465781211853,0.0667005181312561,-0.41788220405578613,0.40465018153190613,0.027001040056347847,0.2005026489496231,0.19931478798389435,0.056456539779901505,-0.01650780439376831,-0.37765905261039734,0.48937079310417175,-0.37224745750427246,-0.01232058834284544,-0.26179325580596924,-0.255342572927475,-0.08524424582719803,0.022752437740564346,-0.10227970033884048,-0.04576663300395012,-0.03624499589204788,-0.0032135203946381807,0.01717030070722103,-0.014956147409975529,-0.031082192435860634,0.25715357065200806,0.008492202498018742,0.37846076488494873,-0.593550443649292,0.2813151776790619,0.1705113649368286,0.030341770499944687,-0.018972309306263924,-0.057891324162483215,0.1057535707950592,-0.2649800479412079,0.021301714703440666,-0.06141659989953041,0.07827665656805038,0.06510981172323227,-0.05002294108271599,-0.3258502185344696],[0.13662420213222504,0.09040813148021698,0.06697562336921692,-0.4315929710865021,-0.05103447288274765,0.02504798211157322,0.17459534108638763,-0.03471450135111809,0.052632953971624374,-0.09621826559305191,0.07147631049156189,0.03361009806394577,0.031133614480495453,0.3021310567855835,0.10640371590852737,-0.10913791507482529,0.024453438818454742,-0.2566230297088623,-0.19508613646030426,-0.08009330928325653,0.17615649104118347,0.024761347100138664,0.32622161507606506,0.32517603039741516,-0.12736272811889648,0.21217688918113708,-0.13470429182052612,-0.3070247173309326,0.16556911170482635,-0.06171063706278801,-0.07568109780550003,-0.13164907693862915,-0.2964153289794922,-0.2087096869945526,0.17100878059864044,0.17784418165683746,-0.08040720969438553,0.2716969847679138,0.1707592010498047,-0.2359435260295868,-0.04657343029975891,0.3379244804382324,-0.313943475484848,0.5048604011535645,-0.1062609925866127,0.11096584051847458,0.3573272228240967,0.34602364897727966,0.14262959361076355,0.10889945924282074,0.229146808385849,-0.20490147173404694,-0.5696871280670166,-0.1345284879207611,0.0068696946837008,-0.4170415699481964,-0.05448668450117111,-0.1180354431271553,0.555637538433075,0.26242437958717346,0.2867266535758972,0.060523830354213715,-0.09144210815429688,-0.6438802480697632,-0.09794449061155319,-0.004032958764582872,0.3081088662147522,0.32420656085014343,-0.3293711245059967,-0.04597026854753494,0.11837290972471237,-0.08779218792915344,-0.05277303233742714,0.4225931763648987,0.08844136446714401,-0.039866842329502106,0.2842949628829956,0.08665023744106293,0.23581534624099731,-0.01140114851295948,0.03885135054588318,0.0810830369591713,0.07027246803045273,0.11698096990585327,0.05034239962697029,0.046418383717536926,0.0654611736536026,0.0588410422205925,-0.04740197956562042,-0.02473202347755432,-0.12103867530822754,-0.5081499218940735,-0.4692510664463043,-0.19427937269210815,0.14335273206233978,-0.26175543665885925,0.10020764172077179,0.005164770875126123,0.010417154058814049,0.10408585518598557,-0.11239589750766754,0.13618089258670807,0.07773125171661377,-0.00444996589794755,0.10766898095607758],[0.13326632976531982,-0.24343961477279663,0.5362616777420044,-0.23340289294719696,0.15306544303894043,-0.22289617359638214,0.18710148334503174,0.1887006014585495,0.21862131357192993,0.1583617478609085,0.12342967838048935,0.1611371636390686,-0.0704420804977417,-0.02900991588830948,0.023466220125555992,-0.039077695459127426,0.8048078417778015,-0.08070854842662811,-0.2474270761013031,-0.1130579337477684,0.17514623701572418,0.05841054767370224,-0.16604910790920258,-0.28107786178588867,0.1841435432434082,-0.07686140388250351,0.0686250627040863,-0.1803227812051773,0.24180981516838074,-0.0008124184678308666,0.11849312484264374,0.6118915677070618,0.11935028433799744,0.1283215582370758,-0.05676859989762306,0.00025361953885294497,-0.2933417856693268,0.26392579078674316,0.2568063735961914,0.25042328238487244,0.042813919484615326,0.366244375705719,0.47909626364707947,0.22219857573509216,0.19864335656166077,-0.3254050016403198,-0.027429120615124702,0.10884570330381393,-0.10046026110649109,-0.3207088112831116,-0.37384119629859924,-0.1093481183052063,0.13662157952785492,-0.08025024831295013,-0.22061941027641296,-0.12262388318777084,-0.4418265223503113,-0.05816659703850746,0.2569066286087036,0.10003725439310074,0.154931902885437,-0.08241792768239975,0.15357761085033417,0.007644146680831909,-0.12389658391475677,0.43794506788253784,0.4540055990219116,-0.4055531322956085,0.10046230256557465,0.03997213765978813,-0.08845081180334091,-0.2068244367837906,0.3519989252090454,0.43711674213409424,-0.22046567499637604,-0.08136608451604843,0.03948776423931122,0.04531514644622803,-0.12530723214149475,-0.05443933233618736,-0.0169729795306921,-0.17217594385147095,0.008647860027849674,0.012448211200535297,0.04210801050066948,0.006249383091926575,-0.04562101513147354,-0.05228179320693016,0.10844504833221436,-0.15082740783691406,0.2881983816623688,-0.6818344593048096,-0.10976020246744156,-0.005623885430395603,-0.3576432764530182,0.2251218557357788,0.2668226957321167,0.36224520206451416,-0.1626756191253662,0.12414831668138504,-0.1451173722743988,0.09350994974374771,-0.17852269113063812,-0.2103084772825241,-0.1582217812538147],[-0.6258509755134583,-0.5243226289749146,-0.3453916013240814,0.27482685446739197,-0.33400508761405945,0.08550122380256653,-0.1265561729669571,-0.11677286028862,-0.0121530806645751,-0.16031955182552338,0.10592008382081985,-0.13451161980628967,-0.20417504012584686,0.415594220161438,-0.0253739170730114,0.44746163487434387,0.9832476377487183,0.15535372495651245,0.12412586063146591,0.20101697742938995,-0.4257478713989258,0.179816335439682,-1.152925729751587,-0.1925349235534668,-0.15118084847927094,-0.2792210280895233,0.1745050698518753,-0.0011217554565519094,-0.1756574809551239,-0.06059166043996811,0.025391068309545517,-0.05065368860960007,-0.3157493770122528,0.23985187709331512,0.1950889378786087,0.07109326869249344,-0.07984074205160141,-0.30373847484588623,0.2664644122123718,0.1306256651878357,-0.025437241420149803,-0.13258080184459686,0.2848960757255554,-0.15491139888763428,0.1244688481092453,-0.1592838317155838,-0.34188100695610046,0.12404700368642807,-0.1115594431757927,-0.3773503303527832,0.14924989640712738,-0.025617355480790138,0.1766282171010971,-0.4112105667591095,-0.4674670398235321,-0.08110988140106201,-0.31183671951293945,0.023413391783833504,-0.013421072624623775,-0.2504878342151642,0.6768304109573364,0.5997790694236755,-0.5611466765403748,0.17198218405246735,-0.4516110122203827,-0.28245505690574646,-1.0161000490188599,0.14780442416667938,-0.10285796970129013,-0.6548099517822266,-0.8608220219612122,-0.18548712134361267,0.2274620234966278,0.11325162649154663,-0.22704389691352844,0.2589291036128998,-0.17124249041080475,-0.13046245276927948,-0.12561872601509094,-0.0292504895478487,0.024186013266444206,0.06679282337427139,-0.02847933955490589,-0.005753693636506796,-0.0375906266272068,0.06136627867817879,-0.015078521333634853,-0.02644752524793148,-0.13440431654453278,-0.021500706672668457,-0.05379410460591316,-0.47080662846565247,-0.5410226583480835,6.6054089984390885e-06,-0.5121539831161499,0.18040506541728973,0.49436303973197937,0.5337218046188354,0.3007234036922455,0.3398706912994385,0.2207140028476715,0.07254914194345474,0.2332889288663864,-0.1799345761537552,0.27974313497543335],[-0.0907035693526268,0.04162396863102913,-0.1530713587999344,-0.0689636841416359,1.2232584953308105,0.16502438485622406,0.20309938490390778,0.04718833789229393,0.12769106030464172,-0.2459305226802826,0.12949661910533905,0.08366840332746506,0.5296162962913513,0.12746211886405945,-0.011094159446656704,0.41196030378341675,-0.4090223014354706,0.2855056822299957,0.053867388516664505,0.18331551551818848,0.21596504747867584,-0.4632827043533325,-0.8007451295852661,0.22700797021389008,-0.04278019070625305,-0.015001323074102402,-0.08635580539703369,-0.1405843049287796,-0.10981323570013046,-0.231530100107193,-0.2019827514886856,0.09643693268299103,0.12795671820640564,0.0027048869524151087,-0.06191758066415787,0.17885805666446686,0.30734989047050476,0.02024243399500847,0.11517960578203201,0.02934172935783863,-0.2589670717716217,-0.05892366170883179,0.39450374245643616,0.08900602161884308,0.017349524423480034,0.2455018013715744,0.08932645618915558,-0.23173023760318756,-0.08040746301412582,-0.18285609781742096,-0.32673561573028564,-0.18569904565811157,-0.24080398678779602,0.019596053287386894,0.10647442936897278,0.4959210455417633,-0.11467409878969193,0.3959501087665558,0.03754061087965965,0.3405596911907196,-0.07067804038524628,0.21699541807174683,-0.24840837717056274,-0.3391517400741577,0.028795484453439713,0.09074115008115768,0.3825684189796448,-0.4115051031112671,0.2833864390850067,0.1712479144334793,-0.21232910454273224,0.20069892704486847,-0.05014418438076973,0.10394465178251266,0.16013780236244202,-0.2218886762857437,0.2915189564228058,-0.030286984518170357,-0.10944131761789322,-0.07375761866569519,-0.023400096222758293,-0.20246198773384094,-0.020098378881812096,0.10255205631256104,-0.06301561743021011,0.10221364349126816,0.0468553751707077,0.0037868141662329435,-0.11624468117952347,0.168434739112854,-0.16146644949913025,-0.1240854263305664,0.557643473148346,-0.2836514711380005,0.7908912897109985,0.16344955563545227,0.4127289652824402,0.1783437728881836,0.23810310661792755,-0.16384056210517883,0.5647193789482117,0.03153819590806961,-0.21952787041664124,-0.053613435477018356,-0.0902310237288475],[0.03755725547671318,-0.010947778820991516,0.10967712849378586,0.04570790380239487,0.920321524143219,-0.18161530792713165,-0.11829792708158493,-0.39182376861572266,0.07036072760820389,-0.04367697983980179,0.14623983204364777,-0.08224426954984665,-0.06437753140926361,-0.3169122040271759,-0.011678272858262062,0.2555231750011444,-0.054584603756666183,0.012485000304877758,0.8146278262138367,-0.2570924460887909,0.20985767245292664,-0.1429813653230667,0.7003189921379089,0.12610428035259247,-0.22109337151050568,-0.23667652904987335,-0.03704804554581642,0.11107741296291351,-0.07687303423881531,0.10310391336679459,-0.17442330718040466,-0.18376119434833527,0.043107032775878906,0.028552567586302757,0.0530824176967144,0.10101766884326935,0.4071357250213623,-0.10816475003957748,-0.10371007770299911,-0.24302758276462555,-0.40766841173171997,-0.40288156270980835,-0.12772034108638763,0.018112994730472565,-0.0229669027030468,0.24319544434547424,0.46689456701278687,0.11705850064754486,0.030823661014437675,0.06675529479980469,0.32024961709976196,0.09017278999090195,-0.3420487642288208,0.02930440567433834,-0.0668189749121666,0.07697220891714096,0.14090631902217865,-0.11000428348779678,-0.20123876631259918,0.13062000274658203,0.17206932604312897,0.038202736526727676,-0.051160890609025955,-0.013169586658477783,-0.13030752539634705,-0.12514421343803406,0.46315619349479675,0.30593380331993103,-0.10515614598989487,0.18424157798290253,0.3054371774196625,0.14122739434242249,-0.04760044440627098,0.44438251852989197,-0.07115433365106583,-0.12274160981178284,-0.15185114741325378,-0.2840921878814697,0.10294677317142487,-0.14905883371829987,-0.00507650850340724,0.37532612681388855,-0.05875476077198982,-0.008931211195886135,-0.05541755259037018,-0.015589463524520397,0.03874237835407257,0.025601893663406372,0.15052001178264618,0.12436139583587646,-0.1642421931028366,-0.49659329652786255,0.10087387263774872,0.10333973169326782,-0.34646493196487427,0.06185688078403473,0.05762743949890137,-0.010851855389773846,-0.03826959431171417,-0.07765395939350128,-0.13868296146392822,0.05446503683924675,0.08492759615182877,0.0865274965763092,0.004291944205760956],[-0.431924968957901,0.14607717096805573,-0.1896890103816986,-0.18404610455036163,-1.030148983001709,-0.12086813896894455,-0.05234586447477341,-0.09527159482240677,-0.16186027228832245,0.051787618547677994,0.02552671544253826,0.08838890492916107,-0.09756536781787872,-0.10649039596319199,-0.09682128578424454,0.20102599263191223,0.2725226879119873,-0.02728012017905712,0.12227409332990646,0.08240493386983871,-0.0021580306347459555,-0.11328380554914474,-0.4619472622871399,0.10133920609951019,0.10346531867980957,-0.3039019703865051,-0.3069060444831848,-0.25512564182281494,-0.1359996199607849,0.36439049243927,0.30683714151382446,0.17306402325630188,-0.26008251309394836,-0.5672144293785095,-0.34910762310028076,0.16073814034461975,-0.3731076419353485,-0.25673428177833557,-0.10508579015731812,0.05571087449789047,-0.012647632509469986,0.24459919333457947,-0.15741489827632904,0.061329592019319534,0.1358649879693985,0.22965015470981598,0.39699968695640564,0.5610986351966858,0.2797270119190216,0.2175373136997223,0.10763095319271088,-0.11158587783575058,0.09751005470752716,-0.08610853552818298,-0.1400485634803772,-0.23333455622196198,-0.05839649960398674,0.08328073471784592,-0.1813376098871231,-0.09176405519247055,0.5533973574638367,0.2528914511203766,-0.06791402399539948,0.42012107372283936,-0.08948520570993423,-0.19113391637802124,-0.9260848760604858,0.17098261415958405,-0.14072710275650024,-0.09018933027982712,-0.12032108753919601,-0.155125692486763,-0.17108504474163055,-0.9291205406188965,-0.06777024269104004,-0.22303728759288788,-0.13239295780658722,-0.29577478766441345,-0.35078349709510803,-0.14332549273967743,0.06103537604212761,-0.14587749540805817,-0.21951206028461456,-0.16943852603435516,-0.19922557473182678,-0.12714725732803345,-0.1681482195854187,-0.18118157982826233,-0.2560245990753174,-0.041026756167411804,0.19484972953796387,0.028980163857340813,-0.4289344251155853,0.2753167152404785,-0.020263927057385445,-0.06220446527004242,0.3014605641365051,0.1908123642206192,-0.010666782036423683,0.5632259845733643,0.3328101933002472,-0.02118322066962719,-0.022724205628037453,0.23887450993061066,0.16691438853740692],[0.19336408376693726,-0.09267070889472961,0.04088812693953514,-0.18778225779533386,-0.5859101414680481,0.00348456297069788,0.03071715123951435,-0.0704774409532547,0.14940214157104492,-0.04557230696082115,0.0020808649715036154,0.05963902920484543,-0.13073089718818665,-0.02288922853767872,-0.09074191004037857,-0.4249856472015381,0.5933976769447327,-0.2561104893684387,-0.7511530518531799,0.177757129073143,-0.26557624340057373,0.09490096569061279,-1.0124698877334595,-0.22302325069904327,0.05786638334393501,0.000699862081091851,-0.14745378494262695,0.22303824126720428,-0.08781828731298447,-0.04538378119468689,-0.042930442839860916,-0.08158787339925766,0.02975221537053585,0.06315580755472183,0.2948988378047943,0.12712273001670837,0.017668811604380608,0.09026992321014404,-0.22266249358654022,-0.011793592944741249,-0.14148114621639252,0.36979687213897705,-0.10587361454963684,0.10065833479166031,-0.11551282554864883,0.10596960037946701,0.06904975324869156,-0.41558966040611267,-0.2882300317287445,-0.17044396698474884,-0.1690886914730072,0.11562678217887878,-0.02091013826429844,0.0910772979259491,0.266868531703949,0.17270444333553314,0.008702175691723824,0.05557241663336754,0.24549317359924316,0.08341909199953079,-0.11042696237564087,0.32527950406074524,-0.22127926349639893,0.13479353487491608,0.06155039742588997,0.1732172816991806,0.28526562452316284,-0.014797906391322613,-0.10973275452852249,-0.09207291156053543,-0.04879077151417732,0.21465617418289185,-0.06941156834363937,0.07672315090894699,0.003189250361174345,-0.16294291615486145,-0.07382652163505554,0.17576400935649872,0.04151621833443642,-0.0536208376288414,-0.010779984295368195,0.3104391396045685,-0.045544952154159546,-0.03188134729862213,-0.11160176247358322,-0.16175206005573273,-0.08195411413908005,-0.07876766473054886,-0.22705629467964172,-0.057344093918800354,-0.2759758234024048,-0.13274264335632324,2.1393389033619314e-05,0.4532712697982788,0.0509866364300251,-0.20068830251693726,-0.07383649796247482,0.28194090723991394,-0.22305797040462494,0.018735097721219063,0.04208086431026459,-0.08082960546016693,0.041322365403175354,-0.10576196014881134,-0.516530454158783],[-0.25333452224731445,-0.21662558615207672,0.277380108833313,0.1611601710319519,0.6871635317802429,0.09175850450992584,-0.029752572998404503,-0.05376680567860603,0.03471173718571663,-0.16052988171577454,-0.07520051300525665,0.07540904730558395,0.30743998289108276,-0.1197454109787941,0.25448480248451233,0.23659223318099976,1.0316948890686035,0.05637790635228157,-0.24921387434005737,0.2592175006866455,0.027296826243400574,-0.10797392576932907,-0.5420166254043579,-0.16466210782527924,0.17164556682109833,-0.07858321070671082,-0.22809240221977234,-0.07756251841783524,-0.05913487449288368,0.22734978795051575,0.2676299810409546,0.32953014969825745,0.022606423124670982,-0.11590555310249329,0.007218051701784134,-0.32197555899620056,-0.32588571310043335,-0.3695972263813019,-0.22229866683483124,-0.4700348675251007,-0.2186039388179779,-0.3030797243118286,-0.5318694710731506,-0.0013151195598766208,-0.14242728054523468,0.24766626954078674,0.21885326504707336,-0.12176838517189026,0.03393503651022911,-0.14485201239585876,0.05135407671332359,0.22622402012348175,0.3208310306072235,-0.0035097626969218254,0.20839303731918335,-0.14123840630054474,-0.25491228699684143,0.11655732244253159,-0.3630823791027069,-0.1991734653711319,0.7854452729225159,-0.4192533493041992,0.4034828543663025,0.3193621337413788,0.018565446138381958,0.5551159381866455,0.18346931040287018,0.20368537306785583,0.5651497840881348,-0.3216596245765686,0.18228936195373535,0.1131715476512909,0.4361824095249176,0.38140368461608887,0.8696505427360535,0.30393075942993164,0.46966353058815,-0.42542293667793274,-0.1197013333439827,0.01948372833430767,0.06248994171619415,-0.21400558948516846,-0.1514003872871399,-0.15121564269065857,-0.12384101003408432,-0.1047866940498352,-0.10911335796117783,-0.0902729481458664,-0.08381013572216034,-0.19176645576953888,0.22282296419143677,-0.5306428074836731,-0.3686484396457672,0.10734172910451889,-0.383167028427124,-0.07190487533807755,0.04207560047507286,-0.05266279727220535,-0.1931454986333847,-0.32881295680999756,0.30462169647216797,-0.04980141669511795,-0.23209688067436218,-0.017531098797917366,0.34346407651901245],[-0.2991863787174225,0.1765192151069641,0.6563195586204529,-0.18401312828063965,0.5125634670257568,0.0008847028948366642,0.056783244013786316,-0.19649188220500946,-0.13553586602210999,0.006595053244382143,0.10497066378593445,0.022785615175962448,-0.30946096777915955,-0.20692703127861023,-0.18395930528640747,0.20859982073307037,-0.037461861968040466,0.36326029896736145,-0.9671995639801025,-0.34771162271499634,0.43380624055862427,-0.46849325299263,-0.6263153553009033,0.05843888223171234,-0.3903995752334595,0.3296659290790558,-0.27680978178977966,-0.102048359811306,-0.2648453116416931,0.09340522438287735,-0.369462788105011,-0.3695562183856964,-0.04709029197692871,-0.05484872683882713,-0.19201509654521942,-0.1481965333223343,-0.5044713616371155,-0.3122614324092865,-0.26767587661743164,-0.041952330619096756,-0.285804808139801,-0.2168579399585724,0.19017642736434937,0.07616999745368958,0.20567716658115387,0.12044071406126022,0.08601325750350952,0.05051423981785774,-0.07584021240472794,0.3071398138999939,-0.2214346081018448,-0.09882466495037079,0.2679009735584259,0.19924280047416687,0.161116823554039,0.161737322807312,0.10152386128902435,-0.29475799202919006,0.11508581787347794,0.20096388459205627,0.149008646607399,-0.17053627967834473,-0.16091404855251312,-0.24697446823120117,-0.011246033944189548,0.04572862759232521,-0.18544821441173553,0.08184304088354111,0.3030444383621216,0.16247062385082245,0.207856684923172,-0.1239437460899353,0.27124008536338806,-0.056336548179388046,-0.049169860780239105,-0.5054774880409241,0.06877424567937851,0.20853199064731598,0.07251689583063126,-0.11304831504821777,0.08079813420772552,0.027596715837717056,0.06093234196305275,0.05664493888616562,-0.018697276711463928,-0.027450231835246086,0.04576849192380905,0.07224832475185394,0.0016956387553364038,0.0556076243519783,-0.20310412347316742,1.0112416744232178,0.09978140890598297,-0.046856362372636795,0.14092135429382324,-0.043520133942365646,0.026351211592555046,0.20046712458133698,-0.09415365010499954,-0.379014790058136,-0.1434585154056549,0.11811838299036026,-0.016023237258195877,0.04468540847301483,0.021061329171061516],[-0.13467372953891754,0.044892653822898865,-0.2373732328414917,-0.15792952477931976,-0.10169638693332672,0.04325675591826439,-0.1209854707121849,-0.49736735224723816,-0.6435666084289551,-0.4877874553203583,-0.47163352370262146,-0.17942771315574646,0.11506453156471252,-0.4284888207912445,-0.6306856870651245,-0.3508250415325165,1.317315697669983,0.1295606940984726,0.7514948844909668,-0.07409005612134933,-0.0343245267868042,-0.5052868723869324,0.6419851183891296,-0.1209489032626152,0.13110044598579407,-0.0018285687547177076,0.1667136400938034,0.2984437048435211,-0.09958989173173904,0.5445644855499268,0.11734426021575928,0.3058282136917114,0.0834391787648201,-0.2642890214920044,-0.17495779693126678,-0.3757084608078003,-0.41239625215530396,-0.3386983871459961,-0.19767363369464874,0.015116232447326183,0.11294349282979965,0.0035693394020199776,-0.10722020268440247,-0.3682847023010254,-0.08169957995414734,-0.039989009499549866,-0.20421470701694489,0.26150625944137573,0.30505239963531494,-0.09590035676956177,-0.3358078598976135,-0.5419971942901611,-0.05253877863287926,-0.18803349137306213,-0.11278926581144333,0.10739012062549591,0.20914790034294128,-0.031372472643852234,0.15118062496185303,-0.1655193567276001,0.828136682510376,0.10591203719377518,0.5093330144882202,-0.23926839232444763,-0.16393527388572693,-0.21308758854866028,-0.5889202952384949,0.19593842327594757,0.3574046790599823,-0.1937287151813507,-0.35831505060195923,0.1556239128112793,0.10690672695636749,-0.5643121004104614,-0.24831975996494293,-0.1188906878232956,0.2484578788280487,0.4590308964252472,0.05210020765662193,-0.05986031889915466,0.09090770781040192,-0.10726885497570038,-0.0840812399983406,-0.031794339418411255,-0.014499753713607788,-0.07851861417293549,-0.1424233764410019,-0.07820557057857513,0.10018431395292282,0.19342541694641113,-0.22848664224147797,-0.09173164516687393,-0.34939393401145935,-0.6251179575920105,-0.39242908358573914,-0.07344667613506317,0.3930029273033142,-0.16320134699344635,-0.04942593723535538,0.9712899923324585,0.40307334065437317,0.026671433821320534,-0.18821212649345398,-0.060025736689567566,0.2650623619556427],[0.12100303173065186,0.08119703084230423,-0.06433353573083878,-0.459673136472702,-0.26263949275016785,-0.1474936306476593,0.49324071407318115,0.35525327920913696,0.4742427170276642,0.11891892552375793,0.22366963326931,-0.188283309340477,-0.014678317122161388,0.2290799617767334,0.43623194098472595,0.272356241941452,-0.09465103596448898,0.17649424076080322,0.1224353164434433,-0.3231697976589203,0.38718074560165405,0.3917124271392822,0.43232691287994385,0.21984192728996277,-0.20630836486816406,-0.12497635930776596,-0.2126159518957138,0.006330856587737799,-0.35691022872924805,0.008578820154070854,0.07013219594955444,-0.08224748075008392,0.04192209616303444,-0.009389173239469528,0.09010647237300873,0.22412234544754028,0.4189852178096771,0.033044952899217606,0.24719494581222534,0.38397687673568726,-0.04988455772399902,0.015212872065603733,-0.06137428432703018,0.05112695321440697,0.18770389258861542,0.1980932205915451,-0.12700296938419342,0.03631873428821564,0.017431190237402916,0.16931025683879852,-0.010245738551020622,0.08807647228240967,0.319603830575943,0.16127555072307587,0.22306673228740692,0.09881647676229477,-0.2420690357685089,-0.053422607481479645,0.019124681130051613,-0.7441779375076294,-0.2688496708869934,0.11870825290679932,-0.3945375680923462,-0.24371591210365295,0.1948462277650833,0.05598393827676773,-0.3557538390159607,0.6663952469825745,-0.07433420419692993,-0.0616539865732193,0.0006633802549913526,0.3497157394886017,0.3206248879432678,-0.2016921490430832,-0.3187819719314575,0.15807569026947021,0.14466476440429688,0.20467709004878998,-0.13443826138973236,0.1487814337015152,0.11018092185258865,-0.4732556641101837,-0.01599200628697872,-0.04337121918797493,-0.08148794621229172,-0.04593108966946602,-0.03813880681991577,-0.04956013336777687,0.18948331475257874,-0.12816886603832245,0.10997668653726578,0.0955987274646759,-0.11298085749149323,0.46717995405197144,1.0807586908340454,0.20782361924648285,0.13818536698818207,-0.17907753586769104,0.4954708218574524,0.32271432876586914,-0.2787315249443054,0.09112145751714706,0.15921080112457275,-0.04937051236629486,-0.32084327936172485],[-0.006314374972134829,-0.4138258099555969,-0.009712920524179935,-0.6420526504516602,-0.181991308927536,0.37546366453170776,0.11396726965904236,-0.5546501874923706,-0.41831785440444946,-0.20427019894123077,-0.25662973523139954,0.22129404544830322,0.2615736126899719,-0.6498574614524841,-0.4728584587574005,-0.07907979190349579,-0.28380948305130005,0.18792951107025146,0.4035474956035614,0.04274444282054901,-0.260313481092453,-0.07655739039182663,0.22517074644565582,0.271481454372406,0.14391817152500153,-0.16187924146652222,0.004158502444624901,-0.10455749928951263,-0.18938982486724854,-0.47921645641326904,0.15293611586093903,-0.40119442343711853,-0.08362996578216553,0.2740199565887451,0.01095045916736126,-0.04400245472788811,0.0032170105259865522,0.026736151427030563,-0.14723144471645355,-0.2250710278749466,-0.07413899153470993,-0.2774634063243866,0.10032321512699127,-0.1176043376326561,0.03445866331458092,0.05023997277021408,-0.1029391884803772,-0.27344441413879395,-0.12019029259681702,0.08528979867696762,-0.14020830392837524,-0.14243437349796295,0.1970452070236206,-0.022838318720459938,0.004694068338721991,0.2805028557777405,0.399933397769928,-0.4234634041786194,0.0806812047958374,-0.4482402205467224,0.22677019238471985,0.020675839856266975,-0.1801917403936386,-0.19396910071372986,-0.11905547231435776,0.261462926864624,-0.5201957821846008,0.2958635985851288,0.42576080560684204,0.02639426290988922,-0.2547132074832916,-0.09897424280643463,0.6782599091529846,-0.23742176592350006,-0.04698067158460617,0.20154549181461334,-0.4501569867134094,-0.7084174752235413,0.0697489008307457,0.1790350079536438,-0.01648295670747757,-0.10919921845197678,0.08914487063884735,0.010810484178364277,0.09096847474575043,0.10042589157819748,0.11586379259824753,0.07087172567844391,0.1508764922618866,0.026427095755934715,0.21877823770046234,0.5603529214859009,-0.09822073578834534,-0.2540314197540283,0.37392839789390564,0.2089816927909851,0.07749565690755844,0.25312912464141846,0.3589462339878082,-0.01627226360142231,0.12708130478858948,-0.011598773300647736,0.18063732981681824,0.1342657208442688,-0.13543221354484558],[0.5115057826042175,0.05029747635126114,0.041114483028650284,0.1851544976234436,0.42880210280418396,-0.23325365781784058,-0.19448643922805786,-0.26241201162338257,-0.5108601450920105,0.14653193950653076,-0.2051129788160324,-0.024688463658094406,0.2803419530391693,0.028158752247691154,0.019969094544649124,-0.23921135067939758,0.6253672242164612,-0.31988513469696045,0.05207376182079315,0.4447806775569916,-0.26961758732795715,-0.37041279673576355,-0.13024868071079254,-0.1991630494594574,0.4584394097328186,-0.11897993087768555,0.05989418923854828,0.05231307074427605,-0.2781870365142822,-0.39001914858818054,-0.16223633289337158,0.04764675721526146,-0.04005710035562515,-0.035317715257406235,0.23811352252960205,0.31242501735687256,0.12744496762752533,0.4201969504356384,0.21283058822155,0.12513968348503113,-0.013949652202427387,0.06047631427645683,0.07833542674779892,-0.025330038741230965,-0.06883422285318375,-0.0008448361768387258,0.16308292746543884,-0.3845491111278534,0.12204460799694061,0.07199043035507202,0.02182949334383011,-0.02069156989455223,-0.4498431384563446,-0.2933092415332794,0.09542015939950943,-0.17364491522312164,0.23186630010604858,-0.1976219117641449,0.23181097209453583,-0.19153977930545807,0.5516152381896973,-0.04391616955399513,-0.15434280037879944,-0.07235307991504669,0.20873309671878815,0.05796480551362038,0.18356317281723022,-0.12793204188346863,-0.024015042930841446,-0.328848272562027,0.5419548749923706,0.11791107058525085,0.3401171565055847,0.12130185216665268,-0.0713004395365715,0.27316826581954956,-0.25356602668762207,-0.02488805539906025,0.03774651885032654,0.04503023624420166,0.003875363850966096,-0.2425973117351532,0.04034862294793129,0.04731382057070732,-0.09258104115724564,-0.020919524133205414,-0.0017273281700909138,-0.019647331908345222,0.2249697744846344,0.11626739799976349,0.21491268277168274,-0.6459781527519226,-0.09102074801921844,0.12498144060373306,-0.014492668211460114,0.06985340267419815,-0.10769268870353699,0.011349432170391083,-0.05730128660798073,-0.3269985318183899,0.27119579911231995,-0.3127709627151489,0.16359059512615204,0.0663134828209877,-0.11025099456310272],[0.0150925787165761,-0.14144718647003174,-0.1784181296825409,0.24933657050132751,-0.292598694562912,0.02780352346599102,-0.3332951068878174,-0.2675215005874634,-0.1767563372850418,-0.19474567472934723,0.060341112315654755,0.12011885643005371,0.23830871284008026,0.07314234972000122,-0.31105339527130127,0.06702905148267746,0.3252774775028229,-0.09178965538740158,-0.43260422348976135,0.16269081830978394,-0.28634577989578247,-0.17780399322509766,-0.14487631618976593,-0.07581690698862076,0.12046045064926147,0.13358114659786224,-0.028246717527508736,-0.20656387507915497,0.31770724058151245,0.48282942175865173,0.04790946841239929,-0.0946701169013977,-0.16671478748321533,-0.47519975900650024,-0.13460353016853333,0.02171390876173973,0.21343320608139038,-0.06041235104203224,-0.20172391831874847,-0.04298519715666771,-0.09199678152799606,0.18220046162605286,-0.317336767911911,0.14879031479358673,0.05987149104475975,-0.008409964852035046,-0.06917563080787659,-0.056218136101961136,-0.01897812820971012,-0.14247728884220123,0.029851460829377174,-0.16005359590053558,-0.3845718801021576,0.174703449010849,-0.1234472244977951,-0.010326792486011982,0.30981263518333435,0.0034820016007870436,0.06936734169721603,-0.07292266190052032,-0.05681493505835533,-0.057709984481334686,0.12955215573310852,-0.1354697346687317,0.023731224238872528,-0.1603720337152481,0.5482059717178345,0.3751877248287201,-0.061589423567056656,0.3105836510658264,-0.27722352743148804,-0.12666268646717072,0.08804351091384888,0.057930611073970795,0.330104798078537,-0.15212614834308624,-0.10412627458572388,-0.44461333751678467,0.03545551002025604,0.17027057707309723,-0.050086140632629395,-0.0868343710899353,-0.04917936399579048,-0.050286706537008286,0.02986823581159115,-0.06888199597597122,-0.0192879531532526,0.002592118689790368,-0.11872608959674835,-0.18647392094135284,0.0851898342370987,-0.5286164283752441,0.3135978579521179,0.2823728621006012,-0.20985160768032074,-0.12217335402965546,-0.020644892007112503,0.0037579508498311043,-0.15197278559207916,-0.05217196047306061,-0.03081752546131611,-0.18770229816436768,-0.04140680283308029,0.006893285550177097,0.22953669726848602],[0.08548391610383987,0.013140230439603329,0.31670406460762024,0.2428465634584427,0.7139806151390076,-0.2837962508201599,-0.00554885296151042,0.26987606287002563,0.2193455547094345,0.06682607531547546,0.08554389327764511,0.09773888438940048,0.4171423017978668,0.2674354016780853,0.20014110207557678,-0.24625952541828156,0.6558110117912292,-0.01998566836118698,-0.4935469925403595,0.7368648648262024,0.5451773405075073,-0.16159924864768982,0.4054189622402191,-0.1527957320213318,-0.08903326839208603,-0.35001105070114136,-0.010379616171121597,-0.03650972619652748,-0.17983657121658325,-0.28633278608322144,-0.2658962607383728,-0.3356294333934784,0.0027003735303878784,0.01242061983793974,0.1962050497531891,-0.015777217224240303,0.38762494921684265,0.4992373287677765,0.18184903264045715,-0.2080845981836319,-0.051194045692682266,-0.061226148158311844,0.08459983766078949,-0.3723353147506714,-0.2105027437210083,-0.31806090474128723,-0.32299405336380005,-0.48130130767822266,-0.36290717124938965,-0.007194411940872669,-0.0999002680182457,0.09927503764629364,0.17911753058433533,0.03049233742058277,0.07144077122211456,0.19238251447677612,-0.15135805308818817,0.2623850703239441,-0.02627888321876526,-0.4229772090911865,-0.434081107378006,-0.3993352949619293,-0.21242637932300568,0.1635921150445938,0.32291531562805176,-0.08209316432476044,0.1614019274711609,-0.5137454271316528,0.0716894268989563,0.04034368321299553,0.40598756074905396,0.3041006922721863,-0.47482120990753174,0.11029515415430069,-0.5850676894187927,-0.40057820081710815,0.2067607343196869,0.0698700100183487,-0.16112792491912842,-0.02036632038652897,-0.08283358067274094,-0.034256380051374435,-0.03986743092536926,-0.06275419890880585,-0.10206859558820724,-0.08853700011968613,-0.00020837123156525195,-0.024646401405334473,-0.15717504918575287,0.11707527935504913,0.17104488611221313,-0.041172824800014496,-0.22458183765411377,0.33149290084838867,-0.3500366508960724,0.11156788468360901,-0.27661997079849243,-0.2256920337677002,0.0038596910890191793,-0.027485955506563187,-0.08450005203485489,-0.08944670855998993,0.08232198655605316,0.24633726477622986,-0.1296316534280777],[-0.3287937641143799,-0.3844664990901947,-0.16122077405452728,0.049076806753873825,-0.4294270873069763,0.16361066699028015,-0.05789472907781601,-0.28261351585388184,-0.14335016906261444,0.019840337336063385,0.3699601888656616,0.09708213806152344,-0.2673647999763489,0.09920746088027954,0.09820283204317093,0.1395106315612793,-0.801776111125946,0.2084917426109314,-0.2180691361427307,-0.31699618697166443,-0.21774323284626007,-0.24177958071231842,0.6082544326782227,0.03066321089863777,-0.3298848271369934,0.13273507356643677,0.00499409344047308,0.09157171845436096,-0.02386338636279106,-0.11162811517715454,-0.39157170057296753,0.11443580687046051,-0.34366467595100403,0.00683709466829896,-0.0647939145565033,-0.14283721148967743,-0.038376402109861374,-0.14049582183361053,-0.2171064168214798,-0.31234654784202576,-0.044869426637887955,0.21960465610027313,0.15183478593826294,0.2476397454738617,0.1059333086013794,0.14958332479000092,-0.13112729787826538,-0.15661223232746124,0.1656314879655838,0.015582164749503136,0.02745584398508072,0.18121567368507385,-0.1936502903699875,0.0758453905582428,-0.03821317479014397,-0.12462861090898514,0.04382535070180893,-0.2953583300113678,-0.0586090013384819,0.24608080089092255,0.25200480222702026,0.020284106954932213,-0.21399882435798645,-0.04284098371863365,-0.0226653553545475,0.2359420210123062,-0.10061200708150864,0.11194419860839844,0.057809796184301376,-0.07506924867630005,-0.02723381668329239,-0.06939313560724258,0.2571013569831848,-0.26671889424324036,0.08958464860916138,-0.17099623382091522,0.2430075854063034,-0.05067436397075653,-0.013529996387660503,0.0008779065683484077,-0.058175086975097656,-0.046457014977931976,0.010432918556034565,-0.02050434984266758,0.01077648438513279,-0.015753263607621193,0.024428866803646088,0.036836057901382446,0.001291650696657598,0.28935763239860535,0.7289008498191833,-0.3155970573425293,-0.15972022712230682,0.5436900854110718,0.24285529553890228,0.155539408326149,0.33004510402679443,0.23091639578342438,0.09263615310192108,0.14692305028438568,-0.36653685569763184,0.20930245518684387,-0.3542296886444092,0.0865635797381401,-0.17838546633720398],[-0.15218275785446167,0.08496782183647156,-0.08379460871219635,0.044753819704055786,-0.7890633344650269,-0.1210719496011734,-0.12005393207073212,-0.18392649292945862,-0.13241760432720184,-0.04205244779586792,-0.11484549939632416,0.008518361486494541,0.34062808752059937,-0.13001947104930878,-0.3413996398448944,0.015368769876658916,0.6596695780754089,-0.17448928952217102,0.350949764251709,0.4032808840274811,-0.10524602234363556,0.0533701591193676,-0.6493136882781982,-0.09577855467796326,0.1427493691444397,0.2697983682155609,0.0005502582644112408,-0.3095633089542389,-0.18342225253582,-0.6049827933311462,-0.26633310317993164,-0.08806167542934418,-0.15405765175819397,0.17907576262950897,0.40063992142677307,0.3780878186225891,-0.006989064160734415,0.074900321662426,0.03198887035250664,-0.2722927927970886,-0.1980987936258316,-0.16073767840862274,-0.06406613439321518,-0.05452580004930496,-0.17305131256580353,0.17887276411056519,0.10630079358816147,0.025424249470233917,-0.06818635761737823,-0.15183933079242706,0.2279273122549057,-0.16670073568820953,0.051538582891225815,0.06479614228010178,0.30093833804130554,-0.17924585938453674,0.09681941568851471,-0.06075700744986534,0.3217596709728241,-0.3865201473236084,0.014223432168364525,0.13967904448509216,0.2198367714881897,0.3602355122566223,-0.0540032684803009,-0.07154693454504013,0.23801350593566895,-0.26043620705604553,0.27628055214881897,0.2987656593322754,-0.029345601797103882,-0.27545252442359924,0.12557928264141083,0.06525667011737823,-0.20193292200565338,0.25888246297836304,-0.10994935780763626,0.05471508204936981,0.19530117511749268,-0.01588691957294941,-0.29956987500190735,0.10777914524078369,-0.03939788043498993,-0.06354604661464691,0.03258243203163147,-0.012446391396224499,-0.05037945508956909,-0.05026394873857498,-0.05585186555981636,0.22865714132785797,-0.06382505595684052,-0.31836068630218506,-0.12397709488868713,-0.36966967582702637,-0.26703447103500366,0.11552708595991135,0.12241900712251663,-0.11317925155162811,-0.14292657375335693,0.43047502636909485,0.09649866074323654,-0.12116564810276031,-0.024672720581293106,0.012575686909258366,0.09202785044908524],[0.23991766571998596,0.13180308043956757,-0.10878954827785492,0.035711608827114105,0.8206238150596619,-0.006033696699887514,-0.1885756254196167,-0.3748813569545746,-0.18929262459278107,-0.21686673164367676,0.02389821596443653,-0.15477778017520905,-0.20299945771694183,-0.036126576364040375,-0.044312987476587296,0.008131274953484535,-0.05623990297317505,0.18747618794441223,-0.13345374166965485,0.225138321518898,0.17706634104251862,-0.14792264997959137,-1.1027413606643677,-0.08289632201194763,0.07840600609779358,0.1901734322309494,0.3426513075828552,0.09082268178462982,-0.19201189279556274,-0.3587428033351898,0.04902849718928337,-0.17462778091430664,-0.15831200778484344,0.1943727284669876,0.18636144697666168,-0.0111402478069067,0.3563768267631531,0.19317352771759033,0.08675824850797653,-0.3591276705265045,-0.19412656128406525,-0.3241802155971527,-0.12157037109136581,-0.42439305782318115,0.12386810034513474,-0.060192614793777466,0.4057021737098694,-0.020891519263386726,-0.04822031036019325,0.23573096096515656,0.35807403922080994,-0.1281888335943222,-0.43371832370758057,0.021910222247242928,-0.11579937487840652,0.1986914873123169,-0.018355097621679306,0.15219391882419586,0.38942983746528625,-0.04426917806267738,0.034573692828416824,0.09057039022445679,0.08195408433675766,0.15317673981189728,-0.20146317780017853,0.12537969648838043,0.08425109833478928,-0.04331611841917038,-0.056193359196186066,-0.09376952052116394,-0.23292948305606842,-0.17146974802017212,0.17201532423496246,-0.2151036113500595,0.15685833990573883,-0.4374329149723053,-0.16507220268249512,0.15110617876052856,-0.1968330293893814,-0.014512915164232254,-0.14236918091773987,-0.11484938114881516,-0.08859506249427795,-0.0737309381365776,-0.011590026319026947,-0.08301998674869537,-0.11592499166727066,-0.06643521785736084,0.197499617934227,0.08566214889287949,-0.05862700566649437,0.28643476963043213,-0.4482193887233734,0.19687698781490326,0.06877412647008896,-0.18143311142921448,-0.10723280161619186,-0.24766674637794495,-0.06940212100744247,-0.07411263138055801,0.013548627495765686,0.11322078108787537,0.163786843419075,-0.17150548100471497,0.20100516080856323],[0.21055448055267334,0.26819881796836853,-0.4758419692516327,0.11454815417528152,-0.16122817993164062,0.2618362307548523,0.25572776794433594,0.48908743262290955,0.3224855363368988,0.183427095413208,0.03543557971715927,-0.1973828375339508,0.21315796673297882,0.18187713623046875,0.13573312759399414,-0.4865373373031616,0.039622433483600616,-0.40832746028900146,0.556267499923706,0.11958535015583038,0.3595641553401947,0.34337419271469116,0.1977931261062622,-0.0327644869685173,0.006372915115207434,0.11235274374485016,-0.16458158195018768,-0.08139773458242416,-0.05990989878773689,-0.005779463332146406,-0.1944826990365982,0.2711726427078247,-0.13549308478832245,0.21387438476085663,0.17866988480091095,-0.05867474898695946,0.06538695842027664,0.10287685692310333,-0.20612221956253052,-0.05786309763789177,0.2722650170326233,0.396001398563385,-0.3116331398487091,0.10502739995718002,0.13476397097110748,0.055292632430791855,-0.08039826899766922,0.1617223471403122,0.08865725249052048,-0.26658573746681213,-0.3360956907272339,-0.14007994532585144,-0.12190824002027512,0.17456072568893433,0.14404717087745667,0.21896032989025116,0.0422825962305069,-0.01446771901100874,-0.0032153730280697346,0.07450662553310394,-0.19180382788181305,-0.3312692642211914,0.07119932770729065,-0.21683572232723236,0.19764867424964905,-0.15293093025684357,-0.08483502268791199,0.12498065084218979,-0.09569705277681351,-0.12453973293304443,0.054114148020744324,0.1932520568370819,0.36409425735473633,-0.008661900646984577,0.04554358124732971,0.13651955127716064,-0.033934880048036575,-0.2199176847934723,-0.1435113251209259,-0.024887390434741974,-0.04893476143479347,-0.06999742984771729,-0.0387895442545414,-0.007857301272451878,-0.005021668504923582,0.010701521299779415,-0.0023759251926094294,-0.00112715398427099,0.12948046624660492,0.2714683413505554,0.29140862822532654,-0.42410993576049805,0.2647979259490967,-0.21454323828220367,-0.191107377409935,-0.18201784789562225,-0.39955854415893555,-0.28283360600471497,0.3038783371448517,0.037918876856565475,0.22546207904815674,0.09966661781072617,0.20986978709697723,-0.01649346947669983,-0.5656597018241882],[0.0770982876420021,0.24220547080039978,0.009535589255392551,-0.017418835312128067,-0.02266409620642662,-0.07059160619974136,-0.07452134042978287,-0.11499054729938507,-0.24434643983840942,-0.12387596815824509,0.1891150027513504,0.05595061555504799,-0.26328620314598083,0.127780020236969,0.003969856537878513,0.027793651446700096,0.2509358525276184,-0.023853708058595657,0.3245900869369507,0.027874356135725975,-0.23150497674942017,-0.6149330735206604,0.016742955893278122,-0.2062784880399704,-0.0005761656211689115,-0.28538599610328674,-0.0034637157805263996,-0.12962087988853455,0.3150351643562317,0.055775996297597885,0.31534796953201294,0.3701665997505188,-0.24995136260986328,-0.5662723779678345,-0.19130489230155945,-0.03808137774467468,-0.3863472640514374,-0.09187380969524384,-0.11857043951749802,0.21722348034381866,-0.15223927795886993,0.3733105957508087,-0.08949233591556549,0.4411070942878723,0.2182929664850235,8.842042007017881e-05,-0.033822931349277496,0.051649175584316254,0.09735081344842911,-0.01409400999546051,-0.26568925380706787,-0.25616687536239624,0.13163237273693085,0.21209296584129333,0.26441001892089844,-0.008283172734081745,-0.40225738286972046,0.25396963953971863,-0.13667894899845123,0.4090792238712311,0.025709165260195732,0.28475889563560486,0.3475024998188019,0.20667752623558044,-0.11930902302265167,0.06566888839006424,0.09360557049512863,-0.38756754994392395,-0.12809979915618896,0.0985974371433258,-0.057226210832595825,0.04622543975710869,0.31681913137435913,0.03467012569308281,-0.24828454852104187,0.27564653754234314,0.002644371008500457,-0.26646101474761963,-0.02055392786860466,-0.049280114471912384,-0.06510361284017563,0.11959569156169891,-0.0040292888879776,-0.042983464896678925,-0.04500599950551987,-0.0039919097907841206,0.03817661479115486,0.01495052594691515,-0.08449263125658035,0.02725308947265148,-0.1411493569612503,0.005567226558923721,-0.3838348090648651,-0.059473443776369095,-0.5487933158874512,0.283526748418808,0.03213092312216759,-0.21146215498447418,-0.31948480010032654,0.22382508218288422,0.06016017124056816,0.18545746803283691,-0.08640212565660477,0.05115951597690582,0.23932673037052155],[0.24207021296024323,-0.5525129437446594,-0.1295344978570938,0.26553505659103394,0.8019713759422302,0.09699027240276337,0.18333694338798523,0.11881052702665329,-0.04264923185110092,0.19187097251415253,-0.04435671120882034,0.016516776755452156,-0.13669845461845398,0.034339603036642075,-0.2390758991241455,-0.11822589486837387,0.26636484265327454,-0.0376703254878521,0.18235915899276733,-0.14823034405708313,-0.2757866084575653,-0.21727697551250458,-0.6566665768623352,-0.00862935371696949,-0.05046941712498665,-0.053386058658361435,0.12801499664783478,-0.14765729010105133,0.107941634953022,0.2143656462430954,0.08311384916305542,-0.0003432178928051144,-0.24562956392765045,-0.2434820979833603,0.004169705789536238,0.23459380865097046,0.3957398235797882,-0.07006772607564926,-0.004431267734616995,-0.05272345989942551,0.33430737257003784,0.12518763542175293,0.20783405005931854,0.22877030074596405,0.07921229302883148,0.3891383707523346,-0.12467201054096222,0.06324128061532974,0.04065126180648804,-0.016989074647426605,0.10351884365081787,0.19675621390342712,-0.004109934438019991,-0.1423305869102478,-0.17723312973976135,0.11619462072849274,0.015407330356538296,-0.3988262116909027,-0.18783359229564667,0.24359257519245148,0.08152833580970764,-0.23219268023967743,-0.1794261783361435,-0.36401715874671936,0.08971855044364929,-0.03492100536823273,0.37159109115600586,0.3686314821243286,0.4533492624759674,0.09568536281585693,0.6083520650863647,0.3681805431842804,0.456942617893219,0.19556492567062378,0.17174118757247925,0.09243308007717133,-0.5272544622421265,0.2081194669008255,-0.2743067443370819,-0.12953878939151764,0.0657258927822113,0.011254779063165188,0.08931484818458557,0.08605985343456268,0.09566904604434967,0.0390666164457798,0.07719945162534714,0.06751967966556549,-0.014193725772202015,0.2622208297252655,-0.22485841810703278,-0.1622273474931717,-0.2244759500026703,0.01515817828476429,0.1937958151102066,-0.10949929058551788,-0.3635587692260742,0.3704144358634949,-0.29137787222862244,0.2779668867588043,-0.3842163681983948,-0.11086783558130264,-0.03496403619647026,-0.029699213802814484,-0.22553378343582153],[0.0010908242547884583,-0.0026327306404709816,0.03716541454195976,-0.283620685338974,-0.29049152135849,-0.03660672903060913,0.20335666835308075,0.21395304799079895,0.1876206398010254,-0.03466086462140083,0.05516904965043068,-0.01087771076709032,0.16176047921180725,-0.062495533376932144,0.07922933995723724,-0.3147609829902649,0.08927605301141739,-0.4889405071735382,-0.486839234828949,0.26811471581459045,0.05428316816687584,-0.1627328246831894,0.344556599855423,-0.20845381915569305,0.10594847798347473,0.10884604603052139,-0.3666285276412964,-0.4684906303882599,-0.1953074187040329,-0.034633565694093704,0.02973628044128418,0.2551818788051605,0.37096408009529114,0.16893938183784485,-0.3902481198310852,-0.12764669954776764,-0.2824113070964813,-0.15271040797233582,-0.26480525732040405,0.0696614608168602,0.3854101002216339,0.32771769165992737,-0.1374913901090622,0.21986223757266998,0.09848511219024658,-0.30393365025520325,-0.07361792027950287,-0.20864678919315338,-0.204158216714859,0.03652886301279068,0.09439709782600403,0.2744934856891632,0.13663996756076813,0.3451126515865326,0.12560071051120758,-0.24894575774669647,0.12976166605949402,0.06743060797452927,0.025839529931545258,-0.9429824948310852,-0.03329487517476082,0.026281997561454773,-0.1649138480424881,-0.11912165582180023,0.3025354743003845,0.0676717609167099,-0.854425847530365,-0.06861210614442825,0.14975936710834503,0.2729085087776184,0.03425915539264679,0.04168032854795456,0.14392127096652985,-0.3085315227508545,0.09720679372549057,0.22783733904361725,