window.RICOCHET_POLICIES=window.RICOCHET_POLICIES||{};window.RICOCHET_POLICIES["v3champ"]={"layers": [{"w": [[-0.04993397369980812, -0.19207237660884857, -0.3149876296520233, 0.13890540599822998, 0.6118480563163757, -0.15044736862182617, 0.1649051457643509, -0.1002117395401001, -0.4460321366786957, 0.07277507334947586, -0.7709692716598511, -0.016908744350075722, -0.17073529958724976, -0.42294827103614807, -0.03370024636387825, -0.3502650260925293, -0.48703914880752563, -0.31346774101257324, -0.4369945228099823, -0.3458237051963806, -0.009210856631398201, -0.4031211733818054, -0.623140811920166, 0.0703950747847557, -0.07618141919374466, -0.19204933941364288, -0.5290607213973999, -0.3437630236148834, 0.3035387694835663, 0.29260721802711487, 0.18677596747875214, 0.16942884027957916, 0.0013949935091659427, 0.17036834359169006, 0.20065633952617645, 0.05691201239824295, -0.06760766357183456, 0.17892241477966309, -0.07755773514509201, -0.17783057689666748, 0.061235539615154266, -0.06851217895746231, -0.47046881914138794, 0.37710127234458923, 0.07780446857213974, -0.10622255504131317, 0.07620398700237274, -0.2543339729309082, -0.20746026933193207, -0.2769851088523865, -0.23276397585868835, 0.12141531705856323, 0.12746886909008026, -0.18429246544837952, 0.17986422777175903, -0.03921496495604515, 0.11773090809583664, 0.009369424544274807, 0.23194603621959686, 0.3090493977069855, -0.18770472705364227, -0.04985528439283371, 0.23110656440258026, -0.3429633677005768, -0.05785204842686653, 0.04931969940662384, -0.1928708851337433, -0.7363912463188171, 0.08106320351362228, -0.2607492208480835, -0.14710430800914764, -0.06665287166833878, 0.24219945073127747, 0.5916558504104614, -0.6567268371582031, -0.010445247404277325, 0.3217647671699524, -0.04873506724834442, 0.050892531871795654, 0.01266945619136095, 0.09000112116336823, 0.01701972633600235, -0.03676964342594147, 0.006604907568544149, 0.02506669983267784, 0.03988778963685036, -0.07213214039802551, 0.004933096002787352, -0.08827090263366699, -0.08186839520931244, 0.0, 0.0, 0.0, 0.0, -0.2879122495651245, -0.24494197964668274, 0.029632147401571274, 0.12606048583984375, 0.1981227546930313, 0.15485942363739014, -0.6549261212348938, -0.13024967908859253, -0.049660574644804, -0.08080582320690155, -0.12264016270637512], [0.03023185022175312, 0.36562469601631165, -0.6467486619949341, -0.46252983808517456, 0.3247891962528229, 0.014982398599386215, -0.9245342016220093, -1.3493993282318115, -0.9591869115829468, -0.5730680227279663, -0.2680595815181732, 0.20035958290100098, -0.1753486841917038, -0.30049827694892883, -0.6853004693984985, -0.3142715394496918, -0.49595072865486145, 0.04477151483297348, -0.20377852022647858, 0.04351532459259033, 0.31594881415367126, 0.30673888325691223, -0.37522023916244507, 0.1303747147321701, -0.06637230515480042, 0.23749813437461853, 0.1556459218263626, 0.336168110370636, 0.3224673867225647, 0.2589188814163208, 0.35384705662727356, 0.25283706188201904, -0.08803075551986694, -0.09394267946481705, -0.09936201572418213, -0.07069581001996994, 0.03151743486523628, 0.014127982780337334, -0.05530261993408203, -0.07968144118785858, -0.11525478214025497, -0.38622260093688965, 0.0966193675994873, -0.396017462015152, -0.26797541975975037, -0.06149807572364807, -0.0810215175151825, -0.08522705733776093, -0.0588342621922493, -0.12486378103494644, -0.2752055525779724, -0.12340301275253296, -0.09121475368738174, -0.3541085124015808, -0.10215236991643906, -0.289993554353714, -0.015147005207836628, -0.01392012182623148, -0.22591955959796906, -0.020180022343993187, -0.2297423630952835, -0.24949444830417633, 0.1349816918373108, -0.0015160816255956888, -0.07371853291988373, 0.11887886375188828, -0.114898681640625, 0.17139482498168945, -0.2557302415370941, -0.01876978389918804, -0.04356560483574867, -0.15951555967330933, 0.1893046796321869, -0.7516297101974487, -0.5566198825836182, 0.29217374324798584, 0.07617001235485077, 0.14555850625038147, 0.19212768971920013, 0.029741177335381508, -0.17704081535339355, 0.17706982791423798, 0.14729470014572144, 0.22042842209339142, 0.24025942385196686, 0.1065843477845192, 0.15691064298152924, 0.2528616189956665, 0.22032298147678375, -0.08945439755916595, 0.0, 0.0, 0.0, 0.0, 0.40991491079330444, 0.010423584841191769, 0.3116149604320526, -0.34942376613616943, 0.7293882369995117, -0.29384374618530273, 0.647290050983429, 0.29023152589797974, 0.1273290067911148, 0.05129092559218407, 0.10702335089445114], [-0.2963579595088959, 0.4542888402938843, 0.5125946402549744, -0.15631645917892456, -0.17892470955848694, -0.18120692670345306, 0.3231108784675598, 0.248360738158226, 0.054457444697618484, -0.2261144518852234, 0.37872952222824097, 0.08278458565473557, 0.11776689440011978, -0.18000653386116028, 0.15028682351112366, -0.14434140920639038, 0.47875821590423584, -0.32439056038856506, -1.706993579864502, -0.32671889662742615, -0.0806197002530098, -0.10111745446920395, 0.13207826018333435, 0.1520901620388031, -0.052508555352687836, 0.08085225522518158, 0.3949870765209198, -0.0454682931303978, 0.00501601817086339, -0.29656198620796204, -0.18509408831596375, -0.3561132550239563, -0.383209228515625, 0.19908538460731506, 0.10934508591890335, -0.18480660021305084, -0.04054802283644676, -0.05985181778669357, -0.15906430780887604, -0.14829908311367035, 0.4895249605178833, 0.016985895112156868, -0.16451482474803925, 0.36390817165374756, -0.07416040450334549, 0.1394752562046051, 0.17567972838878632, 0.2572871446609497, -0.060413990169763565, -0.18052980303764343, -0.22638389468193054, -0.15086068212985992, -0.18546557426452637, 0.2782869338989258, -0.0006278171204030514, 0.342394083738327, -0.10487335175275803, 0.42477014660835266, -0.14445382356643677, -0.6720421314239502, 0.33063414692878723, -0.009033127687871456, 0.00014723543426953256, 0.27063482999801636, 0.17529915273189545, -0.08383020758628845, -0.19546733796596527, 0.6363822817802429, -0.05069663003087044, 0.0669703483581543, 0.21158325672149658, 0.3000658452510834, -0.10242371261119843, -0.2021520733833313, 0.2637203335762024, -0.18567584455013275, 0.145691379904747, 0.10871443152427673, -0.06577501446008682, 0.07279133796691895, 0.17643682658672333, -0.257156640291214, -0.12657013535499573, -0.08239638805389404, -0.20103998482227325, -0.13852165639400482, -0.1301833838224411, -0.1258959174156189, 0.04296126961708069, 0.010557666420936584, 0.0, 0.0, 0.0, 0.0, 0.1232999861240387, -0.11074578762054443, 0.2661815881729126, -0.1396997570991516, 0.07158134132623672, -0.6453932523727417, 0.23826491832733154, -0.06162218004465103, 0.22148765623569489, 0.14830780029296875, -0.33093807101249695], [0.12660443782806396, -0.20839741826057434, -0.08847840875387192, 0.383645623922348, 0.558239221572876, -0.025762397795915604, -0.16934044659137726, -0.1099814847111702, 0.09947001188993454, -0.10671588778495789, 0.46371275186538696, -0.3612474501132965, 0.3005417287349701, -0.2561361789703369, -0.4864601790904999, -0.4132499396800995, 0.3652264475822449, -0.35807833075523376, -0.05684240162372589, -0.18428006768226624, -0.0016980011714622378, -0.1915731579065323, -0.06746015697717667, -0.15391753613948822, -0.12483756244182587, -0.08458779007196426, 0.03043605200946331, 0.008541585877537727, 0.23244275152683258, 0.2054131180047989, 0.25160688161849976, -0.36416107416152954, -0.0643407329916954, 0.2022637128829956, 0.07478445023298264, 0.024328207597136497, -0.27213969826698303, 0.015482901595532894, -0.2954559028148651, 0.1383635401725769, 0.17313243448734283, 0.16284231841564178, 0.05247917026281357, 0.030827132984995842, -0.05785360187292099, -0.2044999599456787, -0.29188406467437744, -0.0479978583753109, 0.28316161036491394, 0.3041047751903534, -0.3911905288696289, -0.025592586025595665, -0.04971319064497948, -0.006555705796927214, 0.28855639696121216, -0.1921272724866867, -0.21861781179904938, 0.08633735030889511, -0.3567553758621216, -0.35950466990470886, 0.1782619208097458, -0.25928014516830444, -0.1933271586894989, 0.19288289546966553, 0.13911759853363037, -0.239065021276474, -0.8953707218170166, -0.12375092506408691, 0.10039281845092773, 0.033320505172014236, 0.4918344020843506, 0.04199012368917465, -0.29134267568588257, -0.5077313780784607, -0.3492608964443207, -0.6899704337120056, -0.4387202560901642, 0.530026376247406, 0.07950731366872787, 0.2068745195865631, 0.2962239384651184, 0.07708307355642319, -0.06971129775047302, -0.031210361048579216, 0.011367837898433208, 0.0677017793059349, 0.03262485936284065, 0.0996294692158699, -0.06377546489238739, -0.022179268300533295, 0.0, 0.0, 0.0, 0.0, 0.173099547624588, 0.21267817914485931, 0.03676895052194595, 0.09211013466119766, 0.7365982532501221, -0.000890030525624752, 0.16226249933242798, 0.11318093538284302, 0.23943109810352325, -0.1141587495803833, 0.28996092081069946], [0.5783753395080566, 0.4346741735935211, -0.08116549998521805, 0.006111689377576113, -1.7997841835021973, -0.06696614623069763, 0.17389607429504395, 0.12621836364269257, 0.29669731855392456, 0.06674468517303467, 0.30731266736984253, -0.010520116426050663, 0.4634571969509125, -0.06450198590755463, -0.004706729669123888, -0.5342045426368713, -0.4313047230243683, -0.2370004802942276, -0.6795930862426758, 0.04421372711658478, -0.06671494990587234, 0.20291821658611298, 0.5393763780593872, 0.05339381471276283, 0.12710320949554443, -0.023132186383008957, 0.03480242192745209, -0.16144610941410065, -0.5268650650978088, -0.16254326701164246, -0.32056427001953125, 0.15371179580688477, 0.1102048009634018, 0.0007088050479069352, -0.24087539315223694, -0.13143962621688843, 0.04490659385919571, 0.17395631968975067, 0.13784173130989075, 0.052564799785614014, -0.011635806411504745, -0.029154658317565918, -0.22141185402870178, -0.03553680703043938, -0.09158158302307129, 0.1829509437084198, 0.09308461844921112, 0.229499951004982, 0.3536389172077179, -0.25328075885772705, -0.08068490773439407, -0.014103046618402004, -0.3754919171333313, -0.4877668619155884, -0.18825103342533112, 0.37292230129241943, 0.12886658310890198, 0.15707369148731232, -0.18558518588542938, -0.7153679728507996, 1.0533535480499268, 0.2465435117483139, 0.012661583721637726, 0.23718447983264923, -0.1372799426317215, -0.28874555230140686, -0.37895694375038147, -0.18476955592632294, 0.1219610795378685, -0.1228528693318367, -0.25173014402389526, -0.19728444516658783, -0.09538919478654861, 0.03095422312617302, -0.5733481049537659, 0.1363479048013687, -0.11707766354084015, -0.4715424180030823, 0.015090523287653923, -0.010163111612200737, 0.18577836453914642, 0.10581272095441818, -0.06464046239852905, 0.15227630734443665, 0.033412061631679535, -0.03921916335821152, 0.01971018873155117, -0.06874541938304901, 0.12656323611736298, -0.18934789299964905, 0.0, 0.0, 0.0, 0.0, 0.001960581401363015, 0.15107426047325134, -0.22979186475276947, -0.18069988489151, 0.237773135304451, -0.09791947156190872, 0.09978587925434113, 0.4646413326263428, 0.08740599453449249, 0.06316962093114853, 0.1659630537033081], [-0.22904366254806519, 0.28523388504981995, 0.4211810529232025, 0.04055814817547798, -0.4807693064212799, 0.11481423676013947, -0.6475589871406555, -0.31766650080680847, 0.00671793706715107, -0.004291206132620573, -0.177453875541687, 0.36593398451805115, 0.16544489562511444, 0.0913509801030159, 0.10686563700437546, -0.07176543772220612, 0.10502845048904419, -0.2064519226551056, 0.08273275196552277, -0.668030858039856, -0.0963844582438469, 0.025464322417974472, -0.04114479571580887, 0.12552455067634583, -0.18048697710037231, -0.126139298081398, 0.0702817365527153, -0.10080309957265854, 0.5307255983352661, 0.2853117287158966, 0.28022751212120056, 0.056151505559682846, -0.11214280128479004, -0.03354604169726372, -0.4622240364551544, -0.25186944007873535, -0.2526513636112213, -0.5203474164009094, -0.10300853103399277, 0.2614118158817291, 0.026640623807907104, -0.280988484621048, -0.031587906181812286, -0.12831731140613556, 0.40727663040161133, -0.054474376142024994, 0.2939714193344116, -0.33096078038215637, -0.1935303956270218, -0.33334821462631226, 0.47488367557525635, 0.16035422682762146, -0.28907710313796997, -0.3234149217605591, 0.09490546584129333, 0.005291446577757597, 0.3757900297641754, -0.27998965978622437, -0.17091716825962067, -0.25436729192733765, -0.377636194229126, 0.016973955556750298, 0.05266478285193443, 0.24574047327041626, 0.11624627560377121, -0.13288864493370056, 0.13981446623802185, -0.16717790067195892, -0.03724491968750954, 0.07008054107427597, 0.01768762245774269, -0.28314706683158875, -0.08499336987733841, -0.37319451570510864, -0.015253942459821701, -0.15288443863391876, 0.0768100768327713, -0.2025631070137024, 0.2713581323623657, 0.00684226443991065, -0.008320915512740612, 0.09206738322973251, 0.10980580747127533, 0.16021841764450073, -0.032920122146606445, 0.08301334083080292, 0.1529076099395752, 0.21757128834724426, 0.09269238263368607, 0.03085291013121605, 0.0, 0.0, 0.0, 0.0, 0.08898146450519562, 0.09619946777820587, 0.1598471850156784, -0.3220396935939789, 0.07971944659948349, -0.03543473035097122, -0.07016683369874954, 0.150509774684906, -0.08961429446935654, -0.1142718493938446, 0.255741685628891], [0.38248497247695923, -0.09937162697315216, -0.22305426001548767, -0.3347020745277405, 3.1060595512390137, 0.2867449223995209, 0.6934877634048462, 0.4139980375766754, 0.3401206135749817, -0.02858944982290268, -0.04628424346446991, 0.06257659196853638, -0.042696308344602585, 0.18623781204223633, 0.171232670545578, -0.04465823993086815, -0.4505901038646698, -0.12887345254421234, 0.12016889452934265, -0.31364378333091736, 0.06248389184474945, -0.0849795788526535, 1.3953393697738647, -0.09558513760566711, 0.030271945521235466, -0.1536390632390976, -0.20807431638240814, -0.0754193663597107, 0.1082170233130455, -0.00470958324149251, -0.10651513189077377, 0.15629535913467407, 0.1366048902273178, -0.31891030073165894, 0.3665720820426941, 0.05778998136520386, 0.08709821850061417, 0.5770898461341858, 0.3804396390914917, 0.05533840134739876, 0.004719239193946123, -0.15850280225276947, 0.28501224517822266, -0.2113208919763565, -0.2222171574831009, -0.18205834925174713, -0.011700300499796867, -0.27812227606773376, -0.2774401903152466, -0.24775196611881256, -0.08897368609905243, 0.18712066113948822, -0.06857328861951828, 0.03177403286099434, 0.1529957354068756, 0.249852254986763, 0.13081775605678558, 0.08635386824607849, 0.31765514612197876, -0.025169426575303078, 1.334730625152588, 0.30431076884269714, -0.387877881526947, 0.2922907769680023, 0.10527929663658142, -0.2330516129732132, 0.0863742008805275, 0.11674534529447556, -0.049079619348049164, 0.08217575401067734, 0.4365324079990387, -0.02896328829228878, -0.1258910447359085, -0.23853936791419983, 0.3503057062625885, 0.003050576662644744, -0.2765125036239624, 0.4217160940170288, -0.06386520713567734, 0.019538618624210358, 0.03838321194052696, 0.1543513387441635, -0.1402740478515625, 0.011988576501607895, -0.11364477127790451, -0.1240600124001503, -0.03468693047761917, -0.055714335292577744, 0.07025878131389618, 0.24330659210681915, 0.0, 0.0, 0.0, 0.0, 0.24121613800525665, 0.0041147381998598576, -0.5767209529876709, 0.015505197457969189, -0.01571972295641899, -0.34825921058654785, 0.01883186586201191, 0.033068329095840454, 0.28358688950538635, -0.19744929671287537, -0.08263092488050461], [-0.09671599417924881, 0.12864968180656433, 0.3402206003665924, 0.2349192202091217, 1.3341745138168335, -0.10316749662160873, 0.25510671734809875, 0.0318412110209465, -0.06086886674165726, -0.06503738462924957, -0.3205329179763794, -0.002440465847030282, -0.22171927988529205, -0.09526821225881577, 0.042983315885066986, 0.014447763562202454, 0.08956882357597351, -0.10494053363800049, 0.06726695597171783, 0.5337513089179993, -0.018509864807128906, -0.2579735815525055, -0.24559389054775238, -0.11027996987104416, -0.27856317162513733, -0.21623602509498596, -0.2535454332828522, -0.028366340324282646, -0.0006531972903758287, -0.08273065835237503, -0.08630262315273285, -0.01589495688676834, -0.0809069499373436, 0.011434029787778854, 0.17078649997711182, 0.0989941656589508, 0.15588462352752686, 0.055237118154764175, -0.035902898758649826, -0.1120736226439476, 0.06768014281988144, -0.19236443936824799, 0.23969939351081848, 0.1861763894557953, 0.050319645553827286, -0.022405164316296577, 0.14292125403881073, 0.27364227175712585, 0.09866069257259369, -0.0033484594896435738, 0.22284027934074402, 0.10461084544658661, -0.3844633400440216, -0.09229840338230133, -0.2503800392150879, -0.3496602773666382, 0.09113337844610214, 0.12130638211965561, -0.2172035425901413, 0.11997001618146896, 1.0186482667922974, -0.364950954914093, 0.2231965810060501, 0.28454354405403137, -0.16239584982395172, 0.08566904067993164, -0.696696400642395, 0.0727369487285614, -0.20573686063289642, 0.3578155040740967, -0.06436960399150848, -0.1221645250916481, -0.031933076679706573, -0.43183520436286926, 0.16916054487228394, 0.20176978409290314, 0.23820118606090546, 0.6266390085220337, 0.11700362712144852, 0.1861507147550583, 0.2002474069595337, 0.18204066157341003, 0.01807466708123684, 0.03770436346530914, -0.09421703964471817, -0.012292974628508091, 0.0163275133818388, 0.016980208456516266, 0.15849478542804718, -0.2449503093957901, 0.0, 0.0, 0.0, 0.0, 0.12522247433662415, -0.12239544093608856, 0.008539619855582714, -0.26142969727516174, 0.41229531168937683, -0.13903839886188507, 0.06242237240076065, 0.004074159078299999, 0.18408650159835815, -0.018590401858091354, 0.4448729157447815], [-0.006368938833475113, -0.45840179920196533, 0.07673075050115585, 0.09537413716316223, 0.1473252773284912, 0.3716519773006439, 0.22549863159656525, 0.04546305537223816, -0.2718360424041748, -0.23014870285987854, -0.35815492272377014, 0.06739237159490585, -0.5016705393791199, -0.4865020513534546, -0.09613970667123795, 0.13070271909236908, 0.719850480556488, 0.1966259628534317, 0.5477486848831177, -0.019903045147657394, -0.5761783719062805, 0.07132258266210556, -0.3179686367511749, 0.17972926795482635, -0.13852238655090332, -0.06870099902153015, 0.045746929943561554, -0.2571997344493866, 0.11411502212285995, 0.07763967663049698, 0.5096388459205627, 0.2609022557735443, -0.22294476628303528, -0.37500324845314026, -0.37674081325531006, -0.21019314229488373, -0.44570034742355347, 0.026174718514084816, 0.04914342984557152, -0.7213522791862488, 0.07777450233697891, -0.19280962646007538, 0.06499245017766953, -0.673060953617096, 0.03777232766151428, 0.05276404321193695, 0.288110613822937, -0.19351473450660706, 0.18541507422924042, 0.1707756072282791, 0.30330711603164673, 0.31537801027297974, -0.04672339931130409, -0.05291164666414261, -0.514051616191864, 0.037466902285814285, 0.08484016358852386, -0.07013040781021118, 0.1813059151172638, 0.30817362666130066, -0.7207992076873779, -0.1329125016927719, -0.097938172519207, -0.34444814920425415, -0.1307697296142578, 0.14803221821784973, -0.07696378231048584, 0.05760078877210617, 0.01867150515317917, -0.17111407220363617, -0.18285056948661804, -0.191902294754982, 0.07005296647548676, -0.22016283869743347, 0.038151390850543976, -0.0047697629779577255, -0.12738081812858582, 0.040989648550748825, 0.028091588988900185, 0.03777925297617912, -0.0650448128581047, -0.060716185718774796, -0.06100963056087494, 0.03399478644132614, -0.005389559548348188, 0.02726488746702671, 0.023032164201140404, -0.054535411298274994, -0.2338138371706009, -0.1977185606956482, 0.0, 0.0, 0.0, 0.0, -0.37538808584213257, -0.08066342025995255, 0.1210249811410904, 0.5082321166992188, 0.32726484537124634, 0.2045661062002182, 0.1736399531364441, -0.12371964007616043, 0.36514994502067566, 0.1929135024547577, 0.7462844848632812], [0.21142278611660004, -0.10531988739967346, 0.22614726424217224, 0.44412869215011597, 0.02037729136645794, -0.2223242223262787, 0.029077235609292984, 0.4200166165828705, 0.2301311492919922, -0.10188384354114532, 0.2954511046409607, -0.08711942285299301, 0.14176900684833527, -0.12660230696201324, 0.39683935046195984, -0.30519866943359375, 0.49734899401664734, -0.43868985772132874, 0.3256339430809021, 0.17143841087818146, 0.2809392809867859, 0.30497539043426514, 1.7660179138183594, -0.16953611373901367, -0.01656842604279518, 0.22280839085578918, 0.14965392649173737, -0.21507486701011658, -0.04523806646466255, -0.317315936088562, 0.06555093079805374, 0.04749152064323425, 0.11838140338659286, 0.5043154358863831, -0.014011263847351074, 0.13173528015613556, 0.010901760309934616, -0.013556362129747868, 0.33648499846458435, -0.29040831327438354, 0.17566312849521637, 0.25237762928009033, 0.1712927669286728, -0.22508946061134338, -0.2418173998594284, -0.08074547350406647, -0.06521784514188766, 0.362636923789978, 0.08723342418670654, -0.4745085835456848, -0.23535321652889252, -0.17591577768325806, -0.1983451247215271, -0.05168751999735832, -0.04415988177061081, -0.024054160341620445, 0.31460365653038025, 0.04399007186293602, -0.05668916180729866, -0.6026556491851807, 0.2863648533821106, 0.253747820854187, 0.320878803730011, -0.19966642558574677, -0.05391070246696472, 0.06833931058645248, -0.3004007935523987, 0.8979393839836121, -0.03596300631761551, -0.0026001580990850925, 0.3531307578086853, -0.11720132827758789, 0.10712570697069168, -0.6886189579963684, 0.3096573054790497, 0.019330590963363647, 0.023003796115517616, 0.33549654483795166, -0.14676271378993988, 0.17165035009384155, 0.287900447845459, 0.07262246310710907, -0.03808943182229996, -0.07845553010702133, -0.13753117620944977, -0.036404773592948914, -0.15526141226291656, -0.11760751157999039, -0.21743176877498627, -0.03930061310529709, 0.0, 0.0, 0.0, 0.0, -0.05441544950008392, 0.21189844608306885, -0.49262407422065735, 0.09361197054386139, 0.6116916537284851, 0.35001498460769653, 0.2510432302951813, 0.2765015959739685, 0.09776385128498077, -0.19512324035167694, 0.10568004846572876], [-0.17865994572639465, -0.017563963308930397, -0.3634088337421417, -0.03184445574879646, 0.14392942190170288, -0.24566158652305603, -0.3036468029022217, -0.2818603515625, 0.45592573285102844, 0.49306219816207886, -0.03344368189573288, 0.021197360008955002, -0.2764435410499573, 0.0561356283724308, 0.4931858777999878, 0.14220882952213287, -0.46957141160964966, 0.05405668169260025, 0.3338169753551483, 0.19144903123378754, -0.11886505037546158, -0.12391748279333115, 0.4229487180709839, 0.20210304856300354, -0.023965472355484962, 0.2288416177034378, 0.12357936799526215, 0.12588703632354736, 0.07973019033670425, 0.17262797057628632, -0.119361512362957, -0.39659690856933594, 0.20799744129180908, -0.043430667370557785, 0.054237041622400284, 0.11232609301805496, 0.03478456661105156, 0.09189948439598083, -0.4046103060245514, -0.07847088575363159, -0.33307743072509766, 0.24185511469841003, 0.10252654552459717, 0.3400152325630188, 0.0046020932495594025, 0.037620920687913895, -0.14185239374637604, -0.1561753898859024, -0.427320659160614, -0.367785781621933, 0.0407075434923172, -0.034579042345285416, -0.342440128326416, 0.15774108469486237, -0.04510803148150444, 0.0929689034819603, 0.060769543051719666, -0.5916652083396912, -0.1794981062412262, -0.757243812084198, 0.024806726723909378, -0.28008854389190674, 0.49353358149528503, -0.172276571393013, -0.19035328924655914, 0.4337346851825714, -0.28800809383392334, 0.23439034819602966, -0.16313989460468292, -0.08623135089874268, 0.18607395887374878, -0.0319364033639431, -0.32168617844581604, -0.45114290714263916, -0.14226412773132324, -0.3875409960746765, -0.23867283761501312, -0.016458380967378616, 0.36535176634788513, -0.02536541409790516, -0.07519170641899109, 0.24804967641830444, 0.03435267508029938, 0.009164510294795036, 0.06003739684820175, -0.006401475518941879, 0.1040603443980217, 0.023305095732212067, -0.07423937320709229, 0.16656352579593658, 0.0, 0.0, 0.0, 0.0, -0.07551951706409454, 0.09048879146575928, 0.1705133467912674, 0.11485539376735687, 0.0636240765452385, -0.15230469405651093, 0.34145572781562805, -0.0959026962518692, -0.047758202999830246, -0.005835656076669693, -0.052083250135183334], [0.20979559421539307, -0.4801831543445587, 0.17769941687583923, 0.016287827864289284, -1.0515812635421753, 0.1376543790102005, 0.5971022248268127, 0.27899986505508423, 0.06260766834020615, 0.1357194483280182, 0.12042224407196045, -0.272655725479126, -0.1590474396944046, 0.18930992484092712, 0.3693282902240753, -0.13155336678028107, 0.3823127746582031, -0.21458208560943604, -0.6938785314559937, 0.10063906013965607, -0.14394107460975647, 0.16717809438705444, -0.1108994260430336, -0.15676020085811615, 0.03813212364912033, 0.23745092749595642, 0.11675716936588287, -0.18193139135837555, -0.13468417525291443, -0.10560089349746704, -0.08253107964992523, -0.18500350415706635, 0.032462719827890396, 0.40889158844947815, -0.08426178246736526, 0.22449766099452972, -0.1366875022649765, 0.24467410147190094, 0.2522452771663666, -0.04157894104719162, 0.091715008020401, -0.031357958912849426, -0.055266495794057846, -0.1980232298374176, 0.12320227175951004, -0.1462172269821167, -0.22290277481079102, -0.06683619320392609, -0.004582830239087343, 0.16486337780952454, 0.310059517621994, -0.06257833540439606, -0.05688484013080597, -0.025920169427990913, -0.06079978495836258, 0.057757288217544556, 0.1102379560470581, -0.20570582151412964, 0.5974641442298889, -0.12786614894866943, -0.08498645573854446, -0.0444912314414978, 0.14790871739387512, -0.2612236738204956, -0.12705416977405548, 0.09407578408718109, 0.1790773868560791, 0.3619978129863739, -0.2042524665594101, 0.15139825642108917, -0.5831971764564514, -0.2574101984500885, 0.1974848508834839, -0.14810995757579803, 0.1434796303510666, -0.22491833567619324, 0.1779685616493225, -0.9848976135253906, 0.12201245129108429, 0.11896464973688126, -0.03429513797163963, 0.11706690490245819, -0.14640302956104279, 0.1537293791770935, 0.08710766583681107, 0.01372742373496294, 0.007714695762842894, 0.03321656212210655, -0.016502199694514275, -0.021751508116722107, 0.0, 0.0, 0.0, 0.0, -0.096730537712574, -0.011736633256077766, 0.01004460733383894, 0.6186832189559937, -0.44799554347991943, -0.227025106549263, 0.08586279302835464, 0.21529580652713776, -0.182031512260437, -0.09477908909320831, -0.36559468507766724], [0.2890322208404541, -0.46069058775901794, -0.10131661593914032, 0.08970562368631363, 0.7174772024154663, -0.15778696537017822, 0.1621844321489334, -0.2340596318244934, 0.32597801089286804, -0.19297686219215393, -0.09668172150850296, 0.06030316650867462, 0.15257760882377625, 0.10521858185529709, -0.05086176097393036, 0.06150975450873375, -0.06462360918521881, 0.0036930746864527464, 0.37568387389183044, -0.2471676915884018, -0.06513961404561996, -0.34353119134902954, -1.0979641675949097, 0.3141520917415619, 0.10001308470964432, 0.06462754309177399, -0.06083009019494057, -0.41053977608680725, 0.10951455682516098, -0.0562131404876709, -0.23424451053142548, -0.013517990708351135, 0.11059314757585526, 0.0887017697095871, -0.18025396764278412, -0.07216481864452362, -0.19531944394111633, 0.07020390033721924, -0.35740065574645996, -0.2377985715866089, 0.4913518726825714, -0.33017992973327637, 0.16330797970294952, -0.11392354965209961, 0.019177263602614403, 0.16708256304264069, -0.04798870161175728, -0.09097109735012054, -0.2941742241382599, 0.06137542799115181, -0.21904587745666504, 0.11828143149614334, 0.23668751120567322, -0.259244441986084, 0.12713736295700073, 0.05440930277109146, 0.012893853709101677, 0.022866250947117805, 0.3753352463245392, 0.13567505776882172, -0.4048815369606018, 0.04359619691967964, 0.1270134150981903, -0.44130414724349976, -0.17537060379981995, 0.22944976389408112, -0.009580466896295547, 0.21004407107830048, -0.2561699450016022, 0.34590020775794983, -0.4012613296508789, 0.02038952335715294, 0.11324094980955124, 0.38992205262184143, -0.3737078309059143, 0.02328665740787983, -0.3233083486557007, -0.5285063982009888, 0.12043384462594986, -0.04649467021226883, -0.10085860639810562, 0.33061671257019043, 0.08363660424947739, 0.032165832817554474, 0.0886983573436737, 0.12855859100818634, 0.06098819151520729, 0.07033512741327286, -0.06061336398124695, -0.197623148560524, 0.0, 0.0, 0.0, 0.0, -0.31856396794319153, -0.04248823598027229, 0.01650969497859478, 0.6581528782844543, 0.30607664585113525, 0.39591896533966064, -0.39029020071029663, 0.0096509400755167, -0.10151688754558563, -0.07425796985626221, -0.14580273628234863], [-0.10177743434906006, 0.9516592621803284, 0.3585372269153595, -0.10936639457941055, 1.029290795326233, -0.05241050943732262, 0.3194805681705475, 0.003928815014660358, 0.07804162800312042, 0.13335612416267395, -0.15806834399700165, 0.10016968846321106, -0.29197460412979126, 0.027115589007735252, 0.38527795672416687, -0.009233281947672367, -0.6781480312347412, -0.024865230545401573, -0.3875121772289276, -0.2616163492202759, 0.2728497087955475, 0.2821896970272064, 0.6063650250434875, 0.21858862042427063, -0.001224297913722694, -0.149742990732193, -0.39018601179122925, -0.03640061989426613, 0.04526085406541824, -0.05495186895132065, 0.15333330631256104, 0.03236088901758194, 0.23533718287944794, -0.033210352063179016, -0.5216165781021118, -0.45406609773635864, -0.09362733364105225, 0.13925820589065552, -0.28320279717445374, -0.05660124123096466, -0.16709713637828827, 0.06165371835231781, -0.20315323770046234, -0.07120642066001892, 0.25923413038253784, -0.12927182018756866, 0.15116627514362335, 0.08445709198713303, 0.4200616776943207, 0.27811092138290405, 0.12889954447746277, 0.25557640194892883, 0.25595754384994507, 0.2154955267906189, 0.3757820725440979, 0.2563987076282501, -0.37956544756889343, 0.3201514184474945, -0.042043957859277725, 0.34827232360839844, 0.5833486318588257, 0.009442993439733982, 0.4287314713001251, -0.0043581691570580006, 0.03272392600774765, -0.012486252933740616, -0.13922695815563202, -0.19900336861610413, -0.16902492940425873, 0.2689425051212311, -0.24663618206977844, 0.12339162826538086, 0.10478371381759644, 0.20807884633541107, -0.4675999879837036, -0.34764334559440613, 0.18113355338573456, 0.6185808181762695, -0.10598605126142502, -0.10135293006896973, 0.014608941040933132, 0.030701814219355583, -0.048833172768354416, 0.008425227366387844, -0.02388659492135048, -0.06818578392267227, -0.09796224534511566, -0.03914543241262436, 0.13445185124874115, -0.23629166185855865, 0.0, 0.0, 0.0, 0.0, 0.5399639010429382, 0.1649165153503418, 0.12245284765958786, -0.6747480630874634, 0.6541206240653992, 0.039198219776153564, 0.052683401852846146, -0.01085446123033762, 0.17942237854003906, 0.10076723247766495, -0.24591881036758423], [0.5841784477233887, -0.385145902633667, -0.1225697249174118, -0.1902979016304016, 0.010689536109566689, 0.010972118936479092, -0.1309557557106018, 0.02660643309354782, -0.06316406279802322, -0.050833430141210556, 0.07154428958892822, 0.17017947137355804, -0.016349731013178825, 0.010183948092162609, -0.05644066631793976, -0.412191778421402, -0.7114578485488892, -0.24028584361076355, 0.37054410576820374, -0.43602827191352844, -0.1954510509967804, -0.3332821726799011, 0.4949280023574829, 0.018069420009851456, 0.30416595935821533, -0.17835591733455658, -0.1269584745168686, 0.09451188892126083, -0.05027312785387039, 0.1994442194700241, 0.054066259413957596, 0.3365215063095093, 0.3133714497089386, 0.13102921843528748, 0.09925174713134766, -0.016636967658996582, -0.24691760540008545, -0.3241610825061798, -0.23304104804992676, -0.22246894240379333, -0.027829907834529877, -0.016559284180402756, 0.4216797947883606, -0.02361145429313183, -0.10807527601718903, 0.019928814843297005, -0.30315080285072327, 0.149501770734787, 0.3843105435371399, 0.117897629737854, -0.03655790910124779, -0.027017667889595032, 0.04268639534711838, 0.4108917713165283, 0.11744213104248047, 0.187814399600029, -0.3562365770339966, 0.3897816240787506, -0.34714949131011963, 0.5130448937416077, 0.1702922135591507, 0.043112728744745255, -0.2164989560842514, 0.41877174377441406, 0.2633638083934784, 0.08449288457632065, 0.2824119031429291, 0.08690895885229111, -0.3362221419811249, 0.3469310998916626, -0.36566683650016785, 0.0722125917673111, 0.3186439871788025, 0.06297488510608673, 0.03920323774218559, -0.08048077672719955, 0.262786865234375, -0.2825715243816376, 0.2249525636434555, -0.18285547196865082, 0.039231378585100174, -0.01950267143547535, 0.08284389227628708, 0.14711254835128784, 0.08822017163038254, 0.0401131696999073, 0.02551761083304882, 0.021575482562184334, 0.04152478650212288, 0.2277422994375229, 0.0, 0.0, 0.0, 0.0, 0.020524490624666214, 0.158472940325737, -0.4607639014720917, 0.3369280993938446, -0.11998910456895828, -0.08135352283716202, -0.42648106813430786, -0.11052204668521881, -0.29493656754493713, 0.13700996339321136, -0.3372780978679657], [-0.10939022153615952, 0.009299061261117458, -0.11614978313446045, 0.04815048351883888, 0.04209087789058685, 0.03616219013929367, -0.2373695820569992, -0.11835473030805588, -0.3319685757160187, 0.4498673677444458, -0.41348370909690857, -0.06101347506046295, -0.3013216257095337, -0.2144162505865097, -0.2855808138847351, 0.15387754142284393, -0.04335585609078407, 0.01974598877131939, 0.11314074695110321, -0.11114644259214401, 0.11124439537525177, -0.07859375327825546, 0.3330362141132355, -0.049331437796354294, -0.12083947658538818, -0.049836017191410065, 0.042934566736221313, 0.24690614640712738, 0.14480844140052795, -0.14843201637268066, -0.22974231839179993, -0.05528490990400314, -0.6302558779716492, -0.3417920768260956, 0.0791715532541275, -0.4341217875480652, 0.1386376917362213, 0.080019012093544, -0.025949565693736076, 0.1766463816165924, 0.09632197767496109, -0.2983534038066864, -0.005732847843319178, -0.3268488049507141, -0.21190351247787476, 0.04880967363715172, -0.010087808594107628, -0.07180185616016388, 0.012502948753535748, 0.006382293533533812, 0.19909054040908813, 0.23493315279483795, 0.18297068774700165, 0.15836352109909058, -0.011472293175756931, -0.25396883487701416, -0.07876244932413101, -0.02658177725970745, 0.5665470957756042, 0.0186946839094162, 0.7634485363960266, 0.007070838939398527, 0.28958961367607117, -0.2946567237377167, 0.11070507019758224, 0.06793399155139923, 0.9477787613868713, -0.37393736839294434, -0.5114919543266296, -0.00318825407885015, -0.29571008682250977, 0.3461868464946747, -0.027046019211411476, 0.07123330235481262, -0.11009706556797028, -0.537489652633667, -0.3492394685745239, -0.26121455430984497, 0.2479911744594574, 0.0951714962720871, 0.17680104076862335, -0.043803621083498, -0.05480118468403816, 0.09045171737670898, -0.016486559063196182, -0.04443293809890747, 0.0998273715376854, -0.09054915606975555, -0.08675599843263626, 0.11434774845838547, 0.0, 0.0, 0.0, 0.0, -0.05324218422174454, 0.26751619577407837, 0.06467457860708237, 0.23174723982810974, 0.23186755180358887, -0.18781402707099915, 0.23845207691192627, 0.18693387508392334, 0.058127038180828094, 0.2082638442516327, -0.07080665975809097], [-0.10018246620893478, -0.38976120948791504, -0.160140261054039, -0.12624910473823547, -0.583639919757843, 0.0687691941857338, -0.21442918479442596, -0.021184977144002914, -0.14939318597316742, -0.2763107120990753, -0.2213127613067627, -0.1436079740524292, -0.0021929035428911448, 0.027443353086709976, -0.227991983294487, -0.2640773355960846, 0.2872403562068939, 0.029020726680755615, 0.32897695899009705, 0.4022856652736664, -0.2356867790222168, 0.15939944982528687, -0.44674307107925415, -0.1052185446023941, -0.26877114176750183, 0.15684108436107635, 0.1919877529144287, -0.341258704662323, 0.16248859465122223, 0.13854269683361053, -0.04458216577768326, -0.02684277854859829, -0.25269386172294617, -0.050479769706726074, -0.10716670006513596, -0.025444678962230682, -0.3729294240474701, -0.26385948061943054, -0.15205927193164825, 0.2435000091791153, 0.2833816111087799, 0.19490382075309753, -0.028738433495163918, -0.15471744537353516, -0.06625775247812271, -0.08855234831571579, -0.18536816537380219, -0.06880110502243042, -0.276986688375473, 0.07790559530258179, 0.18720830976963043, 0.08348246663808823, -0.13354510068893433, 0.13455882668495178, 0.015584073960781097, 0.16680081188678741, 0.0621868371963501, 0.0017921183025464416, -0.012916852720081806, 0.19158318638801575, -0.34491169452667236, -0.09528922289609909, 0.21327300369739532, -0.10361754149198532, 0.19302617013454437, 0.04490412026643753, -0.5738278031349182, -0.20605364441871643, -0.3034636974334717, -0.2282928079366684, 0.27759361267089844, -0.3441711366176605, -0.5092917680740356, -0.20437227189540863, -0.4242745637893677, -0.2800227105617523, -0.09009726345539093, -0.09326549619436264, -0.013671783730387688, 0.003328231628984213, -0.21327221393585205, -0.006359014194458723, 0.19876989722251892, 0.09245572239160538, -0.05581037700176239, 0.05624993517994881, 0.11444450914859772, -0.01433748658746481, 0.26744329929351807, 0.24824851751327515, 0.0, 0.0, 0.0, 0.0, -0.1720648854970932, 0.2379135936498642, -0.08950794488191605, 0.4400230944156647, 0.28739020228385925, -0.2841595709323883, 0.011106884106993675, 0.05852974206209183, 0.083503857254982, 0.07889242470264435, -0.05842169001698494], [0.3314402997493744, -0.8883572220802307, -0.18586333096027374, 0.04806428775191307, 0.12367403507232666, 0.12515218555927277, 0.018292078748345375, 0.23403796553611755, -0.0484473779797554, 0.20989824831485748, -0.5359993577003479, -0.2635451853275299, -0.21564942598342896, -0.29859256744384766, -0.1459731161594391, 0.23632048070430756, 0.4939322769641876, 0.06898379325866699, 0.04592454060912132, 0.14777138829231262, 0.02605367824435234, 0.060346972197294235, -1.4231616258621216, -0.26819783449172974, -0.02633124403655529, -0.0003545945219229907, -0.4009561836719513, -0.18785567581653595, 0.10452186316251755, -0.060122232884168625, -0.2137591540813446, 0.07744588702917099, 0.2828851044178009, -0.03250305354595184, 0.1485089212656021, -0.2974837124347687, 0.01781083457171917, -0.0944693312048912, -0.48660552501678467, -0.0243971049785614, -0.06416985392570496, 0.20369595289230347, -0.17237840592861176, -0.0012060869485139847, -0.13276390731334686, -0.1943577080965042, -0.42110463976860046, -0.15198811888694763, 0.34028375148773193, -0.35196492075920105, 0.15790480375289917, 0.16425123810768127, -0.06324495375156403, 0.19950415194034576, 0.12849394977092743, -0.09344098716974258, -0.32750025391578674, -0.11239251494407654, 0.11184794455766678, 0.6328244209289551, 0.32113441824913025, 0.5234907865524292, 0.05631711333990097, 0.44352927803993225, 0.13659657537937164, 0.05396702513098717, 0.8399413824081421, 0.5602883696556091, 0.686458170413971, -0.1625913679599762, 0.16706714034080505, 0.11097197234630585, 0.25407829880714417, 0.7452650666236877, 0.8082616925239563, 0.39964559674263, 0.023932471871376038, -0.3968903124332428, 0.030134154483675957, -0.019126255065202713, -0.08962861448526382, -0.07035621255636215, 0.16679276525974274, 0.11355726420879364, -0.005252930335700512, 0.0323333665728569, -0.02346385456621647, 0.1812019795179367, 0.260562539100647, -0.11289819329977036, 0.0, 0.0, 0.0, 0.0, -0.15903446078300476, -0.14674748480319977, -0.0911855548620224, 1.0632718801498413, 0.10679647326469421, 0.5645651817321777, -0.5349698662757874, -0.008815081790089607, -0.0653124675154686, 0.10091454535722733, 0.14840346574783325], [-0.23346289992332458, 0.08348991721868515, 0.19055227935314178, 0.06138508766889572, -1.4783563613891602, -0.18081046640872955, -0.4408007562160492, -0.20599187910556793, -0.35810062289237976, 0.1327895224094391, -0.31011343002319336, 0.026750989258289337, -0.010448030196130276, 0.1554941087961197, -0.045656442642211914, -0.21091732382774353, -0.17775046825408936, -0.40160658955574036, -0.05543899908661842, 0.07052303105592728, 0.08708321303129196, -0.20121997594833374, 1.5743285417556763, -0.026381228119134903, -0.21337220072746277, 0.25057539343833923, -0.1408310979604721, -0.05435953661799431, 0.01751088909804821, 0.10302909463644028, -0.002400033175945282, 0.03596790134906769, 0.14785505831241608, 0.053717631846666336, -0.18766595423221588, 0.1818547248840332, -0.04949311167001724, 0.28301459550857544, -0.11925622820854187, -0.3215390145778656, -0.13810192048549652, 0.06341797113418579, -0.03297240287065506, 0.021359998732805252, 0.24668973684310913, 0.16938666999340057, -0.25467678904533386, -0.4690246284008026, -0.4764443337917328, -0.039422743022441864, -0.00023303205671254545, 0.02180403470993042, 0.20410703122615814, -0.05030977353453636, 0.10250579565763474, 0.31605270504951477, 0.16865375638008118, 0.04676129296422005, -0.3179618716239929, -0.14690133929252625, -0.5457919836044312, -0.27873116731643677, -0.11146479845046997, 0.15512210130691528, 0.2473398745059967, -0.07003967463970184, -0.3466457724571228, 0.19024625420570374, 0.1238502711057663, 0.006173537578433752, 0.17626391351222992, 0.2882533669471741, -0.22976654767990112, -0.4283764660358429, -0.24972741305828094, -0.05701012909412384, -0.19436559081077576, -0.1435181349515915, -0.04350116848945618, 0.010742737911641598, -0.01108469720929861, 0.2065262645483017, -0.007951880805194378, 0.03076251409947872, -0.009181860834360123, -0.11662095785140991, 0.007526712957769632, 0.09965696185827255, 0.049836620688438416, -0.05637592822313309, 0.0, 0.0, 0.0, 0.0, -0.637994647026062, 0.0044390540570020676, -0.2546294629573822, 0.09701962769031525, 0.10722294449806213, -0.38678985834121704, 0.09483254700899124, 0.25642508268356323, 0.0505998469889164, 0.002112950896844268, 0.079823799431324], [0.08035902678966522, 0.3613277077674866, -0.35069021582603455, -0.11958993971347809, 0.2661210000514984, 0.19944147765636444, 0.20980755984783173, 0.07035165280103683, 0.17222869396209717, -0.0011140498099848628, -0.21715672314167023, -0.09462291747331619, 1.0876286029815674, -0.25388020277023315, -0.29195931553840637, -0.026690972968935966, -0.4183903932571411, 0.09573092311620712, -0.012636062689125538, 0.14063967764377594, -0.28439396619796753, 0.1452360451221466, -0.7617849111557007, 0.1861198991537094, -0.05257583409547806, 0.0607348270714283, 0.4584055244922638, -0.31813305616378784, -0.15240466594696045, -0.30085715651512146, -0.23824024200439453, -0.5399667024612427, -0.36234140396118164, 0.3654331564903259, -0.1813172847032547, 0.1754809021949768, 0.11157684028148651, -0.2923542857170105, -0.03479164093732834, -0.41634711623191833, -0.025655237957835197, -0.15180529654026031, -0.28728801012039185, 0.13503308594226837, 0.1504000872373581, -0.3591059446334839, -0.09224744141101837, 0.3399444818496704, 0.3904803991317749, 0.3097080588340759, -0.0068161385133862495, -0.21224522590637207, 0.10768314450979233, 0.04875257983803749, -0.20320171117782593, 0.23805668950080872, 0.15794362127780914, -0.2376704216003418, -0.26659560203552246, 0.44643139839172363, -0.12246815115213394, -0.04161403328180313, -0.041201401501894, -0.0668446272611618, 0.34935644268989563, -0.2053336650133133, -0.05093839019536972, -0.6246040463447571, 0.2216338813304901, -0.23065677285194397, 0.21512261033058167, 0.42345795035362244, 0.1764984130859375, 0.045333102345466614, -0.9241516590118408, -0.11148247867822647, 0.2398558408021927, 0.510654628276825, -0.2006407529115677, 0.01600772514939308, 0.08673401921987534, -0.4592266380786896, -0.1792004108428955, -0.2581399977207184, -0.17609064280986786, -0.3229730427265167, -0.2036793828010559, -0.2714938521385193, -0.07286142557859421, -0.22940205037593842, 0.0, 0.0, 0.0, 0.0, -0.06984920799732208, 0.05530915781855583, 0.08337265253067017, -0.538460910320282, 0.6772876977920532, -0.011084340512752533, 0.2452150583267212, 0.09807567298412323, 0.08954653888940811, -0.2397187501192093, 0.3895668685436249], [0.18107713758945465, 0.16966591775417328, -0.2032325267791748, -0.1680917739868164, 0.14761558175086975, -0.22218255698680878, -0.17520016431808472, -0.557102620601654, -0.5970930457115173, -0.49702832102775574, -0.11390918493270874, -0.13837075233459473, 0.11513159424066544, -0.12027426064014435, -0.29945310950279236, -0.3364500105381012, -0.474409282207489, -0.3930404484272003, -0.01664634235203266, -0.16478735208511353, -0.016268670558929443, 0.17095434665679932, 0.2525967061519623, -0.012478728778660297, 0.04556085169315338, 0.2942540943622589, -0.1400507241487503, -0.10615966469049454, 0.2235962152481079, 0.22439588606357574, 0.2802448868751526, 0.379200279712677, -0.07593657821416855, 0.3399055004119873, -0.3805113732814789, 0.2526721656322479, -0.06081558018922806, 0.020469343289732933, 0.09029984474182129, -0.09107237309217453, -0.1946878880262375, -0.3848768472671509, -0.36533722281455994, -0.2102477252483368, -0.24873334169387817, -0.1134965643286705, 0.11550702154636383, 0.05631202831864357, 0.051412053406238556, 0.012708935886621475, -0.03220922872424126, 0.00791203323751688, 0.47246062755584717, -0.1212686076760292, 0.3547198176383972, 0.22731073200702667, -0.0015431338688358665, -0.04472550377249718, -0.3327609598636627, -0.3736550509929657, 1.2186803817749023, 0.02727692201733589, -0.29924359917640686, -0.13765104115009308, 0.09803524613380432, -0.19236233830451965, 0.09819447249174118, -0.1161564439535141, 0.04407762736082077, -0.06782837957143784, -0.006933622062206268, -0.2697327435016632, -0.007432161830365658, -0.22865834832191467, -0.2939770519733429, 0.07514499127864838, 0.3126761019229889, -0.18483631312847137, 0.44631367921829224, 0.06790926307439804, -0.11237912625074387, -0.12407475709915161, 0.1474207192659378, 0.15335597097873688, 0.12029437720775604, 0.26371288299560547, 0.25463053584098816, 0.20738425850868225, -0.06340578198432922, 0.14033359289169312, 0.0, 0.0, 0.0, 0.0, 0.15525415539741516, -0.06257706880569458, -0.0777716189622879, -0.3919084072113037, 0.5989441275596619, 0.3197149634361267, 0.3301008343696594, 0.2971757650375366, 0.28671014308929443, -0.19106616079807281, -0.4956100583076477], [-0.22982127964496613, 0.05950932204723358, 0.39956218004226685, 0.014254674315452576, 1.1530218124389648, -0.0802939161658287, -0.24689725041389465, -0.2093730866909027, -0.34091678261756897, -0.22591550648212433, -0.07459872215986252, -0.16482645273208618, 0.4987277090549469, 0.01744873821735382, -0.11866943538188934, -0.2077566236257553, 0.2262134850025177, -0.017996806651353836, -0.18667159974575043, -0.17658570408821106, 0.16427376866340637, 0.6003000140190125, 0.4681183993816376, -0.12663905322551727, -0.03789626061916351, -0.08868110179901123, -0.02231268398463726, 0.2779238522052765, 0.2997623383998871, -0.010334794409573078, 0.33200064301490784, -0.24523286521434784, -0.1268439143896103, -0.3830971419811249, -0.17101101577281952, -0.10387609899044037, 0.0430002324283123, 0.03342980518937111, 0.24564503133296967, 0.09083414822816849, -0.001570735708810389, -0.17091496288776398, 0.47033095359802246, 0.23131588101387024, 0.10838388651609421, 0.29393500089645386, -0.030602380633354187, 0.0865502804517746, -0.13395529985427856, 0.045074645429849625, 0.2625207006931305, 0.16680632531642914, -0.48197972774505615, -0.13434258103370667, -0.038089171051979065, -0.1686268001794815, -0.2295166552066803, 0.009363893419504166, 0.2459316849708557, -0.31791961193084717, 1.0116350650787354, 0.3420451283454895, -0.22533968091011047, 0.2918793261051178, 0.22056974470615387, 0.2833867371082306, -0.11579844355583191, -0.26569440960884094, 0.049496881663799286, -0.4433779716491699, 0.31744256615638733, 0.19593100249767303, 0.3498222231864929, -0.8301638960838318, -0.031734682619571686, -0.5414171814918518, 0.37092480063438416, 0.28536760807037354, -0.010270519182085991, 0.35218584537506104, 0.3213348090648651, 0.1267087310552597, -0.06858888268470764, -0.043757375329732895, -0.04428231343626976, -0.13683092594146729, -0.13667045533657074, 0.09412313252687454, 0.10804009437561035, 0.289277046918869, 0.0, 0.0, 0.0, 0.0, -0.42930638790130615, 0.010614895261824131, 0.20894356071949005, -0.21314044296741486, -0.4913841485977173, -0.2037753164768219, 0.20932359993457794, 0.0540485605597496, -0.15412361919879913, 0.05243762582540512, 0.558796226978302], [-0.020254727452993393, -0.044277921319007874, 0.1950865387916565, 0.07614930719137192, 3.5465168952941895, 0.042659349739551544, 0.0963771790266037, -0.2084469348192215, 0.003844295861199498, 0.02138974331319332, 0.31185245513916016, -0.16431568562984467, -0.1794079840183258, 0.24112074077129364, 0.07368385791778564, 0.4358081519603729, 0.16415585577487946, 0.2505362331867218, -0.4803048074245453, -0.4704430103302002, 0.16495195031166077, -0.07064155489206314, 0.4185463786125183, -0.15632228553295135, 0.1092894896864891, 0.13972219824790955, 0.11456198245286942, -0.14769265055656433, -0.11406965553760529, -0.2413964718580246, 0.04294188693165779, -0.1949063539505005, 0.07428082078695297, -0.0585823729634285, 0.22056728601455688, 0.024864526465535164, 0.09038414806127548, -0.37560713291168213, 0.06984931230545044, -0.36662232875823975, -0.3059314489364624, -0.17854446172714233, 0.22902430593967438, 0.10285740345716476, 0.10669947415590286, 0.02577119506895542, -0.03602395951747894, 0.12717442214488983, -0.04773235693573952, 0.10589174926280975, -0.23202215135097504, 0.08303278684616089, 0.11474595218896866, -0.018493155017495155, -0.4213579297065735, 0.06834125518798828, 0.2891403138637543, -0.10724172741174698, -0.10792411118745804, -0.2489798218011856, -0.15413808822631836, -0.020356982946395874, -0.2513329088687897, 0.01734994724392891, -0.009194809012115002, 0.06854633241891861, 0.13988377153873444, 0.1788378208875656, -0.04482979699969292, -0.13838966190814972, 0.4267987608909607, -0.2136722356081009, -0.1363377571105957, 0.2944383919239044, 0.1149272620677948, -0.022421903908252716, -0.08468154817819595, 0.297288715839386, 0.04958971217274666, 0.13744309544563293, -0.007156610954552889, 0.1238706186413765, 0.05983411520719528, 0.09255226701498032, 0.12237536162137985, 0.11625143140554428, -0.015380272641777992, 0.05945423245429993, 0.2767525911331177, -0.17057432234287262, 0.0, 0.0, 0.0, 0.0, -0.018958527594804764, 0.4420101046562195, -0.023877205327153206, 0.042750827968120575, -0.014270972460508347, 0.09521108865737915, -0.026762528344988823, 0.1462373286485672, -0.011348076164722443, 0.1207428127527237, 0.06701653450727463], [0.4782668948173523, 0.5622537732124329, -0.5627791881561279, -0.494438111782074, 0.14011123776435852, 0.2032969743013382, -0.26706889271736145, 0.0488889254629612, -0.33871862292289734, 0.16845528781414032, -0.12333855777978897, 0.015995070338249207, -0.2636365294456482, -0.016558928415179253, -0.23390516638755798, 0.17961594462394714, -1.2398871183395386, 0.19356198608875275, -0.22391951084136963, -0.5365530848503113, -0.08780298382043839, -0.21188631653785706, 0.2592645585536957, -0.32349130511283875, -0.00149639043956995, 0.048017874360084534, 0.13189949095249176, -0.2124558538198471, -0.3055743873119354, 0.13397786021232605, -0.08716433495283127, 0.07557259500026703, -0.23533999919891357, 0.2235516756772995, -0.11372046917676926, -0.03526896983385086, -0.058201055973768234, -0.19101667404174805, -0.28930845856666565, -0.19071602821350098, -0.23036891222000122, -0.4153006374835968, 0.1819041669368744, 0.3264179527759552, 0.18129636347293854, 0.3915390372276306, 0.5946642160415649, 0.04008597135543823, -0.06197230517864227, -0.12566766142845154, 0.11204935610294342, 0.12454978376626968, -0.15762904286384583, 0.4162868857383728, 0.0027457165997475386, 0.4609796106815338, -0.15486451983451843, -0.013745087198913097, -0.17629115283489227, -0.3970849812030792, 0.1425228714942932, -0.24976536631584167, 0.06233306974172592, 0.03312699496746063, -0.19891120493412018, 0.06750008463859558, -0.6874499917030334, -0.2247169315814972, 0.12032997608184814, 0.11539097875356674, -0.3363703191280365, 0.2328590601682663, -0.15109683573246002, -0.022674163803458214, -0.31097957491874695, -0.21292266249656677, -0.12332070618867874, -0.01636428013443947, 0.06676827371120453, -0.042863279581069946, -0.028046036139130592, 0.23453672230243683, 0.02234558016061783, 0.17925021052360535, 0.17000015079975128, 0.23993411660194397, 0.08714161068201065, 0.12885001301765442, 0.013212088495492935, -0.2192651331424713, 0.0, 0.0, 0.0, 0.0, 0.6660140156745911, -0.19159650802612305, -0.4953325390815735, -0.47829681634902954, 0.031464919447898865, -1.092328667640686, 0.36749425530433655, -0.13274025917053223, -0.364973247051239, -0.14846855401992798, -0.3502986431121826], [0.08585482090711594, 0.1328074038028717, 0.012427938170731068, -0.24146829545497894, -0.5132524967193604, 0.36122265458106995, -0.07963185012340546, 0.034772392362356186, -0.6091839671134949, -0.49923694133758545, -0.9601078033447266, 0.12321317195892334, 0.5964686274528503, -0.7240670919418335, -0.3583424687385559, 0.16351696848869324, 0.5905875563621521, -0.061899200081825256, 0.08385998010635376, 0.3154659569263458, -0.14502130448818207, 0.39126235246658325, -0.3480120599269867, -0.10824389010667801, 0.08528223633766174, -0.003896222682669759, -0.5072685480117798, -0.0011178373824805021, -0.029673658311367035, 0.42179352045059204, 0.03607681766152382, 0.11316324025392532, 0.4119679033756256, 0.2916770577430725, 0.35639506578445435, -0.6246277689933777, -0.37676823139190674, -0.08806494623422623, -0.5162907242774963, -0.1643400490283966, 0.11738866567611694, -0.12327197939157486, 0.35406503081321716, 0.052813805639743805, -0.1173679530620575, 0.04721713811159134, -0.24346087872982025, 0.45515379309654236, 0.02055249735713005, 0.15706606209278107, -0.45726051926612854, -0.4042194187641144, -0.11257222294807434, -0.20437264442443848, -0.12653367221355438, -0.1523059606552124, -0.2095750868320465, -0.025881491601467133, 0.3343559801578522, -0.5454115271568298, 0.1192302480340004, 0.029716074466705322, -0.2608098089694977, 0.606455385684967, 0.17841103672981262, -0.17310863733291626, 0.0032882713712751865, 0.11000312864780426, -0.22836042940616608, -0.2436223328113556, 0.3481026887893677, 0.3365171253681183, -0.46285873651504517, -0.054687559604644775, -0.2242845743894577, 0.1551232486963272, -0.16794542968273163, 0.43935349583625793, 0.02934250608086586, 0.032469701021909714, 0.03488356992602348, 0.19058416783809662, -0.01343600358814001, 0.012701145373284817, -0.1984015554189682, -0.09643684327602386, 0.08324991166591644, -0.0264268945902586, -0.16775813698768616, 0.12887148559093475, 0.0, 0.0, 0.0, 0.0, -0.05912671610713005, -0.06923569738864899, -0.041977740824222565, 0.09059470146894455, -0.1547767072916031, 0.13807953894138336, -0.4798157215118408, -0.010027656331658363, -0.18521299958229065, -0.2457624077796936, -0.05214810371398926], [0.28709977865219116, 0.19606365263462067, -0.4714513123035431, -0.39442408084869385, 0.5525776743888855, -0.3003816306591034, 0.47707629203796387, 0.5121561884880066, 0.5090171098709106, 0.23849408328533173, -0.017149392515420914, -0.10452616214752197, 0.0029039429500699043, -0.09639427065849304, 0.30131933093070984, -0.2821703851222992, -0.6849052309989929, 0.20195059478282928, 0.11224130541086197, -0.07607519626617432, -0.5350157618522644, -0.4238723814487457, 0.23990578949451447, 0.05244521051645279, -0.1244535744190216, -0.08848091214895248, -0.11424939334392548, 0.20918849110603333, 0.29678624868392944, 0.033110614866018295, 0.26396113634109497, 0.23882146179676056, -0.057240549474954605, 0.2736999988555908, -0.16911479830741882, -0.3065825402736664, -0.13980700075626373, -0.05552686005830765, 0.04867185279726982, -0.3452223241329193, -0.10826978832483292, -0.20536714792251587, 0.022171230986714363, -0.39960381388664246, -0.17675818502902985, 0.07683268934488297, 0.3353530168533325, -0.11604958027601242, 0.35669445991516113, 0.2315395027399063, 0.20910000801086426, 0.10911431163549423, 0.31070148944854736, -0.1522519737482071, -0.12299863249063492, -0.02126637101173401, 0.17048057913780212, -0.26468008756637573, 0.10247818380594254, -0.2978006899356842, 0.10244785994291306, -0.17262475192546844, 0.023338453844189644, -0.2775934636592865, -0.2221890389919281, 0.321506142616272, -0.7610851526260376, 1.6530576944351196, -0.08192973583936691, 0.05445142462849617, 0.12257429212331772, 0.10212960839271545, 0.2595354914665222, -0.5033949613571167, -0.34061458706855774, -0.11114618182182312, 0.3805025815963745, -0.045715417712926865, -0.1059458777308464, -0.19073842465877533, -0.21075567603111267, -0.008120893500745296, 0.1768285632133484, 0.05931791290640831, -0.07239154726266861, 0.1982003003358841, 0.08230254054069519, 0.14840972423553467, -0.13572771847248077, 0.2195710688829422, 0.0, 0.0, 0.0, 0.0, -0.6256463527679443, 0.13310566544532776, -0.3186488151550293, -0.1784743219614029, -0.020274845883250237, 0.10688028484582901, 0.5016311407089233, 0.009379194118082523, -0.1186109259724617, -0.12377342581748962, -0.09818309545516968], [-0.6775737404823303, -0.7730611562728882, -0.026820087805390358, 0.3487814962863922, 0.04660416767001152, -0.0018207896500825882, 0.41707393527030945, 0.15727253258228302, 0.2822064459323883, 0.022683996707201004, 0.11396508663892746, -0.06623217463493347, 0.09863977879285812, 0.05166490375995636, -0.06879189610481262, -0.03451559320092201, 0.5782123804092407, 0.3458389937877655, 0.3496391475200653, -0.16999104619026184, -0.19082078337669373, -0.13204358518123627, -0.8197773694992065, 0.09786485135555267, 0.1313600242137909, -0.19711562991142273, -0.12082544714212418, -0.12589243054389954, 0.370689332485199, 0.4020385444164276, -0.3095919191837311, 0.05189413204789162, -0.10299530625343323, 0.013481813482940197, -0.2584418058395386, -0.10074812918901443, -0.09189239889383316, -0.35451728105545044, -0.09674796462059021, -0.08437096327543259, -0.17754989862442017, 0.22410443425178528, -0.3033715486526489, 0.19351918995380402, -0.3784574568271637, 0.2548831105232239, 0.17499181628227234, 0.052735935896635056, -0.10137654095888138, 0.09931950271129608, 0.062105946242809296, -0.22351789474487305, 0.127668097615242, -0.020483486354351044, 0.05252661183476448, -0.38170596957206726, -0.18878404796123505, -0.019994031637907028, 0.10908009111881256, 0.18001382052898407, 0.7628980875015259, -0.21430683135986328, -0.18033935129642487, -0.4480506181716919, -0.03362198546528816, 0.003635839093476534, -0.3881215751171112, 0.3609481751918793, -0.5626632571220398, -0.14663049578666687, 0.12542316317558289, -0.5526688694953918, 0.22666925191879272, -0.05786347761750221, 0.7079953551292419, -0.10237850993871689, 0.12409190088510513, 0.08139505237340927, -0.11974043399095535, -0.024155858904123306, 0.05754871666431427, -0.00012478641292545944, 0.008353494107723236, 0.08010998368263245, 0.009992290288209915, -0.03608851879835129, -0.06752470135688782, -0.0012026306940242648, -0.1080079972743988, -0.35557398200035095, 0.0, 0.0, 0.0, 0.0, -1.0027693510055542, 0.19792230427265167, 0.294418603181839, 0.6557455062866211, 0.6158155202865601, 0.38263410329818726, -0.3308286666870117, 0.30136948823928833, 0.04950036481022835, 0.11941640824079514, 0.06631774455308914], [0.014673766680061817, -0.45573681592941284, -0.25901496410369873, -0.0958966463804245, 0.7351034879684448, 0.059486862272024155, 0.04377568140625954, 0.31376656889915466, -0.09129250049591064, 0.1099439486861229, -0.13113577663898468, -0.09367618709802628, 0.42666587233543396, 0.26094523072242737, 0.6285588145256042, 0.07870537042617798, -0.09368035942316055, -0.26157617568969727, 0.39714154601097107, 0.08584273606538773, 0.32758617401123047, 0.07117679715156555, -1.2841790914535522, 0.008799009956419468, -0.1406126320362091, 0.11161412298679352, -0.17218220233917236, -0.09656887501478195, -0.08693324774503708, -0.10231084376573563, -0.04302933067083359, -0.16760410368442535, 0.01563337817788124, -0.0622430220246315, -0.19459177553653717, -0.4107053279876709, -0.1113463044166565, -0.3453565835952759, -0.33487099409103394, 0.15342549979686737, 0.3728705644607544, 0.23177267611026764, -0.03244955092668533, -0.3530459702014923, 0.1475292593240738, 0.13696379959583282, -0.038979772478342056, -0.025729332119226456, -0.07514474540948868, -0.15170921385288239, -0.124707892537117, -0.29657846689224243, -0.1644129455089569, 0.007275867275893688, 0.21378640830516815, 0.12971258163452148, 0.03793802112340927, -0.270609587430954, 0.09026345610618591, 0.3768196702003479, -0.4072115123271942, 0.06107093021273613, -0.35798874497413635, -0.21074752509593964, 0.34159454703330994, 0.0851409062743187, 0.40264153480529785, -0.0844273641705513, 0.3793546259403229, -0.2075997143983841, -0.7134931087493896, 0.2626907527446747, 0.3829265534877777, 0.7676859498023987, 0.4707391560077667, 0.6294347643852234, 0.4545912742614746, -0.4709136188030243, -0.16980613768100739, -0.01381197664886713, -0.06517604738473892, 0.3609037697315216, 0.22598204016685486, 0.19170664250850677, 0.16298554837703705, 0.11085548996925354, 0.22708816826343536, 0.15082496404647827, 0.0030085367616266012, -0.08397828787565231, 0.0, 0.0, 0.0, 0.0, -0.462998628616333, -0.0715414360165596, -0.11358813941478729, 0.3094449043273926, -0.3259047567844391, 0.09099041670560837, -0.16259972751140594, -0.14057283103466034, 0.1809966117143631, 0.27384883165359497, -0.00747759360820055], [-0.15583054721355438, -0.10973644256591797, -0.21572411060333252, -0.2114301174879074, -0.3162985146045685, 0.3253074288368225, 0.14447695016860962, 0.17105858027935028, 0.2460402250289917, 0.1843094527721405, -0.018569685518741608, -0.0006543708150275052, 0.5155028104782104, -0.34528064727783203, 0.3419129252433777, -0.10619980841875076, 0.18735137581825256, -0.2547193467617035, 0.7524133324623108, -0.1058911681175232, -0.13853555917739868, -0.19108445942401886, -1.5280439853668213, -0.3636345863342285, 0.0742858424782753, -0.24573995172977448, 0.029075566679239273, -0.3530663549900055, -0.12886455655097961, -0.17697781324386597, -0.06182416155934334, -0.5441344976425171, -0.03817122057080269, -0.03664489835500717, -0.32573166489601135, 0.460842490196228, 0.025559619069099426, 0.33374008536338806, -0.022054173052310944, 0.06602185219526291, 0.16619350016117096, 0.08148776739835739, 0.1979471743106842, 0.24400708079338074, 0.004915159195661545, 0.16503092646598816, 0.04230203479528427, 0.0906655341386795, 0.18240787088871002, 0.15793627500534058, -0.06813398003578186, -0.14120571315288544, 0.1853167712688446, 0.0107670733705163, -0.1848059594631195, -0.1916620433330536, -0.34146416187286377, -0.21638458967208862, 0.171030193567276, 0.12131966650485992, -0.56522536277771, 0.5222622752189636, 0.12293381989002228, -0.47857633233070374, 0.15891382098197937, -0.004456892143934965, 0.011245724745094776, -0.45032185316085815, 0.2810874879360199, -0.04285070672631264, -0.9608480930328369, 0.052130408585071564, -0.23962025344371796, 0.5120731592178345, -0.4183001220226288, -0.018444698303937912, 0.04726892709732056, -0.260127991437912, 0.042613685131073, 0.2326762080192566, -0.02033606916666031, 0.06671871244907379, -0.014357300475239754, 0.021794233471155167, 0.05977921932935715, -0.012501910328865051, -0.0046311430633068085, -0.14340171217918396, 0.03534971550107002, 0.08533543348312378, 0.0, 0.0, 0.0, 0.0, -0.09415533393621445, -0.10532119870185852, -0.3223941922187805, 0.05076940730214119, 0.11679331958293915, -0.11838043481111526, -0.4201127886772156, 0.09626909345388412, 0.08819238841533661, 0.23598331212997437, -0.08792936056852341], [-0.17382317781448364, -0.43590617179870605, -0.24088962376117706, 0.16400860249996185, -0.2778542637825012, 0.19444704055786133, -0.3179542124271393, -0.6531201601028442, -0.02280043251812458, -0.017797259613871574, -0.20689056813716888, 0.05616067349910736, -0.4549887776374817, -0.3116808533668518, -0.16610535979270935, 0.8601537942886353, 0.7787933349609375, 0.7885816097259521, 0.016703825443983078, 0.16794896125793457, 0.5645953416824341, -0.10480090975761414, -0.22898481786251068, 0.015003103762865067, -0.3816974461078644, 0.31023091077804565, 0.10800579935312271, -0.14571478962898254, 0.2600967586040497, -0.12469492852687836, -0.07868289202451706, 0.06835277378559113, 0.06688445061445236, 0.1633487343788147, 0.10133316367864609, 0.09877071529626846, -0.4332224428653717, -0.8071747422218323, -0.4877505302429199, -0.6588437557220459, 0.11998763680458069, 0.17076613008975983, -0.15295115113258362, 0.43360164761543274, -0.0439130924642086, -0.01751691661775112, -0.14300553500652313, -0.031788039952516556, -0.05630180612206459, 0.6363939046859741, -0.12440216541290283, -0.12695182859897614, -0.07131965458393097, -0.39319220185279846, 0.0268496535718441, -0.024479849264025688, -0.10034754127264023, -0.2836644947528839, -0.6024501323699951, -0.4367581903934479, 0.09095475822687149, -0.21924205124378204, 0.4169623553752899, -0.311570942401886, 0.07495729625225067, -0.24619035422801971, -0.4105280041694641, 0.4543425142765045, -0.2979705035686493, -0.025812454521656036, 0.06827781349420547, 0.11437997967004776, 0.0888339951634407, -0.3378964364528656, 0.3821238875389099, 0.4792298972606659, 0.032157186418771744, -0.20462042093276978, 0.02668304368853569, 0.11384794861078262, 0.037127770483493805, -0.0035139655228704214, -0.09841084480285645, -0.0445568822324276, -0.0891345888376236, 0.07795275747776031, -0.037846777588129044, -0.009697351604700089, -0.12017573416233063, -0.1946895718574524, 0.0, 0.0, 0.0, 0.0, 0.07104064524173737, 0.02147507853806019, 0.32304900884628296, 0.3317278027534485, -0.10455138236284256, -0.2338402420282364, -0.5141192674636841, 0.010219412855803967, 0.02187902107834816, -0.0765620693564415, 0.0899977907538414], [-0.3059554994106293, 0.6273292899131775, -0.4002014994621277, -0.06302735954523087, 0.333493173122406, -0.12692058086395264, 0.05413786694407463, -0.4831327795982361, 0.2498406022787094, 0.22733740508556366, -0.252944678068161, -0.2285105586051941, -0.20168648660182953, -0.1631704717874527, -0.24912631511688232, -0.12676817178726196, -0.525495171546936, 0.03471782058477402, -0.4495960772037506, -0.1326647251844406, -0.033222269266843796, 0.2941381633281708, -0.4057852327823639, -0.07005410641431808, -0.13615351915359497, 0.09061858803033829, -0.045516882091760635, -0.01761486940085888, 0.07383651286363602, 0.06897607445716858, 0.1967058926820755, 0.5028043389320374, 0.01697450689971447, -0.058782730251550674, 0.1064465269446373, -0.018993817269802094, 0.08228850364685059, 0.17153042554855347, -0.1783844530582428, -0.20304666459560394, -0.0275036059319973, -0.037739723920822144, -0.0036666986998170614, -0.350717693567276, 0.10275430232286453, 0.04220525175333023, 0.3966422975063324, 0.08981689065694809, 0.32183143496513367, 0.2953568994998932, 0.44104763865470886, -0.007699472364038229, 0.031023168936371803, -0.18332085013389587, -0.00797484815120697, -0.41777855157852173, -0.14907577633857727, 0.33026015758514404, -0.3202551007270813, 0.5373792052268982, -0.06328808516263962, 0.15005989372730255, 0.351240873336792, 0.3002878427505493, 0.1716594696044922, 0.13474537432193756, 0.5913693904876709, -0.23407049477100372, -0.14261476695537567, 0.0233526099473238, -0.3195796310901642, 0.05407864227890968, 0.3476243317127228, 0.18687626719474792, -0.39251160621643066, 0.14073984324932098, -0.07565145194530487, -0.5056901574134827, -0.055525507777929306, -0.1424756646156311, -0.026131359860301018, -0.34119707345962524, -0.15773680806159973, -0.08745889365673065, -0.04088708013296127, -0.24300289154052734, -0.11219551414251328, -0.09256850183010101, 0.09682365506887436, 0.13567960262298584, 0.0, 0.0, 0.0, 0.0, 0.5016398429870605, 0.04129692539572716, 0.26482003927230835, -0.3601912558078766, -0.09728436172008514, 0.1167229488492012, -0.002399799879640341, -0.1629743129014969, -0.012614000588655472, -0.18154101073741913, -0.6091338992118835], [-0.3857221007347107, -0.1054244339466095, -0.0585508719086647, 0.1783096343278885, 0.15111592411994934, 0.1762281060218811, 0.05089765787124634, 0.3418337106704712, 0.2507536709308624, 0.01858130283653736, 0.22339436411857605, 0.009123655036091805, 0.09943295270204544, 0.7708128690719604, 0.12592273950576782, 0.584857702255249, -0.4434862434864044, 0.5813870429992676, -0.013664517551660538, 0.13928835093975067, -0.15824474394321442, -0.2857615649700165, -1.2799149751663208, -0.23459219932556152, -0.17357046902179718, -0.4178738594055176, 0.5279998183250427, 0.07627581059932709, -0.12367544323205948, 0.2230202555656433, -0.08826331049203873, -0.06483139097690582, -0.1258748322725296, 0.07570347934961319, 0.3473200500011444, -0.4728366434574127, -0.03371275216341019, -0.18827517330646515, -0.19073380529880524, -0.5320400595664978, 0.1558479219675064, -0.024918679147958755, -0.21834027767181396, 0.6279004812240601, 0.08134233951568604, -0.08986430615186691, 0.1154504269361496, -0.14762234687805176, -0.2977493107318878, 0.09081601351499557, -0.022957444190979004, 0.30807042121887207, -0.047477614134550095, 0.32104846835136414, -0.11539679020643234, 0.16555757820606232, 0.26005885004997253, 0.12755639851093292, -0.16352501511573792, 0.44769051671028137, -0.772003710269928, 0.0315711610019207, 0.1072348952293396, -0.23965588212013245, 0.003412862541154027, 0.33053937554359436, 0.6429634094238281, -0.2044602781534195, 0.11330275982618332, 0.034675080329179764, -0.35428452491760254, -0.44713667035102844, 0.24437282979488373, 0.16027355194091797, -0.17373669147491455, 0.13572944700717926, -0.090472511947155, -0.16911517083644867, -0.2701452672481537, -0.04935639724135399, -0.037164654582738876, -0.3420138359069824, -0.04519573599100113, -0.04720240831375122, -0.0835660770535469, -0.06745893508195877, -0.12787754833698273, -0.12493208050727844, -0.014555730856955051, 0.04871579259634018, 0.0, 0.0, 0.0, 0.0, 0.05609265714883804, -0.4240724742412567, 0.4843904674053192, 0.23459576070308685, -0.49246832728385925, -0.6415548324584961, 0.2760690748691559, 0.014219519682228565, -0.31859028339385986, -0.1497674584388733, -0.2299489825963974], [-0.18110229074954987, 0.10748328268527985, 0.18280279636383057, -0.08969537168741226, 0.1400686800479889, -0.09603411704301834, 0.023932548239827156, -0.4643245339393616, -0.5481473803520203, -0.45191314816474915, 0.12021404504776001, 0.1927695870399475, 0.060739804059267044, -0.22306713461875916, -0.2659340500831604, -0.22039854526519775, 0.765047550201416, -0.19414176046848297, -0.07380591332912445, 0.07533340156078339, 0.21297815442085266, 0.4525231122970581, 0.4335632026195526, 0.014346446841955185, -0.07298208773136139, 0.007391422521322966, 0.03134201467037201, -0.1298801451921463, 0.026087386533617973, -0.2622889280319214, 0.15264678001403809, -0.11589795351028442, -0.10169915854930878, -0.36186039447784424, -0.40300804376602173, -0.010965622030198574, 0.27373796701431274, -0.13974197208881378, 0.2277170866727829, 0.003921463154256344, 0.1955612450838089, 0.3846234977245331, -0.05128826946020126, -0.11873690783977509, -0.14581599831581116, -0.15681153535842896, -0.030593516305088997, 0.2136806845664978, 0.09016899764537811, 0.11041378229856491, 0.05069630220532417, 0.33360493183135986, 0.3905068635940552, 0.15150414407253265, 0.23909060657024384, -0.45621445775032043, 0.24287556111812592, 0.19385215640068054, -0.20888638496398926, -0.8686671853065491, 0.8877949118614197, 0.12873075902462006, 0.1150209978222847, 0.2289213389158249, -0.09374269843101501, 0.22014401853084564, -0.6593309044837952, 0.5728012323379517, 0.2037840038537979, -0.001946016913279891, 0.6384328603744507, 0.2648440897464752, 0.13657476007938385, -0.36087706685066223, 0.04936469718813896, 0.19054648280143738, -0.44623276591300964, 0.5064350962638855, 0.06097095459699631, 0.011929180473089218, -0.2520940601825714, 0.12719127535820007, 0.19307269155979156, 0.24535880982875824, 0.19919992983341217, 0.11824055761098862, 0.1772446483373642, 0.3252699077129364, -0.21440733969211578, 0.19614779949188232, 0.0, 0.0, 0.0, 0.0, 0.3382558822631836, 0.07114095240831375, 0.011501417495310307, 0.17261280119419098, 0.6834855675697327, 0.30039456486701965, -0.12671804428100586, -0.07092981040477753, 0.16115909814834595, -0.06273145973682404, 0.06858357787132263], [-0.20066316425800323, 0.5234577059745789, 0.20529422163963318, -0.37826913595199585, 0.461928129196167, 0.14238561689853668, 0.007738347165286541, -0.3476018011569977, -0.31240060925483704, -0.1073223277926445, -0.3453962206840515, -0.12922467291355133, -0.13814924657344818, -0.08023662865161896, -0.160607248544693, 0.32360514998435974, -0.1336701214313507, 0.33225056529045105, -0.13416385650634766, -0.032593827694654465, 0.1606115996837616, -0.14036153256893158, 0.5578663349151611, -0.08913424611091614, -0.09459014981985092, 0.11908210068941116, 0.10948912054300308, 0.6891449689865112, 0.25061216950416565, 0.14128491282463074, 0.1916794627904892, -0.004775434732437134, -0.4907451570034027, -0.12015070021152496, 0.2637714743614197, 0.2216901183128357, 0.07210154086351395, 0.08593427389860153, -0.15295930206775665, -0.1132136732339859, 0.3341488242149353, 0.09152442216873169, 0.06631792336702347, 0.03377530723810196, -0.18880611658096313, -0.35854068398475647, 0.053925592452287674, 0.16485744714736938, -0.1880122721195221, -0.13408556580543518, 0.32313674688339233, 0.023599978536367416, 0.16379262506961823, 0.1422351747751236, -0.14263899624347687, -0.15924504399299622, 0.17266544699668884, 0.03613721951842308, 0.2266608327627182, 0.08060871809720993, -0.20908218622207642, 0.33266592025756836, 0.2494257390499115, -0.23340950906276703, 0.3342304527759552, -0.1494058519601822, 0.07430826127529144, 0.020911674946546555, -0.28269466757774353, 0.08596698194742203, -0.5956782102584839, 0.03835563734173775, -0.37846025824546814, -0.6867416501045227, -0.2915726602077484, -0.13744929432868958, 0.02440430410206318, -0.06434670090675354, -0.27608147263526917, 0.053122516721487045, -0.14183758199214935, -0.002985927974805236, -0.027357537299394608, -0.04805069789290428, -0.06652550399303436, 0.04374195262789726, -0.007062934339046478, 0.1836707592010498, 0.007321487180888653, -0.03613675758242607, 0.0, 0.0, 0.0, 0.0, -0.47660988569259644, -0.07277540862560272, 0.25590980052948, -0.3208058774471283, -0.4266485571861267, 0.04939403384923935, 0.45307931303977966, 0.12923158705234528, -0.26523110270500183, -0.2439201921224594, 0.17791442573070526], [-0.11180208623409271, 0.3088573217391968, 0.4349357485771179, 0.13672836124897003, -0.6249471306800842, -0.011227850802242756, -0.28466203808784485, -0.24502688646316528, -0.03655248507857323, 0.06977140158414841, -0.2972749173641205, -0.04828757420182228, -0.037275463342666626, 0.029212601482868195, 0.03670341148972511, 0.27555668354034424, 0.04374764859676361, 0.07671880722045898, -0.4195684790611267, 0.354841411113739, 0.2771455645561218, 0.1065378189086914, -0.4783540368080139, 0.14318156242370605, 0.3906067907810211, 0.21281586587429047, 0.1231987327337265, -0.42634591460227966, 0.5987455248832703, 0.42075976729393005, 0.5863500833511353, -0.0011431101011112332, -0.6077226400375366, -0.4066867232322693, -0.3507642447948456, -0.4620792269706726, 0.19024641811847687, 0.57475745677948, 0.00672340439632535, -0.32589006423950195, -0.1648997813463211, 0.2231857180595398, -0.2707795202732086, -0.1488916426897049, -0.1518886387348175, -0.2704155743122101, 0.06857345998287201, -0.1958141177892685, -0.7492200136184692, -0.07579980790615082, -0.058930374681949615, -0.41802385449409485, -0.15675951540470123, 0.38276857137680054, 0.2839270234107971, -0.23571982979774475, 0.19074726104736328, 0.014618291519582272, -0.45904362201690674, 0.7241840958595276, -0.3772186040878296, -0.10108815133571625, 0.009202837944030762, 0.12285888195037842, -0.20044130086898804, -0.22730596363544464, -0.31064099073410034, 0.06339625269174576, -0.04663833975791931, -0.3224130868911743, 0.018286317586898804, -0.3536880910396576, 0.359901487827301, 0.23534253239631653, 0.7100803256034851, 0.46887075901031494, 0.24418559670448303, 0.003397807478904724, -0.03588921204209328, -0.018402567133307457, -0.21284539997577667, -0.16236832737922668, -0.010937666520476341, -0.011244193650782108, 0.022797541692852974, -0.004676107782870531, -0.015524700284004211, -0.04613571986556053, 0.12370622158050537, 0.0029476373456418514, 0.0, 0.0, 0.0, 0.0, -0.5013302564620972, -0.09782044589519501, 0.4334957003593445, -0.26853787899017334, 0.2849898636341095, 0.4138287603855133, 0.5539607405662537, -0.11845362186431885, 0.022716498002409935, -0.036765698343515396, 0.41103434562683105], [-0.315669983625412, -0.1574084609746933, 0.5524885058403015, 0.13044391572475433, -1.399918794631958, 0.002910190261900425, 0.15343666076660156, 0.1373964548110962, 0.023530390113592148, 0.06390812247991562, 0.09850748628377914, 0.24396809935569763, 0.07556691765785217, 0.08455970138311386, 0.14498041570186615, 0.3569395840167999, -0.24819083511829376, 0.3603565990924835, 0.08261881023645401, 0.01416386291384697, -0.2889849841594696, -0.541660726070404, -0.7283774018287659, -0.0233484897762537, -0.18673557043075562, 0.1362774819135666, -0.0606050007045269, -0.24111559987068176, -0.14933891594409943, -0.15979503095149994, 0.04511705040931702, -0.32031339406967163, 0.12955056130886078, -0.06567998975515366, -0.024601668119430542, -0.17232681810855865, -0.3250415623188019, -0.1829613447189331, -0.28293678164482117, -0.1003686711192131, 0.28469303250312805, 0.16501909494400024, -0.001582877361215651, -0.024945460259914398, -0.04260990396142006, 0.17179301381111145, -0.08697932213544846, 0.026193466037511826, 0.22848236560821533, 0.30015891790390015, -0.04500436410307884, -0.0393499955534935, 0.00013074137677904218, 0.3014611005783081, 0.09668628871440887, 0.0535208024084568, -0.04888822138309479, -0.04380352422595024, 0.21108457446098328, -0.040839336812496185, -0.19624817371368408, 0.09147049486637115, -0.44570744037628174, -0.16153007745742798, -0.08493389189243317, 0.08635664731264114, 0.36964136362075806, 0.41279032826423645, -0.39898964762687683, 0.22372817993164062, 0.08765129745006561, 0.045460063964128494, 0.08876373618841171, -0.08007125556468964, -0.2840404212474823, -0.19642043113708496, 0.2673511505126953, -0.5221450924873352, 0.2445898950099945, 0.28342127799987793, -0.03148054704070091, -0.06803947687149048, 0.021292751654982567, 0.0352918803691864, -0.036809440702199936, -0.10127097368240356, -0.00459491228684783, 0.02281496487557888, 0.04922834038734436, 0.0318320170044899, 0.0, 0.0, 0.0, 0.0, -0.08828980475664139, -0.12281419336795807, 0.31744450330734253, -0.16697460412979126, -0.08043990284204483, 0.19546042382717133, -0.34319427609443665, -0.05774306505918503, -0.11092161387205124, -0.04312226548790932, 0.24428364634513855], [0.15257686376571655, 0.2411949634552002, 0.1497824341058731, 0.11361371725797653, -1.0594418048858643, 0.13536031544208527, -0.2798120081424713, -0.3347465693950653, -0.01779160462319851, 0.022121421992778778, -0.053722694516181946, -0.3536530137062073, 0.014527595601975918, -0.37290823459625244, -0.2212247997522354, -0.20991405844688416, -0.18310274183750153, -0.013324297964572906, 0.06014895811676979, 0.1777515411376953, 0.578813374042511, -0.03374074399471283, -0.38079702854156494, -0.038196783512830734, -0.04911569878458977, -0.16705401241779327, -0.13439804315567017, 0.20884990692138672, 0.11858727782964706, -0.3478354811668396, 0.10371546447277069, 0.07570106536149979, -0.290383517742157, -0.1191532090306282, 0.08131454885005951, 0.30551525950431824, 0.21698671579360962, 0.1724402755498886, 0.3621382713317871, 0.14086760580539703, -0.15182149410247803, -0.2624729573726654, 0.019944103434681892, -0.43548423051834106, -0.2556353509426117, -0.007322404533624649, 0.22457154095172882, 0.47456806898117065, 0.2010471075773239, 0.35427600145339966, 0.1415187269449234, -0.22581030428409576, -0.2715245187282562, -0.22223232686519623, -0.4998484253883362, 0.2268674075603485, 0.16639737784862518, 0.05519088730216026, 0.16779497265815735, 0.16780710220336914, -0.017832793295383453, 0.24041669070720673, 0.03778887540102005, 0.11137527227401733, -0.19312727451324463, 0.08556564152240753, 0.19058342278003693, 0.08748874068260193, 0.46344074606895447, 0.31406912207603455, -0.3058668375015259, -0.11183643341064453, 0.0033158231526613235, 0.4888693392276764, -0.0968712717294693, 0.29604148864746094, -0.3128998875617981, -0.7751954793930054, 0.08468227088451385, -0.14460158348083496, 0.06384024024009705, 0.11538776010274887, -0.18492180109024048, -0.15090394020080566, -0.12386967986822128, -0.17106708884239197, -0.14935605227947235, -0.11207352578639984, -0.13615554571151733, -0.04296580329537392, 0.0, 0.0, 0.0, 0.0, 0.03537796437740326, -0.13161639869213104, -0.15609712898731232, -0.5514136552810669, -0.15770336985588074, -0.6410373449325562, 0.19119739532470703, -0.06239527836441994, -0.20473505556583405, -0.07425136864185333, -0.3256375789642334], [-0.8388611078262329, -0.18824468553066254, 0.3629954159259796, 0.1590135246515274, -0.24168826639652252, -0.14559884369373322, -0.11029999703168869, -0.7156260013580322, -1.0508779287338257, -0.46785420179367065, 0.04775203764438629, -0.12232135236263275, -0.8621281981468201, -0.49098774790763855, -0.635907769203186, 0.39234575629234314, 0.2601844072341919, 0.38619959354400635, 0.4208320677280426, 0.06451942771673203, 0.5844699740409851, 0.02211648039519787, -0.17715175449848175, 0.30036237835884094, 0.0030289189890027046, 0.11406932771205902, -0.10954611748456955, 0.17550979554653168, -0.12994828820228577, -0.1384187638759613, 0.09633556008338928, 0.043595731258392334, 0.3561963737010956, 0.43294742703437805, 0.09484256058931351, -0.16752637922763824, 0.042413849383592606, -0.1950692981481552, -0.06514137238264084, -0.12549936771392822, -0.1829921156167984, -0.030651336535811424, 0.001496133510954678, 0.3468644618988037, 0.022666215896606445, -0.3793332874774933, -0.028049109503626823, -0.1880846470594406, -0.21479402482509613, -0.35126230120658875, -0.39077794551849365, 0.025835705921053886, -0.18957479298114777, -0.004185754340142012, 0.007621149532496929, 0.21178723871707916, -0.11820609867572784, 0.05618426948785782, -0.06515273451805115, -0.5808531045913696, -0.08045557141304016, -0.5521491169929504, 0.6021260023117065, 0.10623009502887726, 0.10307544469833374, -0.07821784168481827, -0.0007952335872687399, 0.5694059729576111, 0.08862593024969101, -0.2245270013809204, 0.2062210589647293, 0.5330519080162048, -0.3701109290122986, 0.07694555073976517, -0.25777366757392883, 0.02901761420071125, -0.04529305174946785, 1.0123847723007202, -0.057595059275627136, -0.17409741878509521, -0.06503584235906601, -0.0018775534117594361, 0.015293385833501816, 0.11172553151845932, 0.053460102528333664, 0.031153183430433273, 0.0917358547449112, -0.09236394613981247, 0.32638314366340637, 0.12417210638523102, 0.0, 0.0, 0.0, 0.0, -0.6005557775497437, 0.051759105175733566, 0.4718688428401947, 0.23884572088718414, -0.030028099194169044, 0.1804153174161911, -0.1264253705739975, 0.07412423938512802, -0.25166448950767517, -0.29303258657455444, 0.3779381811618805], [-0.22857621312141418, -0.772726833820343, -0.3901752233505249, -0.3244473338127136, 0.3608091175556183, -0.08129718899726868, -0.10321782529354095, -0.23950129747390747, 0.143192321062088, 0.1258859932422638, 0.06905156373977661, -0.11284011602401733, -0.07130095362663269, 0.4027680456638336, 0.4637378752231598, -0.11061378568410873, 0.9413331747055054, -0.1486462652683258, 1.067200779914856, -0.7685099840164185, -0.12706321477890015, -0.14341923594474792, -0.24787786602973938, 0.08866199851036072, 0.01971927471458912, 0.2715455889701843, 0.02627379074692726, -0.3121252655982971, 0.018638772889971733, 0.15097299218177795, 0.23498834669589996, 0.16850636899471283, -0.13975772261619568, -0.0690661296248436, -0.06016045808792114, -0.1734229177236557, -0.053999096155166626, 0.20370395481586456, 0.20800337195396423, 0.3560534715652466, 0.2461196631193161, -0.25529739260673523, -0.4639829695224762, 0.1286846250295639, 0.15046332776546478, 0.2292250245809555, 0.22851863503456116, -0.28256985545158386, 0.0864076241850853, 0.25488150119781494, -0.008614053018391132, -0.21448230743408203, -0.14013317227363586, -0.1339634656906128, 0.23833511769771576, -0.05126141011714935, -0.13013023138046265, -0.031158115714788437, 0.042743247002363205, -0.36689090728759766, -0.3967985510826111, 0.2361256182193756, -0.05501044914126396, -0.11683019250631332, 0.07081326097249985, 0.2526402473449707, 0.08731750398874283, -0.38609760999679565, 0.15536221861839294, -0.10597217082977295, -0.2751862406730652, -0.18548603355884552, -0.009677262976765633, -0.3578048050403595, -0.1325071007013321, 0.47743138670921326, 0.019485773518681526, -0.23691312968730927, -0.3240585923194885, 0.15424460172653198, 0.21849143505096436, -0.33701983094215393, -0.0648651048541069, -0.12344248592853546, -0.04110543802380562, 0.009366119280457497, -0.00042542500887066126, -0.12674683332443237, 0.0990305095911026, 0.05644098296761513, 0.0, 0.0, 0.0, 0.0, 0.14666098356246948, 0.09211244434118271, 0.45753663778305054, 0.4430818557739258, 0.35864028334617615, -0.24958792328834534, 0.059460580348968506, 0.2229604721069336, 0.04605326056480408, 0.1911548674106598, 0.15443891286849976], [-0.08594870567321777, 0.2746925950050354, -0.005769542418420315, -0.0631503090262413, 0.9675433039665222, 0.15225887298583984, -0.3837345242500305, -0.3866094946861267, 0.17244157195091248, -0.16563060879707336, 0.010320903733372688, -0.08327218145132065, 0.7764860391616821, 0.2104535698890686, -0.1318090558052063, 0.2725509703159332, -0.66725754737854, 0.07261446118354797, -0.47693589329719543, -0.23594073951244354, -0.26237034797668457, -0.386607825756073, 0.1561424732208252, 0.5475031137466431, 0.1189817413687706, 0.14534737169742584, 0.3606131672859192, 0.03631176799535751, -0.12231598794460297, -0.17404933273792267, -0.11961644887924194, -0.17700240015983582, -0.05734904855489731, -0.03707396984100342, -0.03148158639669418, 0.17933911085128784, -0.1191970631480217, -0.1569252461194992, -0.19192664325237274, 0.140772745013237, -0.35732945799827576, -0.35342979431152344, 0.17993424832820892, -0.15927007794380188, 0.18011142313480377, 0.009222278371453285, 0.36177709698677063, 0.2669624984264374, 0.13286253809928894, -0.082244873046875, 0.02637910284101963, 0.0030052789952605963, -0.37015190720558167, -0.07979711890220642, 0.15789929032325745, -0.005661384668201208, -0.10539001226425171, 0.23546451330184937, 0.4416238069534302, 1.195688009262085, -1.3401355743408203, 0.06330715119838715, 0.03491533175110817, 0.11449383944272995, -0.03676869720220566, -0.36872491240501404, 0.349994957447052, -0.5400992631912231, -0.04536351189017296, -0.2954520285129547, -0.39230844378471375, 0.0848524272441864, 0.19127561151981354, 0.44125887751579285, -0.4667825996875763, 0.4913725256919861, -0.1295349895954132, 0.5913008451461792, 0.015831969678401947, -0.20162475109100342, -0.030205514281988144, -0.13228365778923035, 0.010463720187544823, 0.384251207113266, 0.06400462239980698, 0.1676599681377411, 0.23242302238941193, 0.21712130308151245, -0.08691726624965668, -0.08749932050704956, 0.0, 0.0, 0.0, 0.0, -0.48904743790626526, 0.09990211576223373, -0.09884892404079437, -0.19600841403007507, 0.20039944350719452, -0.7334969639778137, 0.006028326228260994, 0.1320086419582367, 0.09584023058414459, -0.09014062583446503, 0.01070399396121502], [0.3629797697067261, 0.3176708519458771, -0.5944044589996338, -0.24479280412197113, -0.34578579664230347, 0.24829116463661194, 0.2400730848312378, 0.15012890100479126, -0.22570012509822845, -0.09566216915845871, 0.06735537946224213, -0.20805509388446808, -0.006492655258625746, -0.040635399520397186, -0.04809395596385002, -0.19562412798404694, -0.6939723491668701, -0.12223716080188751, 0.28554999828338623, -0.5834736824035645, -0.14755597710609436, -0.1544128656387329, 0.24566228687763214, -0.08943727612495422, 0.28049442172050476, 0.273576557636261, 0.21300509572029114, 0.1821783185005188, 0.17339642345905304, -0.11720702052116394, 0.07509224861860275, -0.028055105358362198, 0.27547740936279297, -0.3191397786140442, -0.23242995142936707, -0.2951762080192566, -0.2238340675830841, 0.1094944104552269, -0.08046523481607437, -0.07442571967840195, 0.05110405758023262, -0.042558398097753525, 0.006746238097548485, -0.021146118640899658, 0.2772895097732544, 0.10083351284265518, 0.36852607131004333, 0.062299322336912155, 0.06755027174949646, -0.08584605902433395, -0.12315282970666885, -0.15797095000743866, 0.15462924540042877, 0.03808242082595825, 0.3104689419269562, -0.0791916772723198, -0.08000192791223526, 0.012222967110574245, 0.11162670701742172, -0.03488946333527565, -0.05022098496556282, -0.03522852808237076, 0.019665701314806938, -0.6095567345619202, -0.1302226334810257, -0.14809411764144897, 0.0623549222946167, -0.6688386797904968, 0.02698872797191143, 0.4360872209072113, -1.1321723461151123, 0.12324608117341995, -0.15962529182434082, 0.7406973838806152, -0.31308799982070923, -0.16625148057937622, 0.058121468871831894, -0.6148859858512878, 0.14399856328964233, 0.00020407103875186294, 0.004828531760722399, -0.07551627606153488, 0.03876933082938194, -0.017472075298428535, 0.040956541895866394, 0.10262306779623032, -0.039168816059827805, 0.08290093392133713, -0.02932838723063469, -0.18446427583694458, 0.0, 0.0, 0.0, 0.0, 0.6308351159095764, 0.1551889181137085, -0.4217815697193146, -0.4006800055503845, 0.5996232628822327, 0.5404272079467773, -0.27727392315864563, 0.06241241469979286, 0.13792537152767181, -0.06817176938056946, -0.8894402980804443], [-0.5556631684303284, -0.3013531565666199, -0.13728345930576324, 0.26579177379608154, 0.3946371078491211, -0.19465649127960205, -0.2696431577205658, -0.6223851442337036, -0.031164882704615593, -0.08011515438556671, -0.08950211107730865, 0.04065098240971565, -0.28330370783805847, -0.08211490511894226, -0.16503268480300903, 0.4595952033996582, -0.7173572778701782, 0.6035841703414917, -0.09109479188919067, -0.17557762563228607, -0.812258243560791, 0.4603184461593628, -0.0922248512506485, -0.20122647285461426, 0.07340046018362045, 0.020225780084729195, -0.2867835760116577, -0.19247697293758392, 0.04907738044857979, 0.2229163944721222, 0.22382201254367828, -0.21943454444408417, 0.07129242271184921, 0.15681558847427368, 0.1792456954717636, -0.385482519865036, -0.06184063106775284, 0.1025938093662262, -0.3507418632507324, -0.2794386148452759, -0.011735417880117893, 0.002896409947425127, 0.09525445848703384, 0.08479375392198563, 0.1687236875295639, 0.38679322600364685, 0.4601694643497467, 0.3119277060031891, 0.1169905811548233, -0.35341328382492065, -0.25579848885536194, -0.07254946231842041, 0.16373254358768463, -0.03298153728246689, 0.05182492360472679, 0.02422330155968666, 0.2318476438522339, -0.003135436214506626, 0.26502880454063416, 0.5958629250526428, -0.4820117652416229, 0.18715132772922516, 0.35253438353538513, 0.1646498441696167, 0.05125684291124344, 0.016326049342751503, 0.3819221258163452, 0.20440854132175446, 0.06320232897996902, 0.05126923322677612, -0.19109384715557098, 0.22499516606330872, -0.09201356023550034, -0.06875444203615189, -0.27037036418914795, 0.02548706904053688, -0.1339893788099289, -0.24231261014938354, 0.05433268845081329, -0.36339882016181946, -0.28376567363739014, 0.24168825149536133, 0.17972782254219055, 0.03551187738776207, 0.19268189370632172, 0.121786929666996, 0.26631611585617065, 0.001251869834959507, 0.22241976857185364, -0.013663102872669697, 0.0, 0.0, 0.0, 0.0, -0.1911415308713913, -0.28892454504966736, 0.3516644239425659, 0.05134538933634758, -0.4822368621826172, -0.7886596918106079, -0.525788426399231, 0.13649043440818787, 0.0685199722647667, -0.04850604012608528, 0.25329455733299255], [0.5653945207595825, 0.20213398337364197, -0.38238516449928284, -0.08741133660078049, 0.9698441028594971, -0.20275689661502838, 0.37742286920547485, -0.22687825560569763, -0.23363301157951355, -0.10302422940731049, 0.30154404044151306, 0.1821163445711136, 0.10738416016101837, 0.09131097048521042, -0.2930799424648285, -9.04471889953129e-05, -0.6430302262306213, 0.011713436804711819, 0.03132720664143562, -0.38639843463897705, 0.10416774451732635, 0.19970658421516418, 0.3786960244178772, -0.11258286237716675, 0.018296027556061745, 0.2168148308992386, -0.4840658903121948, 0.1650499850511551, -0.011615135706961155, -0.1335863620042801, 0.1905745565891266, 0.4699937403202057, 0.02852635458111763, 0.18307016789913177, -0.20363421738147736, -0.3479732275009155, 0.05827687680721283, 0.3673848807811737, 0.20364858210086823, 0.3746614158153534, -0.1304907649755478, 0.03990112617611885, -0.23181463778018951, -0.08730391412973404, 0.09818000346422195, -0.08398514986038208, 0.27305805683135986, 0.2082051932811737, 0.34508949518203735, 0.2695002853870392, 0.2298637479543686, -0.03828301653265953, -0.045210547745227814, -0.1209401935338974, -0.01776019297540188, 0.24278046190738678, 0.08186336606740952, -0.2047743797302246, -0.3708341717720032, 0.039675578474998474, 1.2197394371032715, -0.26043012738227844, 0.10578642040491104, -0.9511680006980896, 0.07310144603252411, -0.0652720108628273, 0.6283238530158997, 0.3074229955673218, -0.6579513549804688, 0.19291123747825623, -0.5140655040740967, 0.019152844324707985, 0.08064642548561096, 0.5464209318161011, 0.6384948492050171, -0.5978552103042603, 0.0838618054986, -0.5483552813529968, 0.337497353553772, 0.019154958426952362, 0.018526418134570122, -0.11610215902328491, 0.1538967341184616, 0.1315537393093109, 0.04432312771677971, 0.01708516851067543, 0.06241298466920853, 0.16714105010032654, 0.030013034120202065, -0.03622211143374443, 0.0, 0.0, 0.0, 0.0, 0.0260015819221735, -0.0027631991542875767, -0.48746421933174133, -0.1652352660894394, -0.0511888787150383, -0.3797924816608429, -0.42157283425331116, -0.14781971275806427, -0.041773587465286255, 0.05688992142677307, -0.33735916018486023], [-0.25790661573410034, -0.3921339809894562, -0.51450514793396, -0.22065208852291107, 0.6201262474060059, -0.08270731568336487, 0.5613774061203003, 0.43817251920700073, 0.3421365022659302, 0.45954757928848267, -0.10276000201702118, 0.05666269734501839, -0.3915809094905853, 0.01265548076480627, 0.21912726759910583, 0.1584557592868805, 0.40458205342292786, 0.2929672300815582, 0.8270826935768127, -0.5450578331947327, 0.1529107242822647, 0.17899982631206512, -0.7486689686775208, 0.12139187753200531, -0.11198242008686066, 0.06890178471803665, -0.12826551496982574, 0.035303134471178055, 0.11303440481424332, 0.3805910646915436, -0.05075352266430855, 0.02557295560836792, -0.028962040320038795, 0.2814154624938965, -0.2295903116464615, -0.28379908204078674, -0.2822185158729553, -0.1987195461988449, -0.13431191444396973, -0.5050567388534546, -0.2641383111476898, 0.12357126176357269, -0.0820644423365593, 0.05994407832622528, 0.31618532538414, 0.19503851234912872, 0.1539693921804428, 0.3353927731513977, 0.28455716371536255, 0.2621834874153137, -0.19669711589813232, 0.023694774135947227, -0.19297155737876892, 0.04497956857085228, 0.5169742107391357, 0.3763163685798645, 0.28247782588005066, -0.09200526773929596, 0.043624360114336014, 0.37022271752357483, -0.3529156744480133, 0.024081630632281303, -0.5834208130836487, -0.10329553484916687, 0.04787794128060341, -0.22989462316036224, 0.4367730915546417, 0.5884351134300232, 0.15348371863365173, 0.20020097494125366, -0.005957433022558689, -0.0767427384853363, 0.07153984904289246, 0.5928337574005127, 0.4873809814453125, 0.11056036502122879, -0.38341060280799866, 0.05197695270180702, 0.00983455590903759, 0.12223467975854874, 0.08699232339859009, -0.16035659611225128, 0.03202686831355095, -0.002580723725259304, 0.009164782240986824, 0.11980757862329483, -0.022265484556555748, 0.0508570596575737, 0.1549777090549469, 0.205584317445755, 0.0, 0.0, 0.0, 0.0, 0.0980038046836853, 0.2421710342168808, 0.4230997860431671, 0.5105878114700317, -0.18234455585479736, 0.13858230412006378, -0.278922438621521, -0.11257459968328476, -0.10031428188085556, 0.056360866874456406, 0.1524687260389328], [0.09812875092029572, 0.6765174269676208, 0.09082600474357605, -0.3408949077129364, 0.850043535232544, 0.038761381059885025, -0.1153268814086914, -0.03101676143705845, 0.16170324385166168, 0.04251508787274361, -0.08543259650468826, -0.019938811659812927, -0.0014301708433777094, 0.4337926208972931, -0.16211284697055817, -0.1629609614610672, -0.706436812877655, 0.030454665422439575, -0.09254582971334457, -0.4988349378108978, 0.08267465978860855, -0.018197592347860336, 0.4195499122142792, 0.5037219524383545, -0.03330255299806595, 0.40837883949279785, 0.5357943177223206, 0.036257289350032806, -0.12314796447753906, -0.22890356183052063, 0.012425788678228855, -0.06622970849275589, 0.011203211732208729, 0.3678661286830902, -0.022134879603981972, 0.01891915872693062, 0.08689601719379425, -0.1990443468093872, -0.1541908234357834, 0.036457959562540054, -0.15085725486278534, 0.15617616474628448, 0.07170107960700989, 0.3669116497039795, -0.17121975123882294, -0.16872933506965637, -0.1229073628783226, -0.0050979238003492355, 0.2637864351272583, 0.22631506621837616, -0.10231474041938782, -0.014918291009962559, -0.1261136531829834, 0.12793777883052826, -0.48061519861221313, -0.1792304664850235, -0.014236642979085445, -0.019742866978049278, 0.08455084264278412, -0.4872230589389801, 0.21939639747142792, -0.1425333023071289, 0.38298100233078003, -0.4226382374763489, 0.08457484096288681, 0.27816110849380493, -0.22789771854877472, -0.6126186847686768, 0.24556906521320343, -0.030872667208313942, -0.1535859853029251, 0.28930675983428955, -0.2932625114917755, -0.14795079827308655, -0.5600565671920776, -0.14521515369415283, -0.3053078353404999, 0.579902708530426, -0.18824441730976105, -0.08460213989019394, -0.0140712084248662, -0.14033742249011993, -0.12135987728834152, -0.1402793973684311, -0.22539927065372467, -0.09747505187988281, -0.14585477113723755, -0.05353303998708725, -0.2639608085155487, 0.11396455764770508, 0.0, 0.0, 0.0, 0.0, -0.2134810835123062, -0.23835788667201996, -0.4014304578304291, -0.723466694355011, 0.8598580956459045, 0.38321661949157715, -0.13451677560806274, 0.15511013567447662, -0.012473246082663536, -0.11241642385721207, 0.07685120403766632], [-0.1355283409357071, -0.2793184220790863, -0.40544208884239197, -0.4841080904006958, 0.8029149770736694, -0.12382053583860397, 0.29024115204811096, -0.0118485689163208, -0.052926257252693176, -0.38100185990333557, -0.03300365433096886, -0.12988920509815216, 0.07824139297008514, 0.28073927760124207, 0.11940371990203857, 0.135053813457489, -0.42094749212265015, -0.08753883838653564, 0.0781559869647026, -0.20039987564086914, 0.09590475261211395, -0.13303875923156738, -0.649433970451355, 0.1440747082233429, -0.0004948096466250718, -0.2459893524646759, 0.208090677857399, -0.24655097723007202, 0.06526938080787659, 0.2919272184371948, 0.27487918734550476, 0.06686156243085861, -0.4256148636341095, 0.12402687221765518, 0.21391737461090088, -0.11854635179042816, 0.414871484041214, 0.33127471804618835, -0.20347794890403748, -0.12777476012706757, 0.01526526641100645, -0.11726494878530502, -0.15497678518295288, 0.009678058326244354, -0.015522634610533714, -0.024601297453045845, -0.09630317986011505, -0.23976664245128632, 0.019208652898669243, 0.2142987996339798, 0.04945538565516472, 0.05743826925754547, -0.03070124238729477, -0.06833445280790329, 0.20799532532691956, -0.04490817338228226, 0.042178649455308914, -0.12136664986610413, -0.21765698492527008, 0.02942276932299137, 0.7445957064628601, 0.00997620727866888, -0.43874600529670715, -0.03617434948682785, 0.0006048400537110865, -0.1961686760187149, -0.24987360835075378, 0.05809063836932182, 0.45740196108818054, 0.0751209408044815, -0.23432524502277374, 0.01823740452528, 0.08139701932668686, -0.18980057537555695, 0.3301800489425659, -0.05546414479613304, 0.2716887295246124, -0.04914834350347519, 0.2646928131580353, -0.43623557686805725, -0.1486823707818985, 0.33719509840011597, 0.0573723278939724, -0.08711370080709457, 0.0940205529332161, -0.12141035497188568, 0.17122644186019897, 0.02346465177834034, -0.00865345261991024, -0.09301205724477768, 0.0, 0.0, 0.0, 0.0, -0.231768399477005, 0.2560637295246124, -0.06586349010467529, 0.2983607053756714, 0.2008046954870224, -0.1830502301454544, 0.08961573243141174, 0.1426776498556137, 0.03411874920129776, 0.07358948886394501, -0.38004258275032043], [-0.28873178362846375, -0.12189862132072449, 