window.RICOCHET_POLICIES=window.RICOCHET_POLICIES||{};window.RICOCHET_POLICIES["v15clone"]={"layers": [{"w": [[-0.007513207383453846, 0.0010498141637071967, -0.1423802524805069, 0.023381967097520828, 2.511603832244873, -0.06677540391683578, -0.13864929974079132, -0.17476269602775574, -0.1076764464378357, -0.11229588091373444, 0.06658985465765, 0.2664937973022461, -0.5609560012817383, -0.4089709222316742, 0.11761564761400223, 0.15436947345733643, -0.34636542201042175, -0.09512981027364731, -0.6419842839241028, 0.11703096330165863, 0.046709273010492325, 0.32581421732902527, -0.5611148476600647, 0.10744377970695496, -0.03309386596083641, 0.0057480852119624615, 0.06957894563674927, -0.08529623597860336, 0.04830077290534973, 0.04675481468439102, -0.1943746656179428, -0.04039758816361427, 0.14708195626735687, 0.07586448639631271, -0.07403992861509323, 0.03754489868879318, 0.013109219260513783, 0.2155444324016571, -0.023051628842949867, 0.09245703369379044, -0.17171676456928253, -0.08051840960979462, -0.1462087780237198, 0.28247857093811035, 0.054128728806972504, -0.14690855145454407, -0.30407825112342834, -0.05827489122748375, -0.10161332786083221, 0.2041986584663391, -0.18673017621040344, -0.003380296053364873, -0.14583468437194824, -0.1881435066461563, 0.04484396427869797, -0.08379890769720078, 0.14741554856300354, 0.03353674337267876, 0.21607869863510132, 0.2468995749950409, -0.13987867534160614, -0.027771975845098495, 0.10280429571866989, -0.3645842969417572, -0.22806601226329803, 0.05667393282055855, 0.13529860973358154, -0.09445392340421677, 0.07894770056009293, 0.11240726709365845, -0.07039839029312134, 0.11605215817689896, 0.045833952724933624, -0.11823568493127823, -0.1768559217453003, -0.008170959539711475, 0.2663697302341461, -0.10745503008365631, -0.030575014650821686, 0.19497084617614746, -0.05497090145945549, -0.013154946267604828, 0.047456007450819016, -0.07914178818464279, 0.05620836839079857, -0.242173433303833, -0.019800495356321335, -0.05580151453614235, -0.09236025810241699, -0.06947113573551178, -0.16031497716903687, -0.011249558068811893, 0.03465681150555611, 0.050092894583940506, -0.026866594329476357, 0.00935728382319212, -0.10380157828330994, -0.2058630883693695, 0.263558954000473, 0.2831655740737915, 0.12579768896102905, 0.15659186244010925, 0.17646253108978271, -0.2324681580066681, 0.033571723848581314], [0.07404909282922745, 0.08396004885435104, 0.2635763883590698, -0.12457551062107086, 0.25272563099861145, -0.24855618178844452, -0.14435039460659027, -0.062295299023389816, -0.0038452441804111004, -0.3414137065410614, -0.06291701644659042, 0.2204986959695816, -0.14196382462978363, -0.15088798105716705, 0.11280449479818344, 0.21903270483016968, 0.26262080669403076, 0.2725814878940582, 0.6048927307128906, -0.16103039681911469, 0.1607731431722641, 0.12205905467271805, -0.7414836287498474, 0.14719431102275848, 0.06591133773326874, -0.007505632936954498, 0.22809673845767975, 0.10446544736623764, -0.08800975233316422, -0.08405652642250061, -0.24098357558250427, 0.10554249584674835, -0.057696383446455, -0.12093435972929001, -0.10791374742984772, 0.09252092987298965, -0.011732174083590508, -0.05923337861895561, 0.029753902927041054, 0.012425665743649006, 0.3123926520347595, 0.2319449633359909, 0.18720772862434387, 0.05764653533697128, 0.08914288133382797, -0.005499640014022589, 0.003432061057537794, -0.009850873611867428, -0.023290252313017845, -0.15842656791210175, -0.06592565774917603, 0.0861862450838089, -0.030388232320547104, 0.23299573361873627, 0.020908184349536896, -0.07666731625795364, 0.05436944589018822, -0.09816299378871918, 0.007139298599213362, 0.15892945230007172, 0.02879255823791027, 0.2759598195552826, -0.04940713196992874, 0.20296460390090942, 0.038126714527606964, -0.0755225270986557, -0.20940472185611725, 0.01892455294728279, 0.24511027336120605, 0.1288803368806839, 0.150829017162323, -0.36377230286598206, -0.15242671966552734, -0.41378945112228394, -0.1184505820274353, 0.16147607564926147, -0.15593409538269043, 0.31834888458251953, 0.24090498685836792, 0.15778152644634247, 0.11085988581180573, -0.2933807969093323, 0.07994207739830017, -0.2327694445848465, -0.16060930490493774, -0.009254571050405502, 0.05656672269105911, 0.15664127469062805, -0.24244244396686554, 0.09124420583248138, -0.6388795375823975, 0.44759759306907654, 0.04933543503284454, 0.004165296442806721, -0.3103220760822296, 0.10512924939393997, 0.08159779757261276, -0.0066903927363455296, 0.17048853635787964, -0.2695019543170929, -0.1950652003288269, 0.010536612942814827, -0.19324815273284912, 0.07225576043128967, 0.1437184363603592], [0.017707202583551407, -0.03966149687767029, -0.042523887008428574, -0.2498020976781845, 1.6321630477905273, 0.19459867477416992, -0.1192055344581604, -0.08832921087741852, -0.09604790806770325, -0.1265007108449936, -0.11098967492580414, -0.17530499398708344, -0.5294709205627441, -0.15090961754322052, -0.10434762388467789, -0.13054142892360687, 0.09333807229995728, -0.1029181182384491, 0.7845369577407837, -0.03027389757335186, 0.02125251479446888, 0.1692916303873062, 0.0014239829033613205, -0.1357363909482956, -0.10881886631250381, 0.18039961159229279, -0.19560512900352478, 0.1439613252878189, 0.1675167679786682, 0.04825432971119881, -0.06728440523147583, -0.04136999323964119, 0.1908305585384369, 0.007403922732919455, 0.04430894926190376, 0.33814772963523865, -0.03581492602825165, -0.2238205522298813, 0.08067259192466736, -0.0901704877614975, -0.16432836651802063, 0.1196579784154892, 0.0741521492600441, -0.0695476233959198, 0.2393663376569748, 0.20130853354930878, -0.25325095653533936, 0.12993651628494263, 0.04342694208025932, -0.038527391850948334, 0.057622279971838, -0.07006945461034775, -0.026801124215126038, 0.00981233548372984, 0.19330452382564545, -0.292708158493042, -0.1511528342962265, 0.017934909090399742, -0.12939861416816711, 0.3899245858192444, 0.07125381380319595, -0.15611158311367035, -0.012159173376858234, -0.4165821075439453, 0.039691392332315445, 0.0014810757711529732, -0.001941964728757739, -0.10755916684865952, 0.032956551760435104, -0.04449539631605148, -0.23387829959392548, 0.1164700910449028, -0.033542074263095856, 0.06541638821363449, -0.05194771662354469, -0.021029578521847725, -0.033354319632053375, 0.08641432970762253, 0.06597067415714264, 0.2400505095720291, -0.1905009150505066, -0.22153134644031525, 0.11632438004016876, 0.15082506835460663, 0.22846020758152008, 0.030437489971518517, 0.018841592594981194, 0.031947746872901917, -0.03659537434577942, 0.13149259984493256, -0.5374518632888794, 0.28771087527275085, -0.10800707340240479, -0.007222858257591724, -0.14625868201255798, 0.01254452858120203, -0.08666232228279114, 0.027841802686452866, -0.03077484294772148, -0.12824313342571259, -0.12340571731328964, -0.013968479819595814, 0.19550682604312897, -0.13925473392009735, -0.01760069467127323], [-0.08724963665008545, -0.3691079914569855, -0.16154064238071442, -0.17810092866420746, -0.7799683809280396, -0.23944731056690216, -0.2931712865829468, -0.7068960666656494, -0.6715737581253052, -0.5518596768379211, 0.11860610544681549, 0.16265475749969482, -0.4686537981033325, -0.2735523581504822, -0.5789121985435486, 0.025185398757457733, -0.29820963740348816, -0.15863405168056488, 0.18741077184677124, 0.1293753832578659, -0.5559762120246887, -0.007397785317152739, 0.25568410754203796, 0.17101094126701355, -0.488346666097641, 0.10110896080732346, 0.01209835335612297, 0.10970260202884674, 0.008774840272963047, -0.019247379153966904, 0.012450683861970901, 0.1002005934715271, -0.12450744956731796, -0.1701052486896515, 0.08316163718700409, -0.5840109586715698, -0.3002685606479645, -0.1469423770904541, -0.01244925893843174, 0.4417879283428192, 0.10720952600240707, 0.03247302025556564, -0.11084776371717453, 0.0015858372207731009, -0.2112402319908142, -0.08656187355518341, -0.0680403932929039, -0.023477790877223015, 0.1777084916830063, -0.12729834020137787, 0.006111180409789085, 0.022584499791264534, -0.041125327348709106, 0.1325932741165161, 0.0494174025952816, -0.06355980783700943, -0.06136518716812134, -0.35861578583717346, -0.12503819167613983, -0.420415997505188, -0.5725478529930115, -0.18603354692459106, -0.07490037381649017, 0.14150327444076538, -0.38744083046913147, -0.07457369565963745, -0.8844821453094482, -0.049920715391635895, 0.18799848854541779, -0.1786671131849289, -0.011763039045035839, -0.3564339280128479, 0.115639328956604, -0.8758742213249207, 0.4277059733867645, 0.29821500182151794, 0.009182529523968697, 0.4584076702594757, -0.37833619117736816, 0.33209654688835144, 0.3837045431137085, 0.051756132394075394, 0.15277118980884552, 0.29879826307296753, -0.08678463846445084, -0.053911250084638596, -0.1933010071516037, -0.9847001433372498, -0.009618423879146576, 0.21876968443393707, 0.03744906187057495, -0.5068852305412292, 0.13106973469257355, -0.3019462823867798, 0.22526870667934418, -0.02673930861055851, 0.1189742237329483, 0.45554226636886597, -0.25151166319847107, 0.3022596538066864, 0.15318721532821655, -0.006841997615993023, 0.07724323123693466, -0.0020600890275090933, 0.3815118670463562], [-0.15916500985622406, -0.08821477741003036, 0.03447858616709709, -0.0961977168917656, -1.0895010232925415, -0.02499028667807579, 0.03535580262541771, 0.18178023397922516, 0.05038497596979141, 0.11571914702653885, 0.0918072983622551, -0.03521236777305603, 0.014961401000618935, -0.14613351225852966, 0.18757936358451843, 0.22702288627624512, -0.29937687516212463, 0.14746886491775513, 1.0187005996704102, 0.23788605630397797, -0.05185703560709953, -0.3639032542705536, 0.2436663806438446, -0.08974497765302658, 0.37945860624313354, 0.044247690588235855, -0.37433889508247375, -0.14162220060825348, 0.05049031227827072, -0.2045126110315323, 0.07914663106203079, 0.07784323394298553, -0.1029730811715126, 0.058541685342788696, -0.14024287462234497, -0.010657119564712048, 0.12812018394470215, 0.0034277422819286585, 0.10633303225040436, 0.017881302163004875, 0.14592106640338898, -0.06337612867355347, -0.0842565968632698, 0.21906015276908875, -0.018687451258301735, -0.08876917511224747, 0.020102476701140404, 0.0050210668705403805, 0.03927408903837204, 0.08319345116615295, -0.08284395188093185, -0.09755221754312515, 0.1016751080751419, -0.04479124769568443, 0.13886168599128723, -0.17808161675930023, 0.055723730474710464, 0.18766973912715912, -0.07702620327472687, -0.5932892560958862, -0.2574726343154907, -0.0002965981257148087, -0.0747435986995697, 0.04325621575117111, -0.10678774118423462, -0.17037667334079742, -0.15262912213802338, -0.036241818219423294, 0.08145194500684738, -0.10002244263887405, 0.09975595772266388, -0.008472027257084846, 0.003273629117757082, 0.18726269900798798, 0.09318976104259491, -0.10248613357543945, -0.0002872541663236916, -0.20305612683296204, 0.052188001573085785, 0.146523118019104, 0.10736939311027527, -0.03707621991634369, -0.001356753520667553, 0.2228100299835205, -0.022264666855335236, 0.007082407828420401, 0.07591093331575394, -0.04330768436193466, -0.28462710976600647, 0.044093310832977295, -0.613938570022583, 0.25128117203712463, 0.34140491485595703, -0.1295098513364792, 0.05143661051988602, -0.23010091483592987, 0.11632312089204788, 0.03356645628809929, -0.06356223672628403, 0.038693394511938095, 0.10057801753282547, 0.16165578365325928, -0.19339105486869812, -0.05286259949207306, -0.019888436421751976], [-0.09028055518865585, 0.08100006729364395, 0.1263381987810135, 0.04016924649477005, -1.6255990266799927, 0.16811637580394745, 0.06726133078336716, 0.09519335627555847, 0.07943763583898544, 0.08046124875545502, 0.01575421914458275, -0.14029860496520996, 0.35176149010658264, 0.32162290811538696, -0.07462441921234131, 0.04152897372841835, 0.09283625334501266, -0.08871191740036011, 0.5371301770210266, 0.027881024405360222, 0.05065146088600159, -0.1755940020084381, -0.110292449593544, 0.1945747584104538, -0.1313796192407608, -0.24521131813526154, 0.2621338665485382, -0.07316551357507706, 0.11381029337644577, -0.001624610391445458, -0.27281203866004944, 0.05560695007443428, -0.19326151907444, 0.22595751285552979, -0.15398848056793213, 0.21073134243488312, -0.08128884434700012, -0.15611998736858368, 0.25038981437683105, 0.34776872396469116, 0.04556254670023918, 0.018606340512633324, -0.060424163937568665, 0.000342618121067062, -0.06073419004678726, -0.21458686888217926, -0.26856184005737305, 0.16415078938007355, 0.07437333464622498, 0.03578871861100197, -0.07794076949357986, 0.22427305579185486, 0.14014439284801483, 0.28956177830696106, 0.2465256154537201, -0.12154961377382278, -0.007373579777777195, -0.06835481524467468, -0.013979999348521233, -0.20250625908374786, 0.14496780931949615, -0.03846365958452225, -0.004069759044796228, 0.47751933336257935, 0.017065128311514854, 0.03616457059979439, 0.017839942127466202, 0.031832292675971985, -0.1273934543132782, -0.00607556477189064, -0.009748986922204494, -0.017023758962750435, 0.10639829933643341, -0.07051979750394821, 0.1101202443242073, 0.014516227878630161, 0.08579836785793304, -0.06449368596076965, -0.15265007317066193, 0.09511587023735046, 0.15416081249713898, 0.16910088062286377, -0.1144905537366867, -0.035121798515319824, 0.1769614964723587, -0.038020920008420944, 0.029109839349985123, -0.07894792407751083, 0.04759829863905907, 0.07004736363887787, 0.45907190442085266, -0.03495333716273308, -0.08894584327936172, 0.06328973919153214, 0.017045440152287483, -0.100443534553051, 0.024599174037575722, -0.14941635727882385, -0.08285754173994064, -0.09829777479171753, -0.005905103869736195, -0.15701067447662354, -0.18530705571174622, -0.12920968234539032, -0.21051543951034546], [-0.184247225522995, -0.09601408243179321, 0.3923208713531494, -0.09262406080961227, 1.6822891235351562, -0.16569222509860992, 0.280398428440094, 0.3198322653770447, -0.024804357439279556, 0.05512227490544319, -0.00899101048707962, -0.0058517418801784515, 0.1158447116613388, 0.2554533779621124, 0.039647407829761505, -0.18922948837280273, 0.010222352109849453, 0.012952267192304134, 0.5877379775047302, -0.042007941752672195, -0.02281346544623375, -0.24381256103515625, -0.24804489314556122, 0.06244630366563797, 0.01770637370646, 0.17335553467273712, 0.18929119408130646, 0.21365731954574585, 0.16513782739639282, -0.08170955628156662, -0.04844708368182182, -0.01541723683476448, -0.02075602300465107, -0.03480742499232292, -0.07283703237771988, -0.07620703428983688, 0.13777847588062286, -0.05463613569736481, 0.24867333471775055, -0.12490559369325638, 0.023670459166169167, 0.29283255338668823, -0.10830588638782501, 0.16687464714050293, 0.045816294848918915, 0.09166844934225082, 0.007180418819189072, 0.019929563626646996, -0.054210253059864044, -0.14486856758594513, -0.044725846499204636, 0.0034939723554998636, -0.07549553364515305, 0.08640245348215103, -0.1690646857023239, -0.041983142495155334, -0.022979918867349625, -0.06532913446426392, -0.14879757165908813, 0.284365177154541, -0.31519225239753723, 0.020664948970079422, 0.24767567217350006, -0.865308940410614, -0.17558889091014862, -0.028769074007868767, 0.29483649134635925, -0.06381984800100327, -0.1379980593919754, -0.2560924291610718, -0.23443715274333954, -0.09358759224414825, -0.22424890100955963, -0.09875702112913132, 0.052587978541851044, -0.03350062668323517, 0.29417672753334045, -0.03645475208759308, -0.1532747894525528, -0.23955340683460236, -0.1675056517124176, 0.004703195299953222, 0.023829609155654907, 0.013337327167391777, -0.19880305230617523, 0.22582942247390747, 0.0328134186565876, 0.09015641361474991, 0.3069576919078827, -0.08085338771343231, -0.1279425024986267, 0.2568303346633911, 0.08073382079601288, 0.0765785500407219, -0.19554731249809265, -0.0164528526365757, 0.1584516316652298, -0.1929783821105957, 0.13211816549301147, -0.12977375090122223, -0.05469772592186928, 0.13488060235977173, 0.1263660490512848, 0.06109904870390892, 0.14892049133777618], [-0.03433642163872719, -0.005057919770479202, 0.1526496261358261, 0.07215708494186401, 0.4004727005958557, 0.4726732075214386, -0.29193904995918274, 0.23497962951660156, -0.05654594302177429, -0.1691768318414688, 0.05993609130382538, -0.024532800540328026, 0.2225160449743271, -0.4869852066040039, 0.1539255529642105, 0.19130471348762512, 0.16051936149597168, 0.6402370929718018, -0.9776759743690491, 0.0784401074051857, -0.030064646154642105, -0.07422623038291931, 0.15688513219356537, 0.17078794538974762, 0.04778271168470383, -0.019087646156549454, -0.20135918259620667, 0.09134276211261749, 0.07230506837368011, -0.17762914299964905, 0.07074084877967834, 0.004635604564100504, 0.03504202887415886, -0.12603937089443207, 0.04156923666596413, 0.2139665186405182, -0.16764719784259796, -0.1269759088754654, -0.01634373888373375, 0.022216971963644028, -0.11496096104383469, -0.004321965854614973, -0.26289328932762146, -0.0920499935746193, -0.0869196355342865, -0.22813282907009125, 0.14576762914657593, -0.009067871607840061, -0.1893261820077896, -0.14942936599254608, 0.037787169218063354, 0.005348868668079376, 0.06893111765384674, -0.04237638786435127, -0.012786350212991238, 0.05380451679229736, -0.04870171844959259, 0.18766047060489655, 0.19314315915107727, -0.3568420708179474, -0.004758677911013365, 0.30021005868911743, -0.212148979306221, 0.2903082072734833, -0.1840948760509491, -0.18972405791282654, -0.1289595067501068, 0.2743551731109619, 0.21748240292072296, -0.13158470392227173, 0.5646371841430664, -0.07736384868621826, -0.011276157572865486, -0.2861543595790863, 0.02786499820649624, 0.10334502160549164, -0.001765196560882032, 0.28130096197128296, 0.04841523990035057, 0.2745765149593353, -0.0022413141559809446, -0.1837901473045349, -0.11253432929515839, -0.0008645555353723466, -0.024430133402347565, -0.055839598178863525, -0.146412655711174, -0.11532924324274063, -0.04430093988776207, 0.06931821256875992, -0.4222559332847595, 0.20570580661296844, -0.279848575592041, -0.13763274252414703, 0.12974904477596283, 0.1500530242919922, 0.08811262249946594, -0.12823757529258728, 0.4018714129924774, 0.03383453190326691, -0.2690197825431824, -0.08236716687679291, 0.03901942819356918, 0.10180633515119553, 0.06612805277109146], [0.027438512071967125, -0.30696555972099304, 0.17554308474063873, 0.06737906485795975, 0.2157050222158432, -0.028899818658828735, -0.36401867866516113, -0.18608224391937256, 0.15153110027313232, 0.4074079394340515, 0.216050386428833, 0.06260347366333008, 0.43265724182128906, 0.04096706211566925, 0.18540893495082855, 0.028156602755188942, -0.29511162638664246, -0.5031718015670776, 1.2291290760040283, 0.34865856170654297, -0.043846502900123596, 0.08529052883386612, 0.0858694389462471, -0.07934347540140152, 0.01680302619934082, 0.10614064335823059, 0.1955312043428421, -0.10009811818599701, 0.11333372443914413, -0.011720817536115646, 0.039742693305015564, 0.06799649447202682, 0.0583895742893219, -0.09129274636507034, -0.14090639352798462, 0.08938764780759811, -0.3280304968357086, 0.02482878975570202, -0.03758901730179787, -0.14178992807865143, -0.2902189791202545, 0.00781853124499321, 0.2881429195404053, -0.2689822018146515, -0.0706312283873558, 0.17681708931922913, -0.09240397065877914, 0.013764887116849422, -0.20358611643314362, 0.14073336124420166, -0.18148912489414215, -0.10425888746976852, 0.1618158519268036, 0.019521934911608696, 0.005510823801159859, 0.19512712955474854, 0.07038240134716034, 0.2254868745803833, -0.022108610719442368, 0.07064244151115417, -0.19922754168510437, -0.1238575130701065, 0.1145821288228035, -0.0530560240149498, 0.04497716575860977, 0.10503507405519485, 0.18585456907749176, -0.2513306438922882, 0.1231895387172699, 0.11030125617980957, -0.014999723061919212, -0.020381469279527664, 0.015787601470947266, 0.21182584762573242, -0.11106706410646439, -0.15955191850662231, -0.0329667404294014, -0.14389988780021667, -0.0795413926243782, -0.04360742121934891, -0.10049115866422653, 0.08964892476797104, -0.02674858458340168, -0.034465402364730835, 0.12532474100589752, -0.19622544944286346, 0.16005687415599823, -0.07233237475156784, -0.0370183102786541, -0.1963721513748169, -0.562181830406189, 0.6246069669723511, -0.00755622424185276, 0.05462603271007538, 0.21090757846832275, 0.16718851029872894, 0.06216462329030037, -0.02400941774249077, -0.175630122423172, -0.2481691986322403, -0.038088358938694, -0.12617933750152588, -0.018386589363217354, 0.10563290119171143, -0.05420210212469101], [-0.391411155462265, -0.036715686321258545, 0.08752229809761047, -0.13591594994068146, 0.9512969255447388, 0.12360527366399765, -0.061164192855358124, 0.1511160135269165, -0.05011463165283203, 0.025039101019501686, 0.18763653934001923, -0.02091246284544468, 0.06416882574558258, 0.0026917613577097654, 0.0614129900932312, 0.1398436427116394, 0.04487428069114685, 0.8787791728973389, -0.19627802073955536, 0.10903599113225937, 0.10442119091749191, 0.13210445642471313, 0.7750487327575684, -0.13941170275211334, 0.21912656724452972, -0.12926864624023438, 0.27076786756515503, -0.2071208953857422, 0.10363884270191193, -0.03158561512827873, -0.12645544111728668, 0.03773990646004677, 0.031738605350255966, 0.04100046679377556, -0.08492659777402878, 0.10597029328346252, 0.06316325813531876, 0.026331409811973572, 0.004646173678338528, 0.075213722884655, -0.36625880002975464, -0.049450576305389404, -0.011058187112212181, 0.23800447583198547, 0.35647067427635193, -0.01096588559448719, 0.26531076431274414, -0.20142939686775208, 0.08980829268693924, -0.0033895298838615417, 0.12281062453985214, -0.036007240414619446, -0.09145910292863846, 0.012245244346559048, 0.05285406485199928, -0.2603614032268524, -0.015637310221791267, -0.11517175287008286, -0.20641399919986725, 0.9187339544296265, -0.27347350120544434, -0.2441323846578598, -0.005865581799298525, -0.2685776650905609, -0.10611739009618759, 0.2770121395587921, 0.9639886617660522, 0.15428651869297028, -0.26119017601013184, -0.08275429904460907, -0.15583524107933044, 0.12419198453426361, 0.12857680022716522, 0.7344217896461487, -0.04366549849510193, -0.23078715801239014, 0.09178115427494049, -0.3508402705192566, -0.08785924315452576, 0.3485303223133087, 0.03178807348012924, 0.058335982263088226, -0.05682770907878876, -0.2735861539840698, -0.12646934390068054, 0.041834209114313126, 0.11570332944393158, -0.12118997424840927, -0.09421608597040176, -0.02458377741277218, 0.01022424828261137, -0.6506513357162476, 0.13390177488327026, 0.036408718675374985, 0.21796995401382446, 0.07087428122758865, 0.2536587715148926, 0.22043414413928986, -0.248917356133461, -0.17431654036045074, 0.020571131259202957, -0.05891353636980057, -0.16095873713493347, 0.034576062113046646, -0.017188191413879395], [0.09725584834814072, -0.0916854739189148, 0.23632963001728058, 0.08150514960289001, 0.4654160737991333, -0.029666217043995857, 0.2592160105705261, 0.13635867834091187, 0.14277057349681854, 0.2814311385154724, 0.042652677744627, 0.2040412724018097, -0.22926221787929535, 0.20131389796733856, -0.5361650586128235, 0.3585779070854187, 0.06549777835607529, 0.15181459486484528, -0.05178122967481613, 0.08550533652305603, 0.17264620959758759, 0.13319219648838043, 0.4289107024669647, 0.225071519613266, -0.12035083770751953, -0.17379209399223328, -0.1925755739212036, -0.08744847774505615, -0.19533954560756683, -0.3016897439956665, -0.12152662873268127, 0.06188981235027313, -0.006295630242675543, -0.013155559077858925, 0.059644557535648346, -0.175318643450737, -0.08620553463697433, 0.15741750597953796, -0.308176189661026, -0.021658334881067276, -0.008816930465400219, 0.1087002083659172, 0.3969440460205078, 0.14151841402053833, 0.4621115028858185, 0.14384840428829193, 0.2823891043663025, 0.16400772333145142, -0.11068376153707504, -0.0444641150534153, 0.17185929417610168, -0.05916691571474075, -0.12572665512561798, -0.02440720424056053, -0.1587071418762207, 0.04332179203629494, -0.01271708495914936, -0.14640621840953827, -0.02131688967347145, -0.6278612613677979, -0.40570518374443054, -0.14803339540958405, -0.2292945384979248, 0.523091197013855, 0.00497193681076169, -0.39886045455932617, -0.40997302532196045, -0.416981041431427, -0.1745365411043167, -0.1264512687921524, 0.7970358729362488, 0.11203832924365997, 0.028309892863035202, -0.43827611207962036, -0.21534334123134613, -0.10287820547819138, 0.010932350531220436, 0.31459563970565796, -0.37263527512550354, -0.09678288549184799, 0.10791468620300293, -0.027934959158301353, -0.23180809617042542, -0.16450883448123932, 0.17798647284507751, -0.1168779656291008, 0.06848645210266113, 0.0940914899110794, -0.03893064334988594, 0.19269602000713348, -0.6650123596191406, 1.5103809833526611, -0.43695056438446045, -0.2330467253923416, -0.0918455570936203, -0.28034278750419617, 0.004888796713203192, -0.01476634293794632, 0.17155475914478302, -0.3165513277053833, 0.0773409754037857, 0.027001554146409035, -0.31592750549316406, -0.14368291199207306, 0.19751563668251038], [-0.14512816071510315, -0.19030220806598663, -0.09028482437133789, 0.12477859854698181, -0.5001026391983032, -0.11243844777345657, -0.12010892480611801, -0.012062464840710163, 0.609164297580719, 0.12039661407470703, -0.11719021201133728, 0.12988226115703583, 0.4271221458911896, 0.10518578439950943, -0.03733982890844345, 0.09874704480171204, -0.0004597066144924611, 0.12061871588230133, -1.33525550365448, 0.31566494703292847, 0.10467536002397537, 0.011698906309902668, 0.6702942848205566, -0.12952379882335663, -0.23893380165100098, 0.028820296749472618, -0.011467627249658108, 0.02650599554181099, 0.0227068942040205, 0.07435218244791031, -0.11972208321094513, 0.22665993869304657, -0.003779706312343478, 0.17508423328399658, -0.015163011848926544, 0.12205328792333603, 0.009260867722332478, 0.0600789338350296, 0.18526791036128998, 0.14088991284370422, -0.002560084220021963, -0.2926255166530609, -0.1646539568901062, -0.2139120101928711, -0.3506203889846802, 0.1057012751698494, -0.26260054111480713, -0.010682748630642891, -0.08568018674850464, -0.12307801097631454, 0.13304194808006287, 0.0054409084841609, -0.12364653497934341, -0.12060978263616562, 0.31863656640052795, 0.17977674305438995, -0.09903303533792496, -0.053397875279188156, -0.4164840877056122, -0.16418792307376862, -0.1602770835161209, -0.08455094695091248, 0.061704669147729874, 0.22538606822490692, -0.2783057987689972, -0.14599138498306274, 0.09325842559337616, 0.061195071786642075, 0.04412047192454338, 0.00036250866833142936, -0.06787476688623428, -0.32066744565963745, -0.055240899324417114, -0.027289623394608498, -0.11279817670583725, 0.035819847136735916, -0.08491230010986328, -0.15860551595687866, 0.17315685749053955, 0.3676043152809143, 0.34503594040870667, 0.07689450681209564, 0.3771878778934479, -0.39520561695098877, 0.20708835124969482, 0.05345897749066353, 0.3119511604309082, 0.20609870553016663, -0.165474534034729, -0.08353938907384872, -0.5224159955978394, 0.11442071944475174, 0.16253702342510223, 0.08018519729375839, 0.21208149194717407, -0.014328863471746445, 0.14184680581092834, 0.07519327104091644, 0.32477569580078125, -0.028296640142798424, 0.14841723442077637, 0.09086886793375015, -0.004649079404771328, 0.025019437074661255, -0.24597840011119843], [-0.008983546867966652, -0.2110554575920105, -0.17152142524719238, -0.07339926809072495, -0.1563795655965805, -0.36446014046669006, -0.1697874218225479, -0.3774386942386627, -0.02563650906085968, 0.39406201243400574, -0.00027616380248218775, 0.019634056836366653, -0.0035367715172469616, 0.1501222848892212, -0.15614068508148193, 0.8419424295425415, 0.3196643888950348, 0.9945639967918396, 0.2416781187057495, 0.09013132005929947, -0.07093509286642075, 0.20671583712100983, 0.22566676139831543, 0.10401403903961182, -0.04209098592400551, -0.08659075200557709, 0.039001017808914185, 0.07372138649225235, 0.06299326568841934, -0.1533680409193039, -0.09479723125696182, 0.21269315481185913, 0.07847064733505249, 0.23760800063610077, -0.09176988154649734, -0.08072412014007568, -0.20723342895507812, 0.15099717676639557, 0.17211121320724487, 0.2885822057723999, 0.3523511588573456, -0.04438586160540581, -0.25992462038993835, -0.12687280774116516, 0.07333698123693466, 0.16524136066436768, -0.15391163527965546, -0.05688131973147392, 0.09819747507572174, 0.05163302272558212, -0.07881836593151093, -0.12770748138427734, -0.10176631808280945, -0.08499608188867569, -0.14167429506778717, 0.0964750200510025, -0.11159251630306244, 0.055948302149772644, 0.09960963577032089, -0.04547202214598656, 0.1350347250699997, 0.023600298911333084, 0.21675977110862732, 0.259308785200119, 0.15476106107234955, -0.055730145424604416, 0.2161293774843216, 0.009479423984885216, 0.07667573541402817, -0.07488074898719788, 0.016996771097183228, 0.26262977719306946, -0.13118697702884674, 0.5151640176773071, -0.3346095383167267, 0.19101959466934204, -0.0478946678340435, -0.06063989922404289, 0.053159333765506744, 0.055939074605703354, -0.3415673077106476, 0.10567716509103775, -0.03661755844950676, 0.056274063885211945, -0.15588806569576263, -0.15446950495243073, -0.1687571406364441, 0.21876682341098785, -0.17607134580612183, -0.06920116394758224, 0.49714380502700806, 0.18600817024707794, -0.19227083027362823, -0.1302483081817627, 0.1290881633758545, -0.11502770334482193, 0.02653541788458824, -0.02133527398109436, 0.11240372806787491, -0.1561543047428131, 0.12242306768894196, -0.11812431365251541, -0.016150085255503654, -0.09922203421592712, -0.42835915088653564], [0.0010840656468644738, -0.2367561310529709, 0.16071099042892456, 0.13938288390636444, 0.24346739053726196, 0.14569726586341858, -0.14961399137973785, -0.07671010494232178, -0.06431496888399124, 0.5000908374786377, -0.27241119742393494, 0.026437044143676758, -0.3289667069911957, -0.35284510254859924, -0.22031787037849426, -0.15250705182552338, -0.20991010963916779, -0.24576881527900696, 0.9645776748657227, -0.11173716187477112, 0.1700628399848938, -0.12118151038885117, 0.05988120660185814, 0.07306863367557526, -0.33979204297065735, -0.25427955389022827, -0.07841914147138596, -0.2147534191608429, 0.29150253534317017, -0.025888366624712944, -0.1078764945268631, 0.11708137392997742, 0.050100721418857574, -0.19064293801784515, 0.006867709569633007, 0.17033398151397705, 0.014160607010126114, 0.3210517168045044, 0.2709042727947235, 0.06336813420057297, -0.00023098582460079342, -0.06061127036809921, -0.059595152735710144, -0.23752005398273468, -0.08922023326158524, -0.33965933322906494, -0.019807105883955956, -0.1844126582145691, 0.0258936807513237, -0.06649847328662872, -0.03564810752868652, 0.028002848848700523, -0.15068724751472473, -0.052474502474069595, 0.23206621408462524, 0.2504522204399109, -0.2960948646068573, -0.21228131651878357, -0.03495233878493309, 0.4998384714126587, -0.3161592483520508, 0.36208057403564453, 0.05043475329875946, -0.16622337698936462, -0.09511321038007736, -0.062465742230415344, 0.1726885586977005, -0.2318369299173355, 0.23662395775318146, -0.1668120175600052, -0.14196743071079254, -0.16808362305164337, -0.28539755940437317, -0.10068140923976898, 0.3959631025791168, 0.48525071144104004, -0.12097761780023575, -0.2072743922472, 0.17634478211402893, 0.21395638585090637, -0.06837968528270721, -0.03266259655356407, 0.04660845175385475, -0.16813866794109344, -0.036449134349823, 0.12837547063827515, 0.1453646421432495, -0.058477118611335754, 0.02504139393568039, 0.09950800240039825, 0.4800935387611389, 0.6862280964851379, 0.14296238124370575, 0.017671359702944756, -0.11352720111608505, -0.088595449924469, -0.1274038702249527, 0.20627328753471375, -0.0776968002319336, -0.16574427485466003, 0.027089126408100128, 0.025096043944358826, 0.15267696976661682, -0.2591598629951477, -0.16890427470207214], [0.11839515715837479, -0.04550788179039955, -0.08598065376281738, -0.1440887153148651, -0.3973199725151062, -0.09843887388706207, -0.1506562978029251, 0.06411364674568176, 0.28146857023239136, -0.18451941013336182, -0.06540031731128693, 0.09054704755544662, 0.425311803817749, 0.2483736276626587, 0.20003728568553925, 0.0634055882692337, -0.037902750074863434, 0.07557246834039688, -1.4343894720077515, -0.38372230529785156, 0.04249303415417671, -0.0887107327580452, -0.1549154371023178, 0.19999592006206512, -0.15121616423130035, -0.10761021822690964, -0.21821725368499756, 0.16246935725212097, -0.03508181869983673, 0.05410810932517052, 0.06278584152460098, 0.10444182902574539, -0.0038759801536798477, 0.2612566351890564, 0.137747123837471, 0.10938949137926102, -0.2123992145061493, 0.11536498367786407, 0.043929342180490494, 0.02822461910545826, -0.19305568933486938, -0.14875832200050354, 0.043398674577474594, 0.14113207161426544, -0.08521747589111328, 0.04559868574142456, 0.00724775018170476, -0.019046438857913017, 0.006968603003770113, -0.1278882920742035, 0.16201697289943695, 0.17345833778381348, 0.1303427368402481, -0.04766911640763283, -0.06448771059513092, -0.21223126351833344, 0.11518555134534836, -0.14555054903030396, -0.07868478447198868, -0.025592081248760223, 0.2521200180053711, -0.040956754237413406, -0.011208979412913322, 0.35814857482910156, -0.11937262862920761, -0.07031382620334625, -0.29528236389160156, 0.15603210031986237, 0.06219698488712311, 0.1832788586616516, -0.018998941406607628, 0.12323852628469467, -0.06675222516059875, -0.10245354473590851, 0.04468287155032158, 0.0241745226085186, 0.1489536464214325, -0.05646253377199173, -0.2591969966888428, -0.16164344549179077, -0.09296093136072159, 0.07023704051971436, -0.07217724621295929, -0.15505823493003845, 0.0355222225189209, 0.13296106457710266, 0.008235255256295204, -0.266282320022583, 0.007295347284525633, 0.15550799667835236, 0.44605326652526855, -0.5537681579589844, 0.14043202996253967, 0.03381497040390968, -0.03810642287135124, -0.1830357313156128, 0.13929753005504608, -0.2163352519273758, 0.300629198551178, 0.17206580936908722, 0.07062134891748428, 0.2487523853778839, -0.008691481314599514, -0.028414582833647728, 0.5761095881462097], [-0.11801005899906158, 0.08850792795419693, -0.22390665113925934, 0.03806378319859505, 0.5369240045547485, 0.03610860928893089, -0.17609116435050964, 0.0087879728525877, -0.13028781116008759, -0.1125185489654541, -0.09812518209218979, 0.04521575942635536, -0.27947181463241577, -0.17472153902053833, -0.13183511793613434, 0.2997627854347229, 0.1515178233385086, 0.11497198790311813, -0.130735844373703, 0.06976426392793655, -0.02236853539943695, -0.12288327515125275, -0.05772437900304794, -0.22137466073036194, -0.13523714244365692, -0.035807251930236816, -0.13395485281944275, 0.2225675731897354, -0.024178216233849525, 0.01595887914299965, 0.17982204258441925, 0.1359863132238388, -0.31996792554855347, -0.1652347296476364, -0.09906771034002304, 0.0003959645109716803, -0.020614957436919212, 0.23089271783828735, 0.25564882159233093, 0.08066577464342117, 0.03915594145655632, -0.010832879692316055, -0.5842078924179077, -0.39863333106040955, -0.006144141778349876, -0.05770041048526764, 0.020167293027043343, -0.03130881115794182, 0.12948285043239594, -0.08307956159114838, 0.12620876729488373, 0.18000313639640808, 0.10613387823104858, 0.01121614035218954, 0.17819449305534363, -0.09077421575784683, 1.4039515008335002e-05, -0.05548863485455513, 0.05078549683094025, 0.34207412600517273, 0.000692386063747108, -0.17921820282936096, 0.18919290602207184, -0.2515747547149658, 0.31756386160850525, -0.08015014231204987, 0.14048370718955994, 0.23589448630809784, -0.03640160337090492, -0.06319485604763031, 0.1631738543510437, 0.09189385920763016, -0.0005733394646085799, 0.015541409142315388, 0.09882531315088272, -0.12341894209384918, 0.09164505451917648, 0.4935065507888794, 0.005927491933107376, -0.05743930861353874, -0.18514811992645264, 0.0732877105474472, -0.15558727085590363, 0.3304826319217682, -0.10380204766988754, 0.21060499548912048, -0.26490509510040283, -0.13252556324005127, 0.1963764876127243, -0.08604966849088669, -0.6778153777122498, 0.6836267709732056, 0.05606011673808098, -0.13768449425697327, 0.20947930216789246, 0.32382509112358093, -0.27193009853363037, 0.006277752574533224, 0.3834291398525238, 0.11623160541057587, 0.28737062215805054, 0.08272596448659897, -0.025706464424729347, -0.2388402372598648, -0.07153917104005814], [0.31087642908096313, 0.030954688787460327, 0.2779867649078369, -0.23686261475086212, -0.6071711182594299, 0.22770580649375916, 0.14256252348423004, 0.21031296253204346, 0.23547303676605225, -0.09453600645065308, -0.16119016706943512, 0.0051834299229085445, -0.28661638498306274, 0.48270896077156067, -0.01176800299435854, -0.05392993986606598, -0.05862380191683769, 0.016840413212776184, 2.176316022872925, -0.6036601662635803, -0.07607122510671616, -0.017740001901984215, 0.1094353199005127, 0.03138001635670662, -0.18674945831298828, 0.06460337340831757, 0.12073102593421936, 0.005395791959017515, 0.00863199308514595, 0.16959768533706665, -0.0349879153072834, 0.14354178309440613, -0.06117731332778931, -0.03612705320119858, 0.18405747413635254, -0.04331447184085846, 0.007211912423372269, -0.0051405346021056175, -0.1279124617576599, 0.15909059345722198, 0.14775578677654266, -0.4146948754787445, -0.10574666410684586, 0.12633347511291504, 0.05845462158322334, 0.020843278616666794, 0.03765140101313591, -0.014786972664296627, -0.11604005098342896, -0.14608904719352722, -0.010935499332845211, -0.02710406854748726, -0.06351745128631592, -0.20995575189590454, 0.08398894965648651, 0.15063932538032532, 0.13899628818035126, 0.0082346610724926, 0.08820582181215286, -0.18744149804115295, -0.06602897495031357, 0.0543091744184494, 0.030895857140421867, 0.4259920120239258, 0.16796106100082397, 0.024020658805966377, 0.1905277520418167, -0.3600175678730011, 0.057390905916690826, -0.13064295053482056, -0.0484231635928154, 0.03483358770608902, 0.16711963713169098, -0.02381259761750698, 0.079997718334198, -0.008016049861907959, 0.04756169393658638, 0.09246764332056046, 0.1542152315378189, 0.17283809185028076, -0.16256414353847504, -0.09729240089654922, 0.17355604469776154, -0.13147389888763428, -0.10150744765996933, 0.06019866466522217, 0.058758385479450226, -0.0015135504072532058, -0.05801527947187424, -0.11760827898979187, 0.11909517645835876, -0.2568593919277191, -0.042745571583509445, -0.10172493755817413, -0.06634976714849472, 0.029539844021201134, 0.12723268568515778, 0.19348107278347015, 0.09937591850757599, -0.03566809371113777, -0.047459349036216736, -0.15543214976787567, 0.2095509022474289, 0.05591294541954994, 0.055742550641298294], [-0.07264142483472824, 0.12622538208961487, -0.009517756290733814, -0.08607159554958344, 1.6404602527618408, 0.03314732015132904, -0.043786317110061646, 0.15850546956062317, 0.0709853395819664, 0.294543594121933, 0.055346980690956116, -0.23031894862651825, -0.27537834644317627, 0.255881130695343, -0.4804491698741913, -0.13869640231132507, 0.492263525724411, 0.0031411072704941034, -0.10071078687906265, 0.0035999990068376064, 0.09876161813735962, -0.1249750554561615, 0.09482882916927338, -0.08579805493354797, 0.19326572120189667, -0.0336432047188282, 0.07021529972553253, 0.15278682112693787, -0.10439956933259964, 0.12601076066493988, 0.07814376801252365, -0.07915973663330078, 0.23559464514255524, 0.3033577501773834, -0.08677986264228821, 0.08501662313938141, 0.2726326882839203, 0.05050009489059448, 0.04204677417874336, -0.15800277888774872, 0.060858353972435, -0.0013367867795750499, -0.1590321660041809, -0.06824611872434616, -0.11498253792524338, -0.10183127969503403, 0.041156407445669174, 0.20401525497436523, 0.04336589574813843, -0.015867844223976135, -0.15292739868164062, 0.07245872914791107, -0.05000970885157585, -0.10384321212768555, 0.017319591715931892, 0.0515902116894722, -0.16940146684646606, 0.23643766343593597, -0.2403702437877655, -0.14236889779567719, -0.0198828037828207, 0.07665900141000748, -0.052487850189208984, -0.2110794335603714, 0.0030155088752508163, 0.1741572618484497, -0.35064566135406494, -0.25420188903808594, 0.1562352478504181, 0.2149224728345871, 0.08390457183122635, 0.33009299635887146, 0.17233771085739136, -0.16199231147766113, -0.02426251396536827, 0.13641317188739777, 0.05729825049638748, 0.33758020401000977, -0.047312866896390915, 0.5042408108711243, 0.11631762236356735, 0.09078288823366165, -0.17548184096813202, -0.03569761663675308, 0.10712841898202896, -0.010898588225245476, -0.16118429601192474, 0.2376590520143509, 0.09703332930803299, -0.23139074444770813, -0.475968599319458, 0.17881789803504944, -0.19381195306777954, 0.2848765552043915, -0.0321178138256073, -0.10173632949590683, 0.056548506021499634, 0.0801638513803482, 0.12050345540046692, -0.0032046986743807793, -0.1420426070690155, 0.1372928023338318, -0.22401177883148193, -0.015747006982564926, -0.018246596679091454], [-0.2164342701435089, 0.4237784445285797, 0.4592618942260742, 0.3024669885635376, -0.4218984544277191, -0.2403479665517807, -0.243263378739357, -0.36656877398490906, -0.3613581955432892, -0.0960729792714119, 0.03694181889295578, 0.10855112224817276, -0.5855062007904053, 0.0011718625901266932, -0.049812279641628265, 0.15387234091758728, -0.4022824764251709, -0.00940944254398346, -0.11134769022464752, -0.08690702170133591, -0.05127786099910736, -0.06303644180297852, 0.7137627005577087, 0.013777051120996475, -0.3206987679004669, -0.18166790902614594, 0.20513932406902313, 0.43545976281166077, 0.06300565600395203, -0.17915789783000946, -0.025664333254098892, 0.08194990456104279, -0.09292621910572052, 0.19563628733158112, 0.04534989967942238, 0.11140040308237076, 0.08692767471075058, -0.030529987066984177, -0.17937719821929932, -0.26653653383255005, -0.5018173456192017, -0.21981662511825562, 0.17501431703567505, 0.18961909413337708, 0.037396129220724106, -0.0020359407644718885, 0.17730103433132172, 0.12687189877033234, -0.246261864900589, 0.04011108726263046, -0.06057646870613098, 0.20513121783733368, -0.07214253395795822, -0.01695243827998638, -0.00534053286537528, -0.14417633414268494, -0.24133022129535675, -0.0033371876925230026, -0.16404308378696442, -0.14122021198272705, -0.009507020935416222, -0.15296615660190582, -0.2251916080713272, 0.323517769575119, 0.39514198899269104, -0.29191383719444275, -0.4865376949310303, -0.2610255181789398, -0.15490125119686127, -0.023756984621286392, 0.048140738159418106, 0.01073762122541666, -0.07376253604888916, -0.17305722832679749, 0.06214720383286476, -0.0883924663066864, -0.1255921572446823, 0.31707361340522766, -0.0044256108812987804, -0.13808658719062805, 0.029583146795630455, -0.18681247532367706, -0.07840684801340103, 0.07254257798194885, -0.08843433111906052, 0.36460185050964355, -0.14775481820106506, -0.09183895587921143, 0.08902233093976974, -0.10345255583524704, 0.4715688228607178, -0.6606107354164124, -0.14833848178386688, -0.015305361710488796, 0.11312994360923767, -0.010384809225797653, 0.018238049000501633, -0.241095170378685, -0.032483141869306564, -0.03345874324440956, 0.06648916006088257, 0.031683288514614105, 0.13106980919837952, 0.2233065366744995, 0.009745381772518158], [0.12180295586585999, -0.15980394184589386, -0.005964397452771664, 0.25173258781433105, -1.6277941465377808, -0.20267562568187714, 0.0721503496170044, -0.13737861812114716, 0.13818708062171936, -0.008069601841270924, 0.4103664457798004, -0.02705276384949684, 0.303139328956604, -0.18733832240104675, -0.097380630671978, -0.058850906789302826, -0.29258161783218384, -0.21705001592636108, 0.037743281573057175, 0.40799540281295776, -0.0037176485639065504, 0.0563962496817112, 0.12330940365791321, -0.25299522280693054, 0.12268553674221039, -0.053029581904411316, 0.22552287578582764, -0.10944852977991104, 0.21582330763339996, 0.0254139956086874, 0.11291014403104782, 0.025712210685014725, 0.14431658387184143, -0.15942765772342682, -0.0001935681066242978, 0.17641502618789673, -0.1639901101589203, -0.059195131063461304, 0.0016085521783679724, 0.0012820407282561064, 0.11526580899953842, 0.15778383612632751, 0.020234014838933945, -0.07169209420681, 0.03176430985331535, 0.019099438562989235, -0.14981527626514435, -0.05428066849708557, -0.12814441323280334, 0.04225112870335579, 0.02908002771437168, 0.18295863270759583, 0.010073824785649776, -0.12722676992416382, 0.0853390097618103, -0.10563787072896957, 0.27539998292922974, -0.12866586446762085, -0.09039201587438583, -0.36004045605659485, -0.03437976539134979, 0.1814970225095749, -0.054365374147892, 0.46290352940559387, -0.05822980776429176, -0.04473252221941948, 0.20956358313560486, -0.17910249531269073, 0.09446582943201065, 0.1394757181406021, 0.2539772093296051, 0.05650658532977104, -0.0838395208120346, 0.10776761174201965, -0.09433732181787491, -0.10636011511087418, 0.08609368652105331, -0.18447063863277435, 0.09160750359296799, 0.13854123651981354, 0.19287362694740295, -0.19494448602199554, -0.1329720914363861, 0.015690878033638, -0.02512248419225216, 0.2642342746257782, -0.03798840567469597, 0.1403222531080246, -0.19158326089382172, -0.03508938103914261, 0.4272505044937134, 0.13506001234054565, 0.028435101732611656, 0.1032428964972496, 0.008178850635886192, -0.28080448508262634, -0.16460055112838745, 0.03655945137143135, -0.01161113753914833, -0.17650189995765686, 0.12223391234874725, 0.17737111449241638, -0.01877491921186447, 0.022356772795319557, -0.2309129536151886], [-0.1981513947248459, -0.008605025708675385, 0.1284235119819641, 0.10078269988298416, 0.04584842920303345, -0.09880448132753372, -0.15405365824699402, 0.04002825915813446, 0.1503850668668747, -0.2828316390514374, -0.21098466217517853, -0.2131534218788147, 0.26119348406791687, 0.3666421175003052, 0.18739065527915955, -0.08634967356920242, -0.2781677842140198, 0.03544538468122482, -0.01955731213092804, 0.14045417308807373, 0.1577097326517105, 0.0550851933658123, 0.1864374727010727, 0.16316662728786469, -0.09460391849279404, 0.00482665142044425, -0.031990550458431244, 0.08736476302146912, -0.028873050585389137, -0.10503016412258148, 0.014722414314746857, 0.12402457743883133, 0.23663891851902008, 0.059028033167123795, 0.07415832579135895, -0.08469515293836594, -0.03485075384378433, 0.1329919546842575, 0.18603190779685974, 0.15282200276851654, 0.1273370087146759, 0.044828034937381744, 0.2656155228614807, 0.16988588869571686, -0.12948773801326752, 0.10897232592105865, 0.03549313172698021, -0.19526413083076477, 0.023184949532151222, 0.24184848368167877, 0.09993985295295715, -0.09436754882335663, 0.15749455988407135, 0.0909518301486969, -0.01799830049276352, 0.2891177535057068, -0.0979103073477745, -0.030949272215366364, -0.4959724247455597, 1.1775044202804565, -0.48842179775238037, -0.1449107676744461, -0.08757349848747253, -0.6755406260490417, 0.167075514793396, -0.2962237298488617, 0.35149919986724854, -0.00044039165368303657, -0.13517917692661285, 0.00385272060520947, -0.6064589023590088, -0.21566930413246155, -0.22499875724315643, 0.20435962080955505, -0.24202513694763184, -0.2504059672355652, -0.026010382920503616, -0.551876425743103, 0.1143421083688736, 0.10533694177865982, -0.06224191188812256, -0.02164538949728012, -0.23351609706878662, -0.2838385999202728, 0.1694267988204956, -0.18273718655109406, 0.08778556436300278, -0.2019820511341095, 0.05093200132250786, 0.07552935928106308, 0.6292147040367126, 0.13971465826034546, 0.0919894203543663, -0.1678914725780487, -0.18322518467903137, -0.0003816680400632322, -0.10115092247724533, 0.26166272163391113, -0.12926417589187622, -0.0289204902946949, -0.08277267962694168, 0.0059306747280061245, 0.008435415104031563, -0.18726536631584167, 0.2517474591732025], [-0.10977272689342499, -0.0028930639382451773, -0.11352909356355667, -0.0029693490359932184, 3.6006641387939453, -0.10410811752080917, 0.08179891854524612, -0.05526663735508919, -0.23982079327106476, -0.22495092451572418, -0.19720448553562164, -0.21194078028202057, -0.48780927062034607, -0.3322280943393707, -0.05013340711593628, -0.17640456557273865, 0.06627880781888962, 0.39540621638298035, -0.11467565596103668, 0.17595569789409637, -0.017676200717687607, -0.08943767845630646, -0.08408059924840927, 0.23287394642829895, -0.03219509497284889, 0.16786204278469086, 0.08822232484817505, -0.02177058346569538, 0.05658050626516342, -0.11961907148361206, 0.06389888375997543, 0.1839035302400589, -0.2221323549747467, -0.16679348051548004, -0.23334796726703644, 0.16463449597358704, -0.20717273652553558, 0.1298683136701584, 0.04780028760433197, -0.012995761819183826, -0.08490139245986938, 0.18044301867485046, -0.07092861086130142, -0.06965149194002151, 0.07885810732841492, -0.18845593929290771, -0.05799862742424011, -0.09454205632209778, -0.09376665949821472, 0.06679540872573853, 0.038671981543302536, -0.007692032027989626, 0.05608917400240898, -0.21199902892112732, 0.028715286403894424, 0.03313117101788521, 0.0714130848646164, -0.013504338450729847, -0.12968400120735168, 0.567827582359314, 0.17636245489120483, -0.03338347002863884, -0.037900377064943314, -0.3816826641559601, 0.27645400166511536, -0.09390638768672943, 0.3926027715206146, -0.05025618150830269, -0.0031438306905329227, 0.009530692361295223, -0.4321756064891815, 0.05848170444369316, 0.02260720729827881, 0.20365013182163239, 0.16789518296718597, 0.003745123278349638, -0.011987422592937946, -0.24617834389209747, -0.02017383836209774, 0.09196522831916809, -0.08936470746994019, 0.3313007056713104, 0.1752263754606247, 0.14336515963077545, -0.07261554151773453, 0.09639377146959305, 0.053065065294504166, -0.13722968101501465, -0.2058275192975998, -0.12010402977466583, 0.14832615852355957, 0.13162358105182648, 0.1545497626066208, 0.015597024001181126, 0.02125154808163643, 0.0905258059501648, 0.2746320962905884, -0.004164896905422211, -0.11960600316524506, 0.10192485898733139, -0.06343930959701538, -0.12536366283893585, 0.0640716627240181, 0.14174817502498627, -0.28071266412734985], [-0.009284136816859245, -0.08549746870994568, 0.01923808455467224, 0.17550724744796753, -0.27757224440574646, 0.047792598605155945, 0.06963687390089035, -0.10577051341533661, 0.04415631294250488, -0.38740023970603943, -0.0856173038482666, 0.3284163177013397, 0.3636845350265503, -0.03113456256687641, 0.001935485634021461, 0.1523902863264084, -0.17287646234035492, 0.27251943945884705, 2.790703535079956, -0.37693116068840027, -0.06542685627937317, 0.07289569824934006, -0.0019540097564458847, 0.025316739454865456, 0.048181045800447464, 0.0994323119521141, -0.02429143525660038, 0.10751029849052429, -0.11451279371976852, -0.03713257238268852, 0.11687199026346207, -0.2554144859313965, 0.05689772963523865, -0.08932388573884964, -0.0034182441886514425, -0.11457062512636185, -0.044420208781957626, 0.047302648425102234, 0.19618356227874756, -0.05214836820960045, 0.16488942503929138, 0.24334390461444855, -0.02631835639476776, -0.03002169542014599, -0.22241519391536713, -0.09245963394641876, -0.11071505397558212, -0.11653827130794525, 0.17240920662879944, 6.02516156504862e-05, -0.1451149880886078, 0.2048417031764984, -0.2010427564382553, -0.13160927593708038, 0.12981946766376495, -0.05482944846153259, 0.10502072423696518, 0.05485783889889717, -0.05409516021609306, -0.18916191160678864, -0.1592968851327896, 0.07147210836410522, 0.028032198548316956, 0.29689207673072815, -0.14419224858283997, 0.08591413497924805, -0.17602013051509857, 0.2818622589111328, -0.029784301295876503, 0.03216657415032387, 0.38772740960121155, -0.03895806521177292, 0.0679793730378151, -0.15511004626750946, 0.1049899235367775, -0.04999292269349098, -0.01975553296506405, 0.13262557983398438, -0.1625853180885315, 0.12427793443202972, -0.15024206042289734, 0.07723703980445862, -0.23946453630924225, 0.012373608537018299, -0.08668423444032669, -0.15397946536540985, -0.120142363011837, -0.043976448476314545, -0.0175939854234457, -0.05940663442015648, 0.421989768743515, -0.08165491372346878, -0.10865350067615509, -0.19312651455402374, -0.052621085196733475, 0.18355751037597656, 0.4554619789123535, -0.11120983958244324, -0.17506399750709534, -0.08651231974363327, -0.06761643290519714, 0.10955071449279785, -0.03156783804297447, 0.02148914895951748, 0.06252886354923248], [0.02610202133655548, 0.22863130271434784, 0.5166566967964172, -0.20469903945922852, 0.1160728931427002, -0.17054252326488495, 0.35544559359550476, 0.10788044333457947, 0.02956458181142807, 0.0716312825679779, 0.40086036920547485, -0.03465542942285538, -0.2601369619369507, 0.19772201776504517, 0.006931579206138849, -0.09466218203306198, -0.017070433124899864, 0.28169113397598267, 0.6391263604164124, 0.41589847207069397, 0.14814600348472595, -0.3078569173812866, 0.388762891292572, -0.12303471565246582, -0.5665643811225891, 0.04628051072359085, -0.40177467465400696, -0.016532331705093384, -0.022529568523168564, 0.019825594499707222, 0.1415281891822815, -0.18733763694763184, -0.010086107067763805, 0.11044936627149582, -0.08535488694906235, -0.2970394492149353, -0.25264212489128113, -0.326288104057312, -0.40784889459609985, -0.35352620482444763, -0.24381686747074127, 0.03707020357251167, 0.24047091603279114, 0.15502189099788666, 0.13525570929050446, 0.10088256001472473, 0.14780719578266144, 0.022054236382246017, -0.03017614223062992, 0.03214000165462494, -0.00516887241974473, 0.10664134472608566, -0.1925216019153595, 0.17060256004333496, 0.13451290130615234, 0.05986736714839935, 0.21289798617362976, 0.07743556052446365, -0.3059637248516083, 0.24814924597740173, 0.1841609925031662, 0.24482566118240356, 0.3285711705684662, -0.0807315781712532, 0.21438172459602356, 0.04005727171897888, 0.04594435170292854, 0.18734341859817505, 0.23183870315551758, 0.1317589432001114, 0.02299230918288231, -0.08645229041576385, -0.0971040204167366, -0.13614729046821594, 0.010614379309117794, 0.44958868622779846, 0.13673733174800873, 0.22084791958332062, 0.03604484722018242, 0.10940516740083694, -0.10676532983779907, 0.09764806926250458, -0.029003947973251343, 0.2114829570055008, 0.054882731288671494, -0.30322182178497314, 0.042751580476760864, 0.264023095369339, -0.05720638111233711, 0.03831161558628082, 0.19427916407585144, -0.7268902659416199, -0.3112250566482544, -0.21816356480121613, -0.10250786691904068, -0.011877821758389473, 0.14793047308921814, -0.25125035643577576, -0.1047050878405571, 0.028057660907506943, -0.06990380585193634, -0.11604846268892288, 0.05107295513153076, -0.13582521677017212, 0.007628846913576126], [-0.090059794485569, 0.19065642356872559, -0.022516988217830658, -0.09553268551826477, -0.43138790130615234, -0.04626518115401268, 0.30987751483917236, 0.2873779237270355, 0.18865570425987244, -0.009507901035249233, 0.10108797252178192, 0.11994171142578125, 0.08324231207370758, -0.04587114229798317, 0.03891225904226303, 0.5083886384963989, 0.17530420422554016, 0.7193818688392639, -2.108813762664795, 0.05090795457363129, -0.07758378237485886, 0.027944589033722878, -0.04526686295866966, 0.21007196605205536, 0.11756213009357452, -0.15755726397037506, -0.09488736838102341, -0.0982963815331459, -0.0611245222389698, 0.33312588930130005, 0.0017860119696706533, -0.14998511970043182, 0.250864714384079, 0.19361338019371033, 0.05847140774130821, 0.03174518793821335, -0.13947464525699615, -0.11085508018732071, -0.06617626547813416, 0.044534407556056976, 0.21326176822185516, -0.034055713564157486, -0.1089669018983841, -0.029500415548682213, 0.17368970811367035, 0.09041580557823181, 0.002565951319411397, 0.09868736565113068, 0.03951987251639366, -0.12484890222549438, 0.1675635427236557, 0.11379557102918625, -0.029652748256921768, -0.29375895857810974, 0.03237524628639221, 0.000309222552459687, -0.25899556279182434, -0.10294096916913986, 0.1118205264210701, -0.24848110973834991, -0.13915380835533142, -0.08274734020233154, -0.0355788916349411, 0.48251110315322876, 0.12026146054267883, 0.028064468875527382, 0.17650829255580902, 0.08179185539484024, 0.003562800120562315, 0.054371580481529236, 0.2117948830127716, -0.12724615633487701, 0.19395454227924347, 0.2464981973171234, -0.018757930025458336, -0.03199154883623123, -0.12482486665248871, -0.35560470819473267, -0.2617892622947693, -0.14698536694049835, -0.05187491700053215, -0.08055020123720169, 0.08771973848342896, -0.07960891723632812, -0.07969982177019119, -0.18880927562713623, 0.12534600496292114, 0.06186787411570549, 0.25715357065200806, 0.008492202498018742, 0.5635146498680115, -0.4193136394023895, 0.08269724994897842, 0.19818034768104553, -0.11621776968240738, 0.05104907974600792, 0.08077389001846313, -0.27295392751693726, -0.2631472051143646, 0.010769480839371681, 0.13625508546829224, 0.07117579132318497, 0.05800914391875267, -0.17192606627941132, 0.04165017604827881], [-0.08557659387588501, 0.0558188296854496, -0.2266046106815338, -0.30980145931243896, -0.4520714581012726, 0.041498903185129166, 0.1488242894411087, -0.10170365124940872, -1.2726049423217773, -0.8160402774810791, 0.07584159076213837, 0.03361009806394577, -0.7860948443412781, -0.45065706968307495, -0.43147987127304077, -0.3982122540473938, -0.12364187091588974, -0.6703172922134399, -0.23128756880760193, -0.11024291813373566, 0.3654555380344391, 0.09058269113302231, -0.05387168005108833, 0.09983112663030624, -0.47904425859451294, 0.04297677427530289, -0.1545570343732834, -0.20997847616672516, 0.06207145005464554, -0.04383992403745651, 0.019784005358815193, -0.08403622359037399, -0.1962030678987503, -0.38606131076812744, -0.002417371841147542, -0.02908889763057232, -0.19771461188793182, 0.09865126758813858, -0.12953464686870575, -0.4107586443424225, -0.2923806607723236, -0.25733235478401184, -0.3719215989112854, 0.18834957480430603, -0.15663930773735046, 0.2305358499288559, 0.32250306010246277, 0.3566133677959442, 0.09817101806402206, 0.13753071427345276, 0.14426574110984802, 0.06653450429439545, -0.14323925971984863, -0.09507172554731369, -0.11749403178691864, -0.2117665857076645, -0.13758830726146698, -0.008556924760341644, 0.003682052483782172, -0.1434439867734909, 0.38248783349990845, -0.020554138347506523, 0.05267607793211937, 0.32122692465782166, 0.005687071476131678, 0.11873704195022583, 0.018432533368468285, 0.20934705436229706, -0.1377965807914734, -0.13646961748600006, 0.47924086451530457, 0.03019076958298683, 0.06690200418233871, 0.36759570240974426, -0.05230129137635231, 0.001521371421404183, -0.22480881214141846, 0.15070752799510956, 0.31042343378067017, 0.2613373398780823, 0.5406546592712402, 0.30275851488113403, 0.030589047819375992, 0.052592918276786804, 0.5582675933837891, -0.4024202525615692, 0.0947195366024971, -0.034783728420734406, -0.04740197956562042, -0.02473202347755432, -0.5559821128845215, 0.5613701343536377, -0.20377875864505768, -0.05380728095769882, -0.7585892081260681, -0.4099782407283783, 0.322632372379303, 0.03987855464220047, -0.2635519504547119, 0.11217610538005829, -0.08553659915924072, 0.038929592818021774, -0.019519725814461708, -0.14800873398780823, 0.4092675447463989], [0.09978125244379044, 0.10321606695652008, 0.014523235149681568, -0.1711609661579132, -2.678022861480713, -0.25825804471969604, -0.02868822030723095, -0.39122772216796875, -0.34822410345077515, -0.10161959379911423, -0.18178915977478027, 0.1611371636390686, -0.041665371507406235, -0.23644444346427917, -0.3110644519329071, -0.13768646121025085, 0.06844040006399155, -0.3796689808368683, 0.27038976550102234, -0.06370803713798523, 0.1418776959180832, 0.04392828419804573, -0.046026840806007385, -0.3086831271648407, -0.2761448621749878, -0.03093831054866314, 0.06481420248746872, -0.14508216083049774, 0.19968102872371674, 0.05347945913672447, 0.013500639237463474, 0.3166779577732086, -0.020719220861792564, 0.0936066284775734, -0.09798962622880936, -0.17973071336746216, -0.16757714748382568, 0.1301622837781906, 0.057176537811756134, 0.02517484314739704, -0.07870607823133469, 0.2587544023990631, 0.2218610942363739, 0.19514738023281097, 0.1953265517950058, -0.1348302960395813, 0.042122773826122284, 0.14213895797729492, -0.11385420709848404, -0.110877625644207, 0.08633530884981155, 0.0180339515209198, 0.11876058578491211, 0.06957266479730606, -0.11233028024435043, -0.06034984067082405, -0.26981601119041443, -0.009470759890973568, 0.11823741346597672, -0.35956108570098877, 0.25137659907341003, 0.06774130463600159, -0.015800727531313896, 0.36828580498695374, -0.10810892283916473, 0.1254274845123291, 0.14437636733055115, -0.027523569762706757, 0.07543685287237167, 0.027740048244595528, 0.057067010551691055, -0.15306270122528076, 0.06923199445009232, 0.17946387827396393, -0.014706325717270374, -0.09165483713150024, 0.33392438292503357, -0.23334819078445435, 0.06925429403781891, 0.14671671390533447, -0.21676138043403625, -0.0653807669878006, 0.19522422552108765, 0.01193635631352663, 0.21778346598148346, 0.16909582912921906, -0.1424945592880249, -0.016650574281811714, 0.10844504833221436, -0.15082740783691406, -0.49863627552986145, 0.0382353849709034, 0.08533752709627151, -0.029790284112095833, -0.125150665640831, 0.291730672121048, 0.3004928529262543, 0.015663376078009605, 0.10552600026130676, -0.10151564329862595, -0.02702915482223034, 0.16526654362678528, -0.10676681995391846, -0.09218548983335495, -0.11429959535598755], [-0.22016243636608124, -0.13475559651851654, 0.07806885242462158, 0.06304692476987839, 0.0021876017563045025, 0.12986326217651367, 0.11195925623178482, -0.1330839991569519, -0.06011084094643593, -0.08860469609498978, 0.15317070484161377, -0.13451161980628967, -0.022764069959521294, 0.057315751910209656, 0.0906883254647255, 0.4795018136501312, 0.09466304630041122, 0.2688247859477997, 3.449943780899048, 0.11774613708257675, -0.01898030750453472, 0.21739499270915985, -0.07343896478414536, -0.1055338978767395, -0.025152817368507385, -0.11163516342639923, 0.0807141661643982, 0.1993745118379593, -0.15994034707546234, -0.04774034768342972, -0.07692132890224457, -0.25124213099479675, -0.07284052670001984, 0.061952292919158936, 0.13529610633850098, 0.06813289225101471, 0.06497284024953842, -0.045010875910520554, 0.1742127239704132, 0.052004922181367874, 0.040079500526189804, -0.04113663360476494, 0.18943201005458832, -0.14142319560050964, 0.01237642951309681, -0.00986117497086525, 0.07854820042848587, 0.06522499769926071, -0.09933140128850937, -0.18436406552791595, 0.21055857837200165, -0.1401670277118683, 0.047518081963062286, -0.015132060274481773, -0.08756747096776962, 0.05910893529653549, -0.14391934871673584, 0.017756791785359383, -0.16184569895267487, 0.20981398224830627, 0.05764150619506836, -0.18354597687721252, -0.10089592635631561, -0.06894533336162567, -0.11828254908323288, -0.069451242685318, 0.30578023195266724, -0.05738191306591034, -0.21324457228183746, -0.07004355639219284, -0.0444602333009243, 0.10886002331972122, 0.0554012805223465, 0.35262754559516907, -0.051943954080343246, -0.06554926931858063, 0.15641701221466064, -0.04028775170445442, -0.03398437425494194, 0.0970684140920639, 0.016116665676236153, 0.026272250339388847, 0.05077366530895233, 0.04182662442326546, -0.0004950502188876271, 0.13757914304733276, -0.044167567044496536, 0.01810007356107235, -0.13440431654453278, -0.021500706672668457, 0.3859168589115143, 0.12333900481462479, -0.0657709538936615, -0.07965714484453201, -0.007672877982258797, 0.0924157202243805, 0.08850446343421936, 0.14407402276992798, 0.09795380383729935, -0.04598215967416763, -0.03299691900610924, -0.033911582082509995, 0.1268298476934433, -0.0733395665884018, -0.03633642941713333], [-0.23900309205055237, 0.15811985731124878, -0.17714208364486694, 0.005611673928797245, 0.3447112739086151, -0.04282671958208084, 0.22464044392108917, -0.05705488845705986, 0.1737174242734909, -0.1954413652420044, -0.259873628616333, 0.08366840332746506, 1.260880470275879, 0.3040274381637573, 0.7296637892723083, 0.7665080428123474, -0.1658300757408142, 0.6246721744537354, 0.46104031801223755, 0.44035014510154724, 0.13848523795604706, -0.3412814438343048, 0.2722904682159424, 0.1887711137533188, -0.16921168565750122, 0.007922126911580563, -0.0380333811044693, 0.05645400658249855, 0.04148590937256813, 0.14759503304958344, -0.08623619377613068, 0.15883560478687286, -0.05456654354929924, -0.0995396077632904, -0.1406458020210266, 0.12071054428815842, 0.30965283513069153, -0.0006930745439603925, 0.1185203492641449, 0.04148556664586067, -0.23860874772071838, 0.0490250363945961, 0.25837013125419617, -0.11282490938901901, -0.12861382961273193, 0.06839090585708618, -0.10057169198989868, -0.25848329067230225, -0.15980157256126404, -0.15972699224948883, -0.2976624369621277, -0.09118784964084625, -0.2779403030872345, -0.0677555650472641, 0.20035798847675323, 0.27151742577552795, -0.2028609961271286, 0.5349076390266418, -0.08554592728614807, 0.21167826652526855, -0.043530046939849854, 0.1440407633781433, -0.2197832614183426, -0.4014850854873657, 0.1425447314977646, 0.047370705753564835, -0.0007682724390178919, -0.18844908475875854, -0.033533427864313126, 0.27775755524635315, -0.48859840631484985, 0.24385015666484833, 0.14042292535305023, 0.5982247591018677, -0.035855505615472794, -0.13119842112064362, 0.24058935046195984, -0.15908175706863403, 0.10715662688016891, 0.005818283651024103, 0.05290145054459572, 0.03925863653421402, 0.07184142619371414, 0.14534708857536316, 0.044593606144189835, 0.8471117615699768, -0.18240971863269806, 0.14335890114307404, -0.11624468117952347, 0.168434739112854, 0.019791603088378906, 0.36351725459098816, 0.3908277153968811, -0.17681081593036652, 0.37135931849479675, -0.018205415457487106, 0.5608434677124023, 0.06174619868397713, 0.2930021584033966, -0.12761537730693817, 0.1012999638915062, 0.031528573483228683, -0.21953891217708588, 0.02407033182680607, -0.08409328758716583], [0.004157943185418844, -0.03256015479564667, 0.004908449947834015, 0.048602815717458725, 0.5525199174880981, -0.07020843774080276, -0.043671898543834686, -0.2183898687362671, 0.14485375583171844, 0.0005078900139778852, 0.42568132281303406, -0.08224426954984665, -0.10433261841535568, -0.3263893127441406, -0.041086070239543915, 0.1548980325460434, -0.3190985321998596, -0.031170133501291275, 2.6907832622528076, -0.11626030504703522, 0.06623013317584991, -0.11934366822242737, 0.05021423473954201, 0.10103084146976471, -0.08878108114004135, -0.11051575094461441, -0.1023862436413765, 0.09909229725599289, 0.017554115504026413, 0.039416950196027756, -0.027288107201457024, 0.022160440683364868, 0.020952219143509865, 0.018557516857981682, 0.021904412657022476, 0.15764212608337402, 0.1805437058210373, -0.038001611828804016, -0.13116858899593353, -0.0812494158744812, -0.4161287248134613, -0.20554155111312866, -0.2018757164478302, -0.02976255677640438, -0.019409004598855972, 0.11784221231937408, 0.14550387859344482, -0.03875548392534256, 0.0171381663531065, 0.061574846506118774, 0.11057686060667038, 0.05352512747049332, -0.13682574033737183, 0.09227000921964645, 0.06297922134399414, 0.08769901841878891, 0.20963788032531738, -0.15153083205223083, 0.05823235213756561, 0.06180514767765999, 0.12934273481369019, -0.0002338514750590548, -0.10410952568054199, -0.12589412927627563, -0.20706351101398468, 0.07235018908977509, -0.037040725350379944, -0.2023266851902008, -0.05487853288650513, -0.03347846120595932, -0.1317855715751648, -0.04451297968626022, -0.033412110060453415, 0.148017019033432, 0.2457968145608902, -0.024391893297433853, -0.06516130268573761, -0.3874633312225342, 0.05830227583646774, 0.029169125482439995, -0.07266431301832199, 0.21847543120384216, -0.05700058862566948, -0.1044359803199768, -0.03219161182641983, -0.11580826342105865, 0.045246098190546036, 0.09671271592378616, 0.15052001178264618, 0.12436139583587646, -0.45323726534843445, -0.01275151502341032, 0.20937971770763397, 0.04477014020085335, -0.07999058812856674, 0.06664679199457169, 0.09101645648479462, 0.01083815935999155, 0.09606292843818665, -0.009111464954912663, 0.03526755049824715, 0.031599219888448715, 0.062061429023742676, 0.09173764288425446, -0.011624595150351524], [-0.3076288104057312, 0.10396560281515121, 0.029071783646941185, -0.2438826560974121, -1.333988070487976, -0.08504059910774231, -0.061070516705513, -0.23223178088665009, -0.09478990733623505, 0.12555283308029175, -0.12563632428646088, 0.08838890492916107, 0.08929148316383362, 0.15153083205223083, -0.5849481821060181, 0.010897593572735786, -0.08402593433856964, -0.2756659984588623, -0.8403440117835999, -0.22150860726833344, -0.21128052473068237, 0.10445106029510498, 0.36968058347702026, 0.13417653739452362, -0.0802081748843193, -0.40465420484542847, -0.2503573000431061, -0.104385145008564, -0.14800122380256653, 0.06118105724453926, 0.10053607076406479, -0.02259807661175728, -0.03495606780052185, -0.115707166492939, -0.1864309161901474, 0.29468730092048645, -0.06918887794017792, 0.04073160141706467, 0.09600946307182312, 0.02115539275109768, -0.042551834136247635, 0.2733982801437378, 0.022677963599562645, 0.05105738341808319, -0.046424172818660736, 0.10375280678272247, 0.05722189322113991, 0.2144901007413864, 0.09986310452222824, 0.0747528225183487, 0.09700307995080948, -0.1584969013929367, 0.07741974294185638, 0.06516008824110031, -0.02906990237534046, -0.10687748342752457, -0.06326999515295029, 0.09080357104539871, -0.1399611234664917, -0.6030135750770569, 0.08840574324131012, 0.056084245443344116, 0.09763870388269424, 0.7949212193489075, 0.034863460808992386, 0.03645815700292587, -0.37728166580200195, 0.022903960198163986, 0.0838390588760376, -0.0674145296216011, 0.45178908109664917, -0.14163435995578766, -0.11382376402616501, -0.37049639225006104, 0.01750524342060089, -0.1487366259098053, 0.00047970263403840363, 0.09808401018381119, -0.02772069349884987, -0.10370878875255585, 0.08529708534479141, 0.1752273291349411, 0.09314034879207611, 0.13790053129196167, -0.1525752693414688, -0.015864575281739235, -0.18957270681858063, -0.12027645856142044, -0.2560245990753174, -0.041026756167411804, -0.31967809796333313, 0.321095734834671, -0.36640435457229614, 0.07745693624019623, 0.126333087682724, -0.03179067373275757, 0.17720824480056763, 0.23286360502243042, 0.37995851039886475, -0.02301129698753357, 0.21832184493541718, 0.04966045171022415, 0.04811946302652359, 0.07242894172668457, 0.22807791829109192], [-0.06154320389032364, 0.07775603234767914, -0.06803565472364426, -0.12146022170782089, -1.0973809957504272, 0.06811661273241043, -0.09794939309358597, -0.1995336264371872, 0.07707957923412323, -0.16053761541843414, -0.07233618944883347, 0.05963902920484543, -0.2092278003692627, 0.03243761509656906, -0.08099088817834854, -0.2657361328601837, 0.4075164794921875, -0.11230408400297165, -0.40531307458877563, 0.1961003839969635, -0.17224088311195374, -0.21105699241161346, -0.34507060050964355, -0.22137905657291412, 0.1280456930398941, 0.011836637742817402, -0.012105874717235565, 0.08986114710569382, -0.13910797238349915, -0.06454472988843918, -0.16754919290542603, -0.08223392069339752, 0.09709694236516953, -0.021068314090371132, 0.04711047559976578, -0.04163160175085068, -0.03928569331765175, -0.06246843561530113, -0.1881818026304245, -0.08807794749736786, -0.21200598776340485, 0.2594003677368164, -0.00893666036427021, 0.2121415138244629, 0.016259757801890373, 0.2507398724555969, 0.14343275129795074, -0.0027956722769886255, -0.08133629709482193, -0.02131427824497223, -0.10699625313282013, 0.07684435695409775, 0.07228541374206543, -0.0009917971910908818, 0.06701656430959702, 0.1427723914384842, 0.09849490970373154, 0.007386536803096533, 0.16067102551460266, 0.03846891224384308, -0.14136825501918793, 0.214298814535141, -0.02898535691201687, 0.12427804619073868, -0.006565805524587631, 0.08538737148046494, 0.09845059365034103, 0.012539179064333439, -0.08026421815156937, -0.007130474783480167, 0.037138890475034714, 0.351394385099411, -0.04335710033774376, 0.22722473740577698, -0.23953746259212494, 0.1056152805685997, -0.051961686462163925, 0.0761265903711319, -0.05531081557273865, -0.18716761469841003, 0.032888833433389664, 0.21737860143184662, -0.15626010298728943, -0.13073819875717163, -0.12220818549394608, -0.0645778477191925, -0.15004567801952362, -0.1724148839712143, -0.22705629467964172, -0.057344093918800354, -0.6910402178764343, 0.06454738229513168, -0.06382987648248672, 0.15405228734016418, 0.034250322729349136, -0.10748941451311111, 0.1811610460281372, 0.11154953390359879, -0.0885339230298996, -0.016504576429724693, 0.055277660489082336, 0.00853455625474453, 0.13068559765815735, -0.10469380766153336, -0.3073956072330475], [0.051557280123233795, -0.14811718463897705, -0.4364522695541382, -0.1633121371269226, -0.06721031665802002, 0.1819799691438675, -0.3114607632160187, 0.11772380769252777, 0.18706464767456055, 0.6569505929946899, 0.7361977696418762, 0.07540904730558395, 0.03655923157930374, -0.7471808791160583, -0.14759579300880432, -0.5958966016769409, 0.11948767304420471, -0.8866455554962158, 0.2543434500694275, 0.02185549959540367, 0.00816856324672699, 0.38514992594718933, -0.5999373197555542, 0.0908258929848671, -0.016252879053354263, -0.010284865275025368, 0.06682580709457397, 0.15527863800525665, 0.047776151448488235, 0.08210067451000214, 0.0013426459627225995, 0.4204109013080597, -0.1034272313117981, -0.11312847584486008, 0.2077295035123825, -0.3509967625141144, -0.3254007399082184, -0.813054084777832, -0.3705822825431824, -0.550028920173645, -0.19855476915836334, -0.20282098650932312, -0.431218683719635, -0.0938752144575119, -0.3641292452812195, -0.009364573284983635, -0.13833844661712646, -0.3436505198478699, 0.29772332310676575, 0.0232442244887352, 0.19342561066150665, 0.028084056451916695, 0.2123091220855713, 0.01738463155925274, 0.07479800283908844, -0.07791183143854141, 0.08302482962608337, -0.10598008334636688, 0.21215510368347168, 0.015648290514945984, 0.1879255175590515, -0.16782516241073608, -0.08582869917154312, 0.01732582040131092, -0.2357177734375, 0.12728850543498993, -0.22126652300357819, 0.3253506124019623, 0.025061341002583504, 0.1992068588733673, -0.08085521310567856, -0.07386382669210434, 0.21305634081363678, -0.23799563944339752, -0.09390426427125931, 0.2239605188369751, -0.23065735399723053, -0.25081753730773926, 0.08419040590524673, -0.41667917370796204, -0.3598327338695526, 0.11807411164045334, 0.6219984889030457, -0.7139312028884888, -0.5318808555603027, -0.5754905939102173, 0.12313459068536758, -0.14519062638282776, -0.08381013572216034, -0.19176645576953888, -0.25855377316474915, 0.7714319825172424, 0.2650412321090698, 0.3762432634830475, -0.2836882174015045, 0.04919033497571945, -0.26200470328330994, -0.12130608409643173, -0.30432888865470886, -0.13760878145694733, -0.03682897612452507, -0.09946494549512863, -0.28176629543304443, 0.25295132398605347, -0.1919659674167633], [0.054085347801446915, 0.09274059534072876, 0.471670538187027, 0.11368300020694733, -0.09028930217027664, -0.12799544632434845, -0.19125999510288239, -0.29990679025650024, -0.024345949292182922, -0.12211327254772186, 0.016902359202504158, 0.022785615175962448, 0.19761940836906433, 0.056019533425569534, -0.2581457793712616, 0.13587035238742828, 0.22705484926700592, 0.1692160815000534, -2.789569854736328, -0.13030759990215302, 0.15715248882770538, -0.1378970593214035, -0.29228076338768005, 0.07028239220380783, -0.09003324806690216, 0.3447023630142212, -0.06262627989053726, 0.023722641170024872, -0.06827130168676376, 0.09818653017282486, 0.00020874018082395196, -0.17125217616558075, -0.026472395285964012, -0.052101314067840576, 0.027660591527819633, 0.0751533955335617, -0.17052848637104034, -0.025667395442724228, 0.1405152827501297, 0.12438573688268661, -0.3995439410209656, -0.3925529420375824, 0.05869419872760773, -0.05092442408204079, -0.046138785779476166, -0.0667199194431305, -0.04778769612312317, 0.08893006294965744, -0.15846635401248932, 0.1514047235250473, -0.24799072742462158, -0.12817107141017914, 0.0519547164440155, 0.00663886358961463, 0.027131715789437294, -0.03242280334234238, 0.03445233404636383, -0.31342780590057373, 0.045938801020383835, 0.12187637388706207, 0.056352805346250534, 0.09200939536094666, -0.172738179564476, -0.06826034188270569, 0.1336527019739151, 0.06474431604146957, -0.20411670207977295, -0.013261601328849792, 0.042509160935878754, -0.013149960897862911, 0.4074079394340515, 0.08810491859912872, 0.10161323100328445, 0.035121314227581024, -0.0010649545583873987, -0.019190838560461998, -0.03026583604514599, 0.30408331751823425, 0.025452205911278725, -0.12538829445838928, 0.008633970282971859, 0.013609591871500015, 0.11465165764093399, -0.14233344793319702, -0.11544430255889893, 0.1290065050125122, -0.04888336732983589, 0.13303187489509583, 0.0016956387553364038, 0.0556076243519783, 0.2694571614265442, 0.4935559630393982, -0.05912652239203453, -0.1130838543176651, -0.011675350368022919, -0.13501791656017303, -0.3268108665943146, 0.2843157649040222, -0.3160165548324585, -0.1779024302959442, -0.030393799766898155, 0.12031973153352737, -0.013821474276483059, 0.1279747039079666, 0.0022029506508260965], [-0.07121135294437408, -0.020971979945898056, 0.06764253973960876, 0.01379251666367054, 0.4166800379753113, 0.032873351126909256, 0.08422563225030899, -0.10473407804965973, -0.04494435340166092, -0.019639674574136734, -0.05051479861140251, -0.17942771315574646, -0.13278770446777344, 0.08333542943000793, -0.11889296025037766, -0.22313326597213745, 0.3925589621067047, 0.1517915576696396, 0.842121422290802, -0.27743029594421387, 0.14252209663391113, -0.090545654296875, 0.46527543663978577, 0.08113041520118713, -0.11706538498401642, 0.03884676843881607, 0.13228915631771088, 0.27142971754074097, -0.17317737638950348, 0.2119111716747284, -0.1348792463541031, 0.2730664610862732, -0.02562485821545124, -0.23267658054828644, -0.006057631690055132, 0.0435880571603775, -0.16876152157783508, 0.08382813632488251, -0.07475768774747849, -0.30987924337387085, -0.2225624918937683, -0.1683773547410965, -0.10642598569393158, -0.18886543810367584, 0.11120746284723282, 0.08785086870193481, -0.03758326172828674, 0.03017730452120304, 0.09218884259462357, 0.03016929142177105, -0.03338641673326492, 0.08147581666707993, 0.21913190186023712, 0.0700933113694191, -0.12849248945713043, -0.01323030423372984, 0.041457727551460266, 0.14057031273841858, -0.21211013197898865, -0.9382696151733398, 0.19781726598739624, -0.11240005493164062, 0.11554351449012756, -0.07397311180830002, -0.028684403747320175, -0.33923935890197754, -0.5479696393013, 0.04810887575149536, 0.02381967008113861, -0.08361611515283585, 0.21387003362178802, 0.029313763603568077, -0.09850585460662842, -0.048690520226955414, -0.1960749477148056, -0.41386985778808594, -0.026155516505241394, 0.23653732240200043, 0.15012431144714355, -0.24257150292396545, 0.04378023371100426, -0.08709294348955154, -0.0040901354514062405, -0.0828893855214119, 0.06266646087169647, -0.03416293114423752, 0.004050279967486858, -0.09828968346118927, 0.10018431395292282, 0.19342541694641113, -0.2048037350177765, -0.1653411090373993, 0.13276800513267517, -0.14712733030319214, 0.01923798955976963, -0.10415897518396378, 0.32970622181892395, -0.0973469689488411, 0.043102048337459564, 0.06448547542095184, 0.2389267086982727, 0.07858149707317352, -0.13630318641662598, -0.046816304326057434, 0.1498853713274002], [0.15324121713638306, -0.11491172015666962, -0.002370932139456272, -0.2629813253879547, 1.5235992670059204, -0.21914085745811462, 0.02342493273317814, -0.29311904311180115, -0.1854291558265686, -0.09685997664928436, 0.2695003151893616, -0.188283309340477, -0.0932130217552185, -0.13632696866989136, 0.07987949252128601, 0.13121429085731506, 0.17621083557605743, 0.1884901225566864, 1.1392725706100464, -0.08384742587804794, -0.03279495984315872, 0.18555623292922974, 0.3408386707305908, 0.19101791083812714, 0.004196557682007551, -0.03467254340648651, -0.1399744749069214, 0.011049963533878326, -0.22173652052879333, -0.05644506588578224, 0.12262210249900818, 0.015741094946861267, -0.0622892826795578, -0.052400749176740646, -0.02072492428123951, 0.010039741173386574, 0.2095491588115692, 0.0032145781442523003, 0.006496459245681763, 0.3261168301105499, -0.04734925553202629, -0.00901104137301445, 0.055042117834091187, 0.1259322315454483, 0.04197194427251816, -0.06647703796625137, -0.03890789672732353, -0.013243078254163265, -0.16337120532989502, -0.1371314525604248, -0.03938267379999161, 0.07426180690526962, 0.04054641351103783, 0.06770985573530197, 0.09241348505020142, -0.11040864139795303, -0.12870946526527405, -0.06115036830306053, 0.05562586709856987, 0.338681697845459, 0.0784178376197815, 0.2501550018787384, 0.006277336739003658, -0.2987986207008362, 0.12508222460746765, 0.013516035862267017, 0.12723736464977264, 0.2690299451351166, 0.029051728546619415, 0.0021138996817171574, -0.15199865400791168, 0.3110533356666565, 0.017159899696707726, -0.06192300096154213, -0.12773893773555756, -0.07611550390720367, -0.03232521563768387, 0.18699955940246582, -0.11614718288183212, -0.15713325142860413, 0.17280785739421844, -0.3628278970718384, 0.11360475420951843, -0.28668904304504395, -0.2525375187397003, -0.03328341990709305, 0.12287057191133499, 0.07328616827726364, 0.18948331475257874, -0.12816886603832245, 0.2789849638938904, -0.07597336173057556, 0.09778236597776413, 0.1590193659067154, 0.007693609222769737, 0.05575280264019966, 0.10600846260786057, 0.01700584404170513, -0.03530769422650337, 0.04185423627495766, -0.030140062794089317, 0.002449566498398781, 0.07053912431001663, -0.061535466462373734, -0.08174733817577362], [-0.1844378560781479, 0.13135935366153717, 0.11414932459592819, -0.5002979040145874, -0.2636467218399048, 0.27792251110076904, 0.261733740568161, -0.6431884169578552, -0.2634325921535492, -0.409382164478302, 0.11211492121219635, 0.22129404544830322, -0.2211107611656189, -0.48843637108802795, -0.236833393573761, -0.5151879191398621, -0.09697096794843674, -0.43543529510498047, -0.45782655477523804, -0.3590121269226074, -0.02068333514034748, 0.24071818590164185, -0.22553101181983948, 0.020877333357930183, 0.15324370563030243, -0.06947178393602371, 0.025133132934570312, -0.1325301229953766, 0.06145372614264488, -0.11261257529258728, 0.0896577462553978, -0.22067396342754364, 0.001110557233914733, 0.16305036842823029, 0.01840503327548504, -0.17595236003398895, 0.04067419469356537, 0.057554781436920166, 0.02266189455986023, -0.058430273085832596, 0.008416658267378807, -0.14695996046066284, -0.21851485967636108, 0.09627071022987366, 0.0442851223051548, 0.1833508461713791, -0.016175096854567528, 0.12154288589954376, 0.20974378287792206, 0.11900374293327332, 0.0309157632291317, -0.28025713562965393, -0.07208479195833206, -0.004156328737735748, -0.09015440195798874, 0.025172505527734756, 0.12412943691015244, -0.08654347062110901, -0.06781519949436188, 1.0663354396820068, -0.03814355656504631, -0.08590243011713028, 0.025306101888418198, -0.19543452560901642, 0.07102367281913757, -0.1170852780342102, 0.6980572938919067, -0.24632489681243896, -0.03736785426735878, 0.03583116829395294, -0.37994512915611267, -0.11104756593704224, 0.1505068838596344, 0.39836007356643677, -0.23861131072044373, -0.07633719593286514, -0.1224604994058609, -0.6284768581390381, 0.11212801188230515, -0.18962417542934418, 0.008286292664706707, 0.11431241780519485, 0.10044598579406738, -0.009654375724494457, 0.21712586283683777, 0.0365048348903656, 0.22962559759616852, 0.06873246282339096, 0.1508764922618866, 0.026427095755934715, -0.35392287373542786, 0.2884928584098816, 0.0921580046415329, 0.22792448103427887, 0.060484178364276886, 0.23786897957324982, 0.25553467869758606, -0.29191672801971436, 0.11839926242828369, -0.29965901374816895, -0.05356109142303467, -0.05125889554619789, 0.14097830653190613, 0.16637550294399261, -0.007897384464740753], [0.1810220181941986, 0.034663889557123184, 0.07735981792211533, -0.0077607594430446625, 0.34283190965652466, -0.11778512597084045, -0.18768779933452606, 0.044284675270318985, -0.3414422869682312, 0.26090481877326965, 0.5931304693222046, -0.024688463658094406, -0.3250471353530884, -0.050730302929878235, 0.005602140445262194, -0.13512933254241943, 0.0007795371348038316, -0.1438468098640442, -1.4875516891479492, 0.2133987843990326, -0.3917129337787628, -0.2893863320350647, 0.03601571172475815, -0.09721533209085464, 0.22977174818515778, -0.2067165970802307, 0.0183563195168972, -0.11871276050806046, -0.3474167287349701, -0.17245490849018097, 0.10060687363147736, 0.11197829246520996, 0.03430238738656044, 0.10544665157794952, 0.19510753452777863, 0.18354161083698273, -0.02815506048500538, 0.2012123167514801, 0.2525700032711029, 0.29459378123283386, -0.07689712196588516, 0.07526885718107224, 0.017559245228767395, 0.07136494666337967, 0.014289988204836845, 0.10810858756303787, 0.10819443315267563, -0.3543126881122589, 0.08654197305440903, 0.048942938446998596, 0.06645479798316956, 0.05363764986395836, -0.0633171796798706, -0.12963959574699402, 0.08762813359498978, -0.0478971041738987, 0.1187574565410614, -0.17405010759830475, 0.03226162865757942, 0.06523975729942322, 0.22398914396762848, -0.035897281020879745, 0.1462167501449585, -0.6704075932502747, 0.055509526282548904, -0.17490088939666748, 0.041619714349508286, 0.05950409546494484, -0.0740806832909584, -0.18883618712425232, -0.08922719210386276, 0.02945571020245552, 0.010468101128935814, 0.16111604869365692, -0.1378350704908371, -0.09811344742774963, 0.014009724371135235, -0.23506486415863037, 0.09770268946886063, 0.26206332445144653, 0.10793159902095795, -0.13524320721626282, 0.011114980094134808, 0.13730257749557495, -0.10675866156816483, 0.10393354296684265, -0.057632092386484146, 0.07105705142021179, 0.2249697744846344, 0.11626739799976349, 0.006764233577996492, -0.2439517378807068, 0.16363127529621124, -0.08614878356456757, 0.09218918532133102, 0.22387807071208954, 0.22274887561798096, 0.027020050212740898, 0.09890676289796829, -0.1536884307861328, 0.03421751409769058, -0.2786961495876312, 0.19765961170196533, 0.030105965211987495, -0.34597861766815186], [0.0471901036798954, -0.06829111278057098, 0.19472014904022217, 0.13914664089679718, 0.100723497569561, -0.11229594796895981, -0.10442007333040237, 0.013963712379336357, -0.06429050117731094, -0.03029061108827591, 0.16212743520736694, 0.12011885643005371, -0.15213589370250702, 0.06046657636761665, -0.2864231467247009, -0.03668282926082611, -0.3430365025997162, -0.19056741893291473, -3.9857475757598877, -0.10861117392778397, -0.03144235163927078, 0.057404641062021255, -0.0026614386588335037, -0.08956563472747803, -0.3660585880279541, -0.10269396752119064, 0.09838197380304337, -0.0814475491642952, 0.07610642910003662, 0.054539065808057785, -0.0496068112552166, -0.039956286549568176, 0.030497267842292786, -0.1796354502439499, -0.016092579811811447, 0.08750280737876892, 0.08475005626678467, -0.15781697630882263, -0.08654739707708359, -0.08346724510192871, -0.0464300774037838, -0.08549400418996811, -0.021688953042030334, -0.09740103781223297, -0.005802912637591362, 0.0041251895017921925, -0.038328271359205246, -0.0003071911633014679, 0.027255939319729805, -0.014768006280064583, 0.04419498145580292, 0.12079115957021713, -0.1895107626914978, 0.2313944548368454, -0.19258134067058563, 0.14965297281742096, 0.1612768918275833, 0.13655497133731842, 0.0874563455581665, 0.02304382622241974, -0.17408210039138794, 0.023410744965076447, 0.003174270037561655, -0.04294510558247566, 0.04893073812127113, 0.019544409587979317, 0.10702147334814072, -0.07893586903810501, 0.021467946469783783, -0.001980193890631199, -0.1567969173192978, 0.12994733452796936, 0.0644742101430893, 0.05253572762012482, -0.10253318399190903, -0.060938309878110886, -0.034345854073762894, 0.02643188089132309, 0.0735081359744072, 0.25582537055015564, -0.010959490202367306, -0.048033930361270905, -0.2055768072605133, -0.03205268830060959, 0.024020913988351822, 0.01302917581051588, 0.021434564143419266, 0.03423173353075981, -0.11872608959674835, -0.18647392094135284, 0.18846529722213745, 0.08645673841238022, 0.020789120346307755, -0.01171895395964384, 0.046346332877874374, -0.13148945569992065, -0.0527188777923584, -0.06935600191354752, 0.009653753601014614, 0.008038646541535854, -0.0696847140789032, -0.1579715758562088, -0.011676046065986156, -0.08611997961997986, -0.011992569081485271], [-0.14588864147663116, 0.07243799418210983, 0.07907845079898834, -0.06725646555423737, -3.226417064666748, -0.24165703356266022, 0.11563470214605331, 0.07320322841405869, 0.007530896458774805, 0.01239204965531826, -0.521013081073761, 0.09773888438940048, 0.2341439574956894, 0.1061093732714653, 0.00926228053867817, -0.09426494687795639, 0.012494763359427452, -0.012030461803078651, -0.055886976420879364, 0.5488795042037964, 0.16590170562267303, 0.04925324022769928, 0.4168052077293396, -0.24465589225292206, -0.5005967617034912, -0.2247825711965561, 0.006309688091278076, -0.08880699425935745, -0.13589048385620117, -0.006752121727913618, -0.07426194846630096, -0.044858936220407486, 0.009140774607658386, -0.18092839419841766, 0.02810840494930744, -0.012194132432341576, 0.38312986493110657, 0.2902268171310425, 0.1582678109407425, -0.09750036895275116, 0.17823487520217896, 0.1305844932794571, -0.019507210701704025, -0.1829584836959839, 0.013677800074219704, -0.1962180882692337, -0.05962499603629112, -0.16455848515033722, -0.1938980370759964, 0.05991484969854355, -0.1724720001220703, 0.051873646676540375, 0.0276313666254282, -0.09477169066667557, 0.056472595781087875, 0.06856836378574371, -0.16838578879833221, 0.07888065278530121, -0.07309012860059738, -0.12086716294288635, 0.053412072360515594, -0.16383522748947144, 0.11608811467885971, 0.4298471510410309, 0.17084302008152008, -0.13308891654014587, -0.05265035480260849, -0.026021501049399376, -0.15905018150806427, -0.059061892330646515, 0.32308486104011536, 0.17685957252979279, -0.046087734401226044, 0.055984191596508026, -0.10161254554986954, 0.0208183154463768, -0.16940128803253174, -0.13990147411823273, -0.056549783796072006, 0.048145562410354614, -0.09976410865783691, 0.11087536066770554, -0.150224506855011, -0.1213759258389473, 0.06798213720321655, 0.13586510717868805, -0.09744106978178024, 0.0746486634016037, -0.15717504918575287, 0.11707527935504913, -0.24424883723258972, -0.1935470551252365, 0.043935902416706085, -0.005418167915195227, -0.22813771665096283, 0.1063816025853157, -0.04529021307826042, -0.28500810265541077, -0.00486680306494236, -0.08574800938367844, -0.02366928569972515, -0.0783928856253624, 0.09337557107210159, 0.17234650254249573, 0.01898679882287979], [-0.20136654376983643, -0.1858685314655304, 0.21484586596488953, 0.047864098101854324, -0.2598361074924469, 0.11963912099599838, -0.05360027402639389, -0.15396380424499512, -0.246004119515419, -0.04276767745614052, -0.07481817901134491, 0.09708213806152344, -0.1532597839832306, 0.013340591453015804, 0.14193324744701385, 0.07674022018909454, -0.29985177516937256, 0.0427713505923748, -3.671135902404785, 0.10502486675977707, 0.018603116273880005, -0.04991566762328148, 0.0481717623770237, -0.20510520040988922, -0.06858018785715103, 0.08362191170454025, -0.06773578375577927, 0.06542748957872391, 0.028025539591908455, -0.014020226895809174, -0.1275826394557953, 0.0716700330376625, -0.16830675303936005, 0.09401517361402512, 0.19127213954925537, -0.01710384525358677, 0.1233130469918251, 0.007371205370873213, -0.06310130655765533, -0.13938678801059723, 0.03235558420419693, 0.1530640870332718, 0.08151326328516006, 0.01704224944114685, -0.09857318550348282, 0.03206957131624222, -0.011668706312775612, -0.06774183362722397, 0.054487194865942, -0.03860184922814369, -0.05682521313428879, 0.03941801190376282, -0.22652538120746613, -0.001580481301061809, 0.051370494067668915, -0.009708091616630554, -0.015371426939964294, -0.1594557911157608, -0.08798962086439133, 0.04778234660625458, 0.03682095557451248, -0.0449623167514801, -0.036570604890584946, 0.0010763031896203756, 0.006381272803992033, -0.04067565128207207, 0.05357135832309723, -0.2118738442659378, 0.02737557701766491, -0.020864572376012802, -0.07005833834409714, 0.13307027518749237, -0.021748356521129608, 0.06772489845752716, 0.03470487892627716, -0.07929506152868271, 0.0457032173871994, -0.0346023254096508, -0.038969624787569046, 0.16004955768585205, -0.09499817341566086, -0.008905474096536636, 0.04170166328549385, -0.06142739579081535, 0.018378065899014473, -0.016264528036117554, 0.10327453911304474, -0.12248171120882034, 0.001291650696657598, 0.28935763239860535, 0.2094530165195465, 0.04524968937039375, -0.050687238574028015, -0.03267637640237808, -0.05037210136651993, 0.2514154613018036, 0.202623650431633, 0.03234181925654411, -0.22945664823055267, -0.0999646931886673, -0.016596676781773567, 0.24466444551944733, -0.31886789202690125, 0.12107840180397034, -0.13642609119415283], [-0.10699117183685303, 0.12306462973356247, -0.27676528692245483, 0.02964610978960991, 0.5861307382583618, -0.10747356712818146, -0.03532063961029053, -0.06735072284936905, -0.06007909029722214, -0.0910085067152977, 0.3643454313278198, 0.008518361486494541, -0.011147021315991879, -0.015595228411257267, -0.17731797695159912, -0.09938234090805054, -0.13220150768756866, -0.20725677907466888, 2.244908094406128, 0.13593734800815582, -0.01598118431866169, -0.09048651158809662, -0.15625543892383575, -0.14325715601444244, 0.008360975421965122, 0.11162213236093521, 0.1303352266550064, -0.11509209871292114, -0.009307602420449257, -0.2598761320114136, -0.007174776867032051, -0.00038122243131510913, 0.015319920144975185, 0.14902038872241974, 0.232505664229393, 0.20063480734825134, -0.1744414120912552, 0.13583718240261078, -0.02601274475455284, -0.20104625821113586, -0.06877341866493225, -0.19904212653636932, -0.09409253299236298, 0.023394666612148285, -0.11472544819116592, 0.007646777201443911, -0.0729169249534607, -0.054699212312698364, 0.09110932052135468, -0.15592077374458313, 0.22627995908260345, -0.2837371528148651, 0.05640489608049393, 0.07927128672599792, 0.12452340126037598, -0.18839813768863678, 0.054324306547641754, -0.10790322721004486, 0.1917325258255005, 0.35320019721984863, -0.14759954810142517, 0.05788746476173401, 0.4242986738681793, -0.5530272126197815, 0.04267030954360962, 0.047686874866485596, 0.243663489818573, -0.32472047209739685, 0.25446459650993347, 0.22217896580696106, -0.30176323652267456, -0.1030859500169754, -0.034330565482378006, -0.2289430797100067, -0.18040019273757935, 0.09702086448669434, 0.16460032761096954, 0.0250779390335083, 0.07887186855077744, -0.1885591745376587, -0.1335947960615158, -0.04493318870663643, -0.08114845305681229, -0.10318180918693542, 0.05881010368466377, 0.14039461314678192, -0.10574979335069656, -0.3247040808200836, -0.05585186555981636, 0.22865714132785797, 0.34090304374694824, -0.18874205648899078, -0.08828583359718323, 0.07598843425512314, -0.1520439237356186, 0.11166614294052124, 0.07734964787960052, -0.1512828916311264, -0.10857929289340973, -0.01405054610222578, 0.09307140111923218, -0.139740452170372, -0.04324730485677719, 0.08195818960666656, -0.14549145102500916], [0.2430448830127716, -0.13783538341522217, -0.00011226585775148124, 0.05974418669939041, -1.8148472309112549, -0.009445718489587307, -0.0090309027582407, -0.20744602382183075, -0.1074436828494072, -0.24161626398563385, 0.17260730266571045, -0.15477778017520905, 0.051020633429288864, 0.04079524055123329, 0.12180950492620468, 0.1830894649028778, -0.08587369322776794, 0.1864912509918213, 0.17311611771583557, 0.13440173864364624, 0.04564439505338669, 0.031055891886353493, -0.18788735568523407, -0.02269289642572403, 0.06703109294176102, 0.19475047290325165, 0.28227776288986206, 0.010833743028342724, -0.18413138389587402, -0.21843107044696808, 0.14625510573387146, 0.05377761647105217, -0.17945629358291626, 0.13674508035182953, 0.06316705793142319, -0.03842465206980705, 0.06791296601295471, 0.11140183359384537, 0.07536095380783081, -0.12442845851182938, -0.11638045310974121, -0.016354437917470932, -0.109860859811306, -0.2346837818622589, 0.04999233037233353, -0.12551338970661163, 0.0029952586628496647, -0.18426568806171417, -0.23424465954303741, 0.216682568192482, 0.09032940119504929, -0.21394997835159302, -0.1215650886297226, 0.06038910895586014, -0.12374024093151093, 0.04734046384692192, -0.0006854722741991282, 0.2770465910434723, 0.11072845011949539, -0.07086382806301117, -0.01354073267430067, 0.09628848731517792, 0.044019024819135666, 0.6851153373718262, -0.014362823218107224, 0.09999728947877884, 0.04071634262800217, 0.09969867020845413, 0.023106686770915985, 0.03577917069196701, -0.012380206026136875, -0.08028923720121384, 0.14703181385993958, -0.12521207332611084, -0.05757724866271019, -0.25625574588775635, -0.12725505232810974, 0.15714477002620697, -0.028037024661898613, 0.08172308653593063, -0.09095456451177597, 0.0533471517264843, -0.026671770960092545, 0.08541405946016312, 0.009398912079632282, 0.0337941013276577, -0.24895121157169342, 0.11561168730258942, 0.197499617934227, 0.08566214889287949, 0.624786376953125, -0.4535174071788788, 0.024282734841108322, 0.1860840916633606, 0.23929202556610107, -0.2405954897403717, -0.11038446426391602, 0.021958867087960243, -0.12381625175476074, 0.2247331589460373, 0.07614972442388535, 0.11942381411790848, 0.1699903905391693, -0.205190509557724, -0.005509968381375074], [-0.10379285365343094, 0.04624636471271515, -0.13452409207820892, -0.02836047112941742, 0.810478687286377, 0.15041127800941467, -0.01969718374311924, 0.21450135111808777, 0.27441149950027466, 0.3314094841480255, 0.34630250930786133, -0.1973828375339508, -0.4325694143772125, 0.31995221972465515, -0.0711846724152565, -0.2734737992286682, 0.3125949203968048, 0.047280680388212204, -0.503914475440979, 0.10585089027881622, 0.05023733526468277, 0.31174764037132263, -0.05464352294802666, 0.043821077793836594, 0.17350150644779205, 0.012423034757375717, -0.007312108762562275, -0.13293927907943726, -0.0701948031783104, -0.09435289353132248, -0.09587685763835907, 0.23135583102703094, -0.17214247584342957, 0.06537127494812012, -0.02420385368168354, -0.22158634662628174, -0.12296190112829208, -0.05703118443489075, -0.3005554676055908, -0.15550820529460907, 0.09856203943490982, 0.3487810492515564, 0.026824073866009712, 0.1562391072511673, 0.14293745160102844, 0.013762643560767174, 0.035930272191762924, 0.27288907766342163, 0.1008749008178711, -0.11980269104242325, -0.0625370517373085, -0.0021418288815766573, -0.10511327534914017, 0.017586607486009598, -0.07354287058115005, 0.17953208088874817, -0.0756344199180603, 0.0034133701119571924, 0.30932801961898804, 0.028958285227417946, -0.004992169793695211, -0.15721066296100616, -0.18622229993343353, -0.1580572873353958, 0.03460445627570152, 0.12176917493343353, -0.18742989003658295, 0.5122442841529846, 0.006561388727277517, 0.01818050816655159, 0.08629987388849258, 0.06795251369476318, 0.34175074100494385, 0.14455865323543549, 0.051009103655815125, -0.0028385280165821314, -0.09487543255090714, 0.1213017925620079, -0.26057830452919006, 0.016955792903900146, 0.25478407740592957, -0.03561391308903694, -0.022337371483445168, -0.10661043226718903, -0.48311278223991394, 0.1809656322002411, -0.07335033267736435, 0.1608998030424118, 0.12948046624660492, 0.2714683413505554, -0.07436967641115189, -0.2507515549659729, 0.07706840336322784, 0.009616032242774963, -0.1921451836824417, -0.14684683084487915, -0.08509869128465652, -0.061094339936971664, 0.062958262860775, -0.06562059372663498, 0.2357403188943863, 0.05106080695986748, 0.16126495599746704, 0.01622358337044716, -0.4028457999229431], [-0.020650293678045273, 0.16455087065696716, -0.07245926558971405, -0.13876688480377197, -0.5555599927902222, 0.0032085413113236427, -0.411146879196167, -0.18532803654670715, -0.1926591992378235, -0.13990625739097595, 0.6153095960617065, 0.05595061555504799, -0.444044828414917, 0.21202003955841064, -0.02805877849459648, -0.24191813170909882, -0.14388035237789154, -0.4195241332054138, 1.0357941389083862, 0.2560974061489105, -0.012153013609349728, -0.10349417477846146, -0.22489482164382935, -0.3997138440608978, -0.03407818078994751, -0.21649570763111115, 0.012268238700926304, -0.11697594821453094, 0.2580638825893402, -0.030999086797237396, 0.10998327285051346, 0.12608130276203156, 0.0883735716342926, -0.060133177787065506, 0.11807172000408173, 0.029539888724684715, -0.08961023390293121, 0.05128377676010132, 